tree
version=v4
num_class=1
num_tree_per_iteration=1
label_index=0
max_feature_idx=10
objective=binary sigmoid:1
feature_names=rsi adx macd_hist wt2 close_vs_ema_fast close_vs_ema_slow close_vs_hma atr_pct vol_filter donchian_trend direction_bull
feature_infos=[15.375926408004077:81.191201309664109] [20.008454307022426:64.246245036946362] [-6.3166779820893133:10.504328664023728] [-1018.9435297347876:90.251514233414426] [-0.15633628405381597:0.10195735021027801] [-0.18979036158501711:0.13828580984579547] [-0.086034069791167456:0.073656601871182142] [0.0012890781011133698:0.030305423205775488] [0:1] [-1:1] [0:1]
tree_sizes=1680 1602 1692 1605 1702 1705 1719 1705 1717 1705 1707 1721 1711 1713 1716 1710 1717 1718 1717 1712 1728 1724 1716 1619 1709 1731 1628 1710 1720 1714 1727 1721 1719 1703 1721 1711 1711 1716 1717 1714 1736 1718 1729 1715 1709 1726 1713 1717 1728 1723 1726 1704 1728 1728 1719 1725 1710 1707 1716 1727 1722 1727 1712 1732 1726 1725 1741 1725 1723 1751 1741 1709 1627 1736 1714 1637 1727 1741 1736 1729 1731 1725 1725 1729 1721 1628 1737 1735 1737 1733 1737 1742 1728 1734 1733 1747 1725 1735 1735 1754 1728 1728 1742 1736 1729 1733 1737 1732 1735 1734 1739 1732 1741 1739 1741 1729 1734 1742 1731 1741 1725 1727 1760 1737 1742 1743 1737 1631 1747 1731 1633 1731 1737 1734 1735 1751 1745 1736 1747 1735 1736 1740 1742 1751 1730 1738 1750 1738 1744 1748 1749 1736 1735 1736 1731 1749 1736 1737 1738 1750 1730 1743 1745 1733 1749 1737 1740 1756 1728 1759 1740 1733 1741 1733 1741 1742 1745 1755 1743 1732 1750 1735 1728 1739 1752 1738 1750 1741 1746 1735 1723 1754 1729 1748 1744 1758 1753 1737 1742 1736

Tree=0
num_leaves=15
num_cat=0
split_feature=1 3 7 7 7 6 1 0 7 7 3 1 0 1
split_gain=12.6361 10.2379 7.49882 11.9419 8.66285 5.86233 7.51518 5.15289 4.85135 7.05821 9.0136 3.93673 2.39626 2.02759
threshold=32.092703067490184 61.49271841758496 0.0080007438487877166 0.0062454236493429656 0.0071585810433573739 0.0022359260882492374 23.594092927955522 42.884386112848652 0.011257449765344025 0.0077632610432040641 -22.854628654561388 27.596276487406701 47.479642964561513 24.311112091827635
decision_type=2 2 2 2 2 10 2 2 2 2 2 2 2 2
left_child=2 8 3 5 -5 7 -7 -1 9 10 -2 13 -4 -9
right_child=1 -3 12 4 -6 6 -8 11 -10 -11 -12 -13 -14 -15
leaf_value=-0.25879574931210658 -0.25031675652521707 -0.28423272767277519 -0.33436938067351335 -0.19645021411438934 -0.2737970442427573 -0.2972773319602976 -0.22318397960717051 -0.30966970603344379 -0.17909321711534487 -0.27487659770103501 -0.17117949051424805 -0.27806618746412826 -0.29221295617808302 -0.35206466996789154
leaf_weight=5.8969269990921047 7.8625693321228045 9.5825063735246641 5.6512217074632636 8.3539799153804761 6.3883375823497763 6.3883375823497754 7.3711587488651276 5.8969269990921038 4.9141058325767508 7.1254534572362891 6.6340428739786184 5.405516415834426 8.3539799153804761 5.4055164158344269
leaf_count=24 32 39 23 34 26 26 30 24 20 29 27 22 34 22
internal_value=-0.263653 -0.239934 -0.27681 -0.267927 -0.229967 -0.283316 -0.257584 -0.298979 -0.223938 -0.23413 -0.214101 -0.313161 -0.309223 -0.329946
internal_weight=101.231 36.1187 65.1119 51.1067 14.7423 36.3644 13.7595 22.6049 26.5362 21.6221 14.4966 16.708 14.0052 11.3024
internal_count=412 147 265 208 60 148 56 92 108 88 59 68 57 46
is_linear=0
shrinkage=1


Tree=1
num_leaves=14
num_cat=0
split_feature=1 3 7 7 7 1 7 7 3 7 6 1 0
split_gain=11.3951 9.1934 6.82865 10.7698 7.73415 5.57568 4.30221 6.31919 7.9954 3.85255 5.7646 4.48746 2.21229
threshold=32.092703067490184 61.49271841758496 0.0080007438487877166 0.0062454236493429656 0.0071585810433573739 28.101605449489426 0.011257449765344025 0.0077632610432040641 -22.854628654561388 0.0053790615872382208 0.0027942399361831202 23.486176987567461 47.479642964561513
decision_type=2 2 2 2 2 2 2 2 2 2 10 2 2
left_child=2 6 3 5 -5 9 7 8 -2 10 11 -1 -4
right_child=1 -3 12 4 -6 -7 -8 -9 -10 -11 -12 -13 -14
leaf_value=-0.0072401219091842292 0.0126469535139523 -0.01960734849548218 -0.067907516303346599 0.063339417265514036 -0.0096505841395855049 0.020069301983756279 0.079565410965859021 -0.010679200653696187 0.08694978037507653 -0.057362031172722039 0.020286290706701283 -0.064513828301818385 -0.02724227330987955
leaf_weight=6.8550933897495323 7.8759803771972674 9.5556998848915082 5.5922312438487998 8.4185151457786542 6.3796882033348075 7.3711805641651145 4.9601203203201285 7.1147590130567542 6.7007924616336858 8.3187022656202299 6.8829276859760276 6.8250931054353714 8.3211010396480543
leaf_count=28 32 39 23 34 26 30 20 29 27 34 28 28 34
internal_value=-7.81963e-06 0.0224692 -0.0125352 -0.00407243 0.0318725 -0.0187449 0.0375554 0.0279491 0.0468032 -0.028651 -0.0170361 -0.0358142 -0.043587
internal_weight=101.172 36.2074 64.9645 51.0512 14.7982 36.253 26.6517 21.6915 14.5768 28.8818 20.5631 13.6802 13.9133
internal_count=412 147 265 208 60 148 108 88 59 118 84 56 57
is_linear=0
shrinkage=0.05


Tree=2
num_leaves=15
num_cat=0
split_feature=1 3 7 7 0 6 1 3 3 1 1 1 0 6
split_gain=10.2892 8.27291 6.22498 9.72242 7.02266 5.10989 6.64756 5.07124 4.94723 4.01607 7.76646 3.51726 2.0523 2.02644
threshold=32.092703067490184 61.49271841758496 0.0080007438487877166 0.0062454236493429656 53.352675243147239 0.0022359260882492374 23.594092927955522 -5.6348173910582577 40.3275852122839 37.54518687866409 43.900066743064961 23.486176987567461 47.479642964561513 0.0018413681183553877
decision_type=2 2 2 2 2 10 2 2 2 2 2 2 2 10
left_child=2 9 3 5 7 8 -7 -5 11 13 -11 -1 -4 -2
right_child=1 -3 12 4 -6 6 -8 -9 -10 10 -12 -13 -14 -15
leaf_value=0.015216638213817977 0.081105508745544258 -0.01868175777123901 -0.065335340306337308 0.041674448845523016 0.078722430241682018 -0.031449181643325518 0.038298172702586897 -0.030001576574551794 -0.062622435772060239 -0.017843534487049277 0.053333733439958113 -0.035745865692200306 -0.025990140210604713 0.03873581744263957
leaf_weight=5.8655031472444561 5.1979163140058535 9.528390705585478 5.5235073417425147 4.9317076206207267 4.9625139236450186 6.3423502594232541 7.4046529680490494 4.9394091963767996 8.5104965418577176 7.424895763397215 7.9210842996835709 8.0079641789197904 8.2867762148380262 6.1740556508302689
leaf_count=24 21 39 23 20 20 26 30 20 35 30 32 33 34 25
internal_value=-1.36268e-05 0.0213181 -0.0119503 -0.00388164 0.0302015 -0.0178745 0.00611937 0.00580847 -0.0326102 0.0355832 0.0188958 -0.0141996 -0.0417265 0.0581022
internal_weight=101.021 36.2463 64.7749 50.9646 14.8336 36.131 13.747 9.87112 22.384 26.718 15.346 13.8735 13.8103 11.372
internal_count=412 147 265 208 60 148 56 40 92 108 62 57 57 46
is_linear=0
shrinkage=0.05


Tree=3
num_leaves=14
num_cat=0
split_feature=3 0 2 0 1 7 5 3 4 7 3 7 7
split_gain=9.43282 5.26884 5.75867 5.97892 5.00965 6.42093 6.25785 9.28622 3.59298 4.77652 2.98026 2.90127 2.22794
threshold=-69.818428315781091 56.512244640384047 -0.910015567026354 40.239815185064202 26.087748613232794 0.0062454236493429656 -0.02001993281178463 42.561625706744259 0.013364697021740294 0.0059493164275086748 22.406476185299212 0.005432790427976353 0.0073539889698323313
decision_type=2 2 2 2 2 2 2 2 2 2 2 2 2
left_child=-1 2 12 -4 5 10 -6 11 -3 -10 -5 -8 -2
right_child=1 8 3 4 6 -7 7 -9 9 -11 -12 -13 -14
leaf_value=0.067156957192947522 -0.016988405750916081 0.05470763469897142 0.034235644329207823 -0.065077369117475706 -0.038748012362376051 0.005687113759200977 0.059425754775857181 -0.029370899052498234 -0.022148726233605878 0.032319543672093484 -0.018039501659897688 0.016825103912004171 -0.061650900314373272
leaf_weight=4.9683269113302222 4.8919420093297941 5.1667366623878506 8.8526604771614057 9.2576007694005984 6.8859495669603339 9.0406413525342924 7.6445920318365195 7.7999389022588721 7.5706107914447811 8.5941376090049726 5.2926172316074362 8.3752991855144483 6.5055828988552094
leaf_count=20 20 21 36 38 28 37 31 32 31 35 22 34 27
internal_value=-1.92014e-05 -0.00350021 -0.00977014 -0.00386627 -0.0100785 -0.0274056 0.00323369 0.01537 0.0184112 0.00680983 -0.0479674 0.0371539 -0.0424813
internal_weight=100.847 95.8783 74.5468 63.1493 54.2966 23.5909 30.7058 23.8198 21.3315 16.1647 14.5502 16.0199 11.3975
internal_count=412 392 305 258 222 97 125 97 87 66 60 65 47
is_linear=0
shrinkage=0.05


Tree=4
num_leaves=15
num_cat=0
split_feature=1 3 2 6 3 5 1 1 0 8 7 3 6 7
split_gain=8.79903 6.95018 5.99048 8.50014 6.99748 5.40185 3.72438 6.81336 3.53335 3.48098 2.66052 1.95631 1.8592 0.342123
threshold=32.092703067490184 61.49271841758496 1.1907427303768137 0.0022359260882492374 -5.6348173910582577 0.03458408835036874 37.54518687866409 43.900066743064961 57.546047672070621 1.0000000180025095e-35 0.005839466216561541 40.3275852122839 0.0018413681183553877 0.0061591922905781344
decision_type=2 2 2 10 2 2 2 2 2 2 2 2 10 2
left_child=2 6 3 4 13 10 12 -8 9 -5 11 -6 -2 -1
right_child=1 -3 -4 8 5 -7 7 -9 -10 -11 -12 -13 -14 -15
leaf_value=0.0064965844152702571 0.076264696174817528 -0.017137347565249077 -0.056372098092877514 0.032847674835481899 -0.018632590344021305 0.0068641027608853863 -0.017843890060983695 0.048746299003201425 0.047857931622620857 -0.01748662925382586 -0.075654447507193509 -0.054653941999075098 0.035781099009652338 0.025256981972312083
leaf_weight=4.8589799404144269 5.2272950261831301 9.4768218845128995 6.5668160915374747 6.1312170922756213 8.2307557314634376 6.3229449838399878 7.4227503687143308 7.9614082276821136 7.1616065055131903 7.8106452375650406 5.5228713452816001 6.953707128763198 6.1994273662567139 4.8617376089096069
leaf_count=20 21 39 27 25 34 26 30 32 29 32 23 29 25 20
internal_value=-2.37969e-05 0.0196681 -0.011116 -0.00597919 -0.0205022 -0.0335859 0.0326777 0.016617 0.0193122 0.0046489 -0.0459372 -0.0351285 0.0543008 0.0158794
internal_weight=100.709 36.2877 64.4213 57.8545 36.751 27.0303 26.8109 15.3842 21.1035 13.9419 20.7073 15.1845 11.4267 9.72072
internal_count=412 147 265 238 152 112 108 62 86 57 86 63 46 40
is_linear=0
shrinkage=0.05


Tree=5
num_leaves=15
num_cat=0
split_feature=1 7 1 7 3 2 2 3 5 7 3 1 1 7
split_gain=7.9526 6.5839 6.44608 5.60944 5.70863 5.47269 7.89768 4.6612 6.88834 4.27278 4.53619 3.8783 2.86381 2.59076
threshold=32.092703067490184 0.012287598885466397 37.54518687866409 0.0077632610432040641 63.145565979222376 1.1907427303768137 0.47205231291614963 -5.6348173910582577 0.020593362797862915 0.0057825629024910192 36.760903593817126 25.302996004639329 24.808950161165662 0.0074715325782370593
decision_type=2 2 2 2 2 2 2 2 2 2 2 2 2 2
left_child=5 2 -2 4 -4 6 7 11 9 10 -9 -1 -8 -10
right_child=1 -3 3 -5 -6 -7 12 8 13 -11 -12 -13 -14 -15
leaf_value=0.032666345093280175 0.036482983657278693 0.072105175498960269 0.035694677149270472 -0.052015987248313834 -0.033567043731522576 -0.054076153078360403 0.0097977497113617765 -0.0079958242883042836 0.019999052389322133 -0.083677414374455264 -0.065021914303351414 -0.022546715176752954 0.060170626229559945 -0.025419527164503526
leaf_weight=7.8160031288862211 13.363622620701792 4.9765083044767371 7.7030159085989016 5.3961293250322333 4.8469210267066956 6.5049183070659629 6.6045580208301526 8.9675213098526019 8.2763727158308011 5.0035401135683051 5.7063062041997901 5.3627374470233917 4.926066130399704 5.0590144693851462
leaf_count=32 54 20 31 22 20 27 27 37 34 21 24 22 20 21
internal_value=-2.77173e-05 0.0186835 0.0101924 -0.00938507 0.00894505 -0.0105989 -0.00569932 -0.0149398 -0.0249752 -0.0437772 -0.0301719 0.0101989 0.0313178 0.00276871
internal_weight=100.513 36.2862 31.3097 17.9461 12.5499 64.227 57.7221 46.1915 33.0128 19.6774 14.6738 13.1787 11.5306 13.3354
internal_count=412 147 127 73 51 265 238 191 137 82 61 54 47 55
is_linear=0
shrinkage=0.05


Tree=6
num_leaves=15
num_cat=0
split_feature=3 7 4 0 7 3 1 7 2 1 5 7 3 6
split_gain=7.56776 4.83433 5.77009 5.29068 7.85954 4.26296 4.64221 5.71053 3.95578 3.72424 2.8767 2.82198 3.32469 2.28861
threshold=-69.818428315781091 0.007869266865362122 -0.027516214092290461 52.363360492957661 0.0062454236493429656 -50.693995220707912 23.383076841043529 0.0097977559419058485 -0.48072086509675754 28.530957419470379 0.008097977008705735 0.0057071122143615496 49.271706363149484 -0.0030094421978923975
decision_type=2 2 2 2 2 2 2 2 2 2 2 2 2 8
left_child=-1 2 -2 8 11 -3 -7 -8 10 13 -4 12 -5 -10
right_child=1 5 3 4 -6 6 7 -9 9 -11 -12 -13 -14 -15
leaf_value=0.060053199013147388 0.049651341726548809 0.020075701413659192 -0.065091194056593291 0.02475518715207755 0.055503350351830544 -0.072584224060564709 -0.04484348530450695 0.016485149856780124 0.0074963014898371972 0.027913307918727766 -0.017786934759425846 -0.035213124738320098 -0.02153025910048887 -0.036230791788159099
leaf_weight=4.9801108688116065 6.2077345699071875 4.9117128849029568 5.0352499634027472 10.805533722043046 8.3776583224534971 5.2050770074129131 8.6633210033178312 6.7554746121168128 5.3282433450222015 7.4093292057514182 8.8851441293954831 4.829831823706626 6.0531180351972571 6.8255601376295107
leaf_count=20 25 20 21 44 34 22 36 28 22 30 37 20 25 28
internal_value=-3.26794e-05 -0.00317283 0.00364091 -0.000853536 0.0143711 -0.0217864 -0.0317562 -0.0179734 -0.0145243 -2.73188e-05 -0.0348977 -0.0015172 0.00813635 -0.0170608
internal_weight=100.273 95.293 69.7574 63.5497 30.0661 25.5356 20.6239 15.4188 33.4835 19.5631 13.9204 21.6885 16.8587 12.1538
internal_count=412 392 286 261 123 106 86 64 138 80 58 89 69 50
is_linear=0
shrinkage=0.05


Tree=7
num_leaves=15
num_cat=0
split_feature=3 7 7 1 0 0 3 1 7 1 7 6 1 7
split_gain=6.83873 4.3881 5.35503 7.06848 6.83401 6.15826 3.87739 4.31911 5.238 3.57502 2.61439 4.15946 3.85231 2.05882
threshold=-69.818428315781091 0.007869266865362122 0.0060564640703730391 28.101605449489426 53.422245039415863 44.925716694938266 -50.693995220707912 23.383076841043529 0.010327147888707524 30.602485438957583 0.0053790615872382208 0.0026419040672055849 23.486176987567461 0.0047827220149326633
decision_type=2 2 2 2 2 2 2 2 2 2 2 8 2 2
left_child=-1 2 3 10 5 -4 -3 -8 -9 -5 11 12 -2 -11
right_child=1 6 4 9 -6 -7 7 8 -10 13 -12 -13 -14 -15
leaf_value=0.057108884865645297 -0.0041647422521635027 0.019036374612722298 0.046977507040567967 0.051029448787141489 0.06092318369124388 -0.020622229801750165 -0.070183165618020071 -0.040687647384470831 0.019058855264632198 -0.014240090319637737 -0.050970235136307773 0.017176188350784702 -0.057912244722602306 0.022835102386058462
leaf_weight=4.9751152694225302 6.7736058682203293 4.9206435829401043 5.2152608036994961 5.3678556233644512 7.9104912132024756 9.5170657336711866 5.1162408888340023 9.3086968660354596 6.0543876141309729 7.8327363878488523 6.3989223390817633 6.9106821417808577 6.5650184154510498 7.1740719527006149
leaf_count=20 28 20 21 22 32 39 22 39 25 32 27 28 28 29
internal_value=-3.6283e-05 -0.00302689 0.00345951 -0.00615998 0.0234365 0.00330816 -0.0208174 -0.0303933 -0.0171423 0.0160101 -0.0231108 -0.014307 -0.0306182 0.00348387
internal_weight=100.041 95.0657 69.6657 47.0229 22.6428 14.7323 25.4 20.4793 15.3631 20.3747 26.6482 20.2493 13.3386 15.0068
internal_count=412 392 286 194 92 60 106 86 64 83 111 84 56 61
is_linear=0
shrinkage=0.05


Tree=8
num_leaves=15
num_cat=0
split_feature=3 0 2 0 1 10 1 8 6 4 7 7 1 1
split_gain=6.19028 3.99122 4.6115 4.57147 3.68935 2.89444 5.46654 4.29554 3.53482 2.77981 4.15902 1.97721 1.90535 1.70755
threshold=-69.818428315781091 56.512244640384047 -0.910015567026354 40.239815185064202 22.779864192688411 1.0000000180025095e-35 37.54518687866409 1.0000000180025095e-35 -0.0099118253504552941 0.013364697021740294 0.0059493164275086748 0.0073539889698323313 27.596276487406701 21.149751593944764
decision_type=2 2 2 2 2 2 2 2 10 2 2 2 2 2
left_child=-1 2 11 -4 13 8 7 -7 -6 -3 -11 -2 -10 -5
right_child=1 9 3 4 5 6 -8 -9 12 10 -12 -13 -14 -15
leaf_value=0.054398321277404404 -0.014026546072643767 0.048068714707224416 0.030136857856365065 -0.010978175498595444 0.010857405921170387 0.056080579512734902 -0.033889167430642388 0.0042635740967415549 -0.05460936521906902 -0.021232786183347143 0.029765735706567549 -0.056644819598039825 -0.014083841936474859 -0.04846031824099091
leaf_weight=4.9621699005365363 4.8105605989694578 5.1759492307901409 8.8609325736761075 5.2903184741735441 7.6678685694932964 6.6637988984584853 5.1655262261629096 10.003749281167984 5.4008949249982816 7.504903823137286 8.5547146052122098 6.2666392028331757 6.2646553814411163 7.1387521326541901
leaf_count=20 20 21 36 22 32 27 21 41 23 31 35 27 26 30
internal_value=-4.03096e-05 -0.00289075 -0.00840489 -0.00313169 -0.00863196 -0.00142375 0.0110523 0.0249804 -0.0155129 0.0162034 0.00593335 -0.0381367 -0.0328463 -0.0325064
internal_weight=99.7314 94.7693 73.5337 62.4565 53.5956 41.1665 21.8331 16.6675 19.3334 21.2356 16.0596 11.0772 11.6656 12.4291
internal_count=412 392 305 258 222 170 89 68 81 87 66 47 49 52
is_linear=0
shrinkage=0.05


Tree=9
num_leaves=15
num_cat=0
split_feature=1 7 1 7 3 2 2 3 5 7 3 1 7 5
split_gain=5.84475 5.23534 5.52146 5.67128 5.01161 4.83703 6.63686 3.97931 5.91565 3.89621 4.08152 3.44097 2.46611 2.2567
threshold=32.092703067490184 0.011257449765344025 37.54518687866409 0.0077632610432040641 63.145565979222376 1.1907427303768137 0.47205231291614963 -5.6348173910582577 0.020593362797862915 0.0057825629024910192 36.760903593817126 25.302996004639329 0.0062718545562766665 0.049750538763350262
decision_type=2 2 2 2 2 2 2 2 2 2 2 2 2 2
left_child=5 2 -2 4 -4 6 7 11 9 10 -9 -1 -8 -10
right_child=1 -3 3 -5 -6 -7 12 8 13 -11 -12 -13 -14 -15
leaf_value=0.031275580083879748 0.032293376523961158 0.060118927661517996 0.032069693330669904 -0.056654047945812247 -0.03291653593571249 -0.050602071545875218 0.0093016690757386673 -0.0062854995195452028 0.020016209559542884 -0.079350992000828402 -0.061029423424882767 -0.020934513882180719 0.056106133147002059 -0.022169615790244956
leaf_weight=7.7821357697248441 13.107062682509424 5.6693260967731467 7.7100871652364749 4.8411758095026007 4.8222110420465469 6.3471613675355902 6.5654384940862638 8.8717703670263308 7.9421945959329587 4.7905953973531714 5.5252685546874991 5.3085522204637527 4.9258933663368225 5.2761348932981491
leaf_count=32 53 23 31 20 20 27 27 37 33 21 24 22 20 22
internal_value=-4.24079e-05 0.015999 0.0077928 -0.0106912 0.00706412 -0.00919839 -0.00458697 -0.0131624 -0.0225608 -0.0402919 -0.027295 0.0101033 0.0293649 0.00317761
internal_weight=99.485 36.1499 30.4805 17.3735 12.5323 63.3351 56.988 45.4967 32.406 19.1876 14.397 13.0907 11.4913 13.2183
internal_count=412 147 124 71 51 265 238 191 137 82 61 54 47 55
is_linear=0
shrinkage=0.05


Tree=10
num_leaves=15
num_cat=0
split_feature=3 7 7 1 0 0 1 7 1 7 7 6 1 7
split_gain=5.34228 3.87751 4.63633 6.0569 5.88933 5.28344 3.41355 3.2225 4.89911 2.48365 2.40264 3.57628 3.50926 1.72664
threshold=-69.818428315781091 0.007869266865362122 0.0060564640703730391 28.101605449489426 53.422245039415863 46.707703096426471 30.602485438957583 0.0093404790516929282 32.092703067490184 0.0082058789056854483 0.0053790615872382208 0.0026419040672055849 23.486176987567461 0.0047827220149326633
decision_type=2 2 2 2 2 2 2 2 2 2 2 8 2 2
left_child=-1 2 3 10 5 -4 -5 9 -9 -3 11 12 -2 -8
right_child=1 7 4 6 -6 -7 13 8 -10 -11 -12 -13 -14 -15
leaf_value=0.05076823696415636 -0.0031169818290365863 -0.011853359422646013 0.038358066070205234 0.049054884274221201 0.056837805133307717 -0.022446177570975948 -0.013670329131573684 -0.028848023158112565 0.032354557237235425 -0.058594951523598164 -0.048411605023921368 0.016135944131605781 -0.054839405484957686 0.020311855986328061
leaf_weight=4.9159255772829047 6.7354860305786133 4.9290920495986956 6.188748091459277 5.3791587352752712 7.8935906738042823 8.4515256285667402 7.7978622019290906 7.6910260021686536 5.6879594326019287 6.711940586566925 6.2817172259092322 6.9122827202081725 6.3912548720836639 7.1796721667051315
leaf_count=20 28 21 25 22 32 35 32 33 23 29 27 28 28 29
internal_value=-4.63159e-05 -0.00269725 0.00340099 -0.00559053 0.0220263 0.00325704 0.0148898 -0.0195664 -0.00282828 -0.0388034 -0.0214302 -0.0129722 -0.0283 0.00261946
internal_weight=99.1472 94.2313 69.2113 46.6774 22.5339 14.6403 20.3567 25.02 13.379 11.641 26.3207 20.039 13.1267 14.9775
internal_count=412 392 286 194 92 60 83 106 56 50 111 84 56 61
is_linear=0
shrinkage=0.05


Tree=11
num_leaves=15
num_cat=0
split_feature=3 7 4 5 6 3 1 3 1 7 5 5 5 1
split_gain=4.85074 3.52366 4.24851 4.88649 5.41748 3.84909 5.2226 3.04937 3.89686 4.33588 2.83124 3.32145 3.69388 6.16385
threshold=-69.818428315781091 0.007869266865362122 -0.027516214092290461 -0.011116713346469744 0.0033467772697648589 12.988999902584036 25.095854748632572 -50.693995220707912 23.383076841043529 0.0097977559419058485 -0.0011865630645135886 0.008097977008705735 0.037222262540934838 28.101605449489426
decision_type=2 2 2 2 10 2 2 2 2 2 2 2 2 2
left_child=-1 2 -2 -4 10 6 -6 -3 -9 -10 -5 -12 13 -13
right_child=1 7 3 4 5 -7 -8 8 9 -11 11 12 -14 -15
leaf_value=0.048511833172366625 0.042760896600618777 0.016635766178805363 -0.034334573839158694 0.028440312673310198 -0.028577543572719862 0.062730012152779693 0.037932340484568991 -0.066190754118000683 -0.038891238045321526 0.015063212764784718 -0.041433034785105155 -0.022629619975530479 -0.033124966424198252 0.03878197884432915
leaf_weight=4.8880517929792395 6.1891004592180243 4.8967866450548199 9.1950563788413984 5.0826914310455278 4.8054450601339358 5.4264359772205344 7.6508311480283737 4.8877473622560528 8.3436999022960645 6.7246510684490195 7.2466674447059694 7.6293793022632661 6.9957783371210089 8.7973975837230665
leaf_count=20 25 20 38 21 20 22 31 22 36 28 31 33 29 36
internal_value=-4.86871e-05 -0.00257731 0.00323574 -0.00065772 0.0051158 0.0275845 0.0122738 -0.0187207 -0.0273964 -0.0148126 -0.00612282 -0.0118508 -0.00269844 0.0102595
internal_weight=98.7597 93.8717 69.0188 62.8297 53.6346 17.8827 12.4563 24.8529 19.9561 15.0684 35.7519 30.6692 23.4226 16.4268
internal_count=412 392 286 261 223 73 51 106 86 64 150 129 98 69
is_linear=0
shrinkage=0.05


Tree=12
num_leaves=15
num_cat=0
split_feature=3 0 2 0 1 6 2 1 1 7 7 5 7 1
split_gain=4.40839 3.36359 4.66932 4.26188 3.62993 3.82772 4.15554 3.53079 2.60892 5.51154 4.2654 1.58101 1.26702 1.23179
threshold=-69.818428315781091 52.363360492957661 -0.85435998224038301 40.239815185064202 22.829496123735037 0.0022359260882492374 0.75838145778476396 33.14952972058321 27.596276487406701 0.0064893302949708938 0.006759902007153591 0.023527834339699859 0.0043617781260239345 21.511874946685456
decision_type=2 2 2 2 2 10 2 2 2 2 2 2 2 2
left_child=-1 2 11 -4 13 7 -7 -6 10 -10 12 -2 -5 -3
right_child=1 4 3 8 5 6 -8 -9 9 -11 -12 -13 -14 -15
leaf_value=0.046398995129781483 -0.060014148313084652 -0.00063808082949806427 0.027375099994749533 -0.024253434615828361 -0.029952068110120064 0.061853605546176672 0.01132880443780513 0.020243461076864231 0.025079425194109224 -0.039816760773533508 0.0067926094709262743 -0.020336652219158393 -0.057182500219952775 -0.035473189813266352
leaf_weight=4.8559206128120413 5.3559368252754194 5.2048090100288373 8.8198457211256009 5.3040314316749591 6.3441003262996691 7.1650453209877041 9.4202495068311674 7.8238009214401245 10.057813644409178 4.8490635752677909 7.0354576408863059 4.7260470688343048 6.5025353282690048 4.9523094594478607
leaf_count=20 24 22 36 23 27 29 39 32 41 20 30 20 28 21
internal_value=-5.11319e-05 -0.00246194 -0.0108187 -0.00357231 0.00829303 0.0168524 0.0331561 -0.00223308 -0.01166 0.00396932 -0.0240252 -0.0414149 -0.0423893 -0.0176226
internal_weight=98.417 93.561 52.6507 42.5687 40.9103 30.7532 16.5853 14.1679 33.7489 14.9069 18.842 10.082 11.8066 10.1571
internal_count=412 392 222 178 170 127 68 59 142 61 81 44 51 43
is_linear=0
shrinkage=0.05


Tree=13
num_leaves=15
num_cat=0
split_feature=4 0 7 0 5 2 6 3 1 2 1 0 7 4
split_gain=4.09878 3.81971 4.57235 4.28632 5.83974 3.94944 3.01847 3.75057 4.50131 3.42425 2.56892 2.50617 3.50937 2.00809
threshold=-0.027516214092290461 56.512244640384047 0.0030750875485419647 40.239815185064202 -0.019509791444217526 0.49563123248497093 -0.0090424162717359785 60.992571492971706 26.199538963032584 -0.048167028958832341 26.087748613232794 46.926118186491337 0.0080786357190189752 0.013364697021740294
decision_type=2 2 2 2 2 2 8 2 2 2 2 2 2 2
left_child=11 2 -2 -4 -5 6 7 8 -6 -8 -7 12 -1 -3
right_child=1 13 3 4 5 10 9 -9 -10 -11 -12 -13 -14 -15
leaf_value=0.037843248955688871 0.035811872054479034 0.041701668212775322 0.026588789798311158 -0.071857067395936489 -0.024222411026300152 -0.015482839389168879 -0.059542261336033624 -0.039128380091065854 0.041869451238836335 -0.015268363267779299 0.032581887989169812 0.052571534264565768 -0.015648663727773383 0.0050915020139454294
leaf_weight=5.9201663285493868 4.7727452218532553 4.8974405527114895 5.5257352739572516 4.8660588562488547 4.8500513285398501 4.9680018573999387 8.6503176242113078 5.8791564702987662 5.495049774646759 8.8204393982887304 6.311931312084198 4.8556891679763785 6.3602026998996735 15.925370544195173
leaf_count=24 20 20 23 21 22 21 37 25 23 37 26 20 27 66
internal_value=-5.26548e-05 -0.00475463 -0.0111451 -0.0151929 -0.0198251 -0.0141956 -0.0227684 -0.00723898 0.0108839 -0.0371898 0.0114128 0.0221627 0.0101389 0.0137021
internal_weight=98.0984 80.9623 60.1395 55.3667 49.841 44.9749 33.695 16.2243 10.3451 17.4708 11.2799 17.1361 12.2804 20.8228
internal_count=412 341 255 235 212 191 144 70 45 74 47 71 51 86
is_linear=0
shrinkage=0.05


Tree=14
num_leaves=15
num_cat=0
split_feature=3 7 7 0 1 0 1 7 1 7 1 2 5 3
split_gain=3.96565 3.08544 4.23105 5.20236 4.57986 4.22548 3.01106 2.5993 4.15775 2.40326 2.36896 2.00832 2.46413 1.68241
threshold=-69.818428315781091 0.007869266865362122 0.0060564640703730391 53.422245039415863 28.101605449489426 46.707703096426471 30.602485438957583 0.0093404790516929282 32.092703067490184 0.0082058789056854483 25.235770178456466 -0.035005239766537292 0.0054190140231688364 -22.854628654561388
decision_type=2 2 2 2 2 2 2 2 2 2 2 2 2 2
left_child=-1 2 4 5 10 -4 -6 9 -9 -3 11 12 -2 -8
right_child=1 7 3 -5 6 -7 13 8 -10 -11 -12 -13 -14 -15
leaf_value=0.044200518437933323 0.031699158714459684 -0.0084273932167560975 0.034602786572919868 0.05370611112708832 0.044230165975419372 -0.020052936443662045 -0.022267728703816735 -0.026781376681495734 0.029856062645633747 -0.055027395454260754 -0.043176048502187356 -0.027151404098113237 -0.019045172204381424 0.012940929408392235
leaf_weight=4.8129413425922385 4.7242700308561361 4.8240747302770632 6.1511688530445126 7.8638063818216315 5.3944679796695736 8.3185479938983899 5.2137030512094524 7.5615288168191892 5.6701906770467758 6.4875490516424179 7.5050366073846808 8.7381848990917206 4.8467908799648285 9.7154244780540413
leaf_count=20 20 21 25 32 22 35 21 33 23 29 33 37 21 40
internal_value=-5.49695e-05 -0.00234492 0.00310719 0.0209716 -0.00554028 0.00318156 0.0122138 -0.0175553 -0.00251053 -0.0351539 -0.019518 -0.00982053 0.0060022 0.000645001
internal_weight=97.8277 93.0147 68.4714 22.3335 46.1379 14.4697 20.3236 24.5433 13.2317 11.3116 25.8143 18.3092 9.57106 14.9291
internal_count=412 392 286 92 194 60 83 106 56 50 111 78 41 61
is_linear=0
shrinkage=0.05


Tree=15
num_leaves=15
num_cat=0
split_feature=3 6 0 5 0 1 6 2 1 7 1 0 7 2
split_gain=3.60923 3.07696 7.51008 5.3784 3.8528 2.99926 4.89328 3.71887 2.76431 6.25451 2.54843 2.35305 2.25925 1.99258
threshold=-69.818428315781091 -0.015744125743863333 39.379354028881771 0.023527834339699859 51.513029618995184 22.829496123735037 -0.00085239144446783946 0.99179389063883516 26.73106196807937 0.0069030243068074074 33.14952972058321 43.069143062181482 0.0057568670343847309 -0.34200847761169467
decision_type=2 10 2 2 2 2 8 2 2 2 2 2 2 2
left_child=-1 3 -3 -2 8 -6 10 12 11 13 -7 -4 -8 -10
right_child=1 2 4 -5 5 6 7 -9 9 -11 -12 -13 -14 -15
leaf_value=0.042340093199693854 -0.065650506624529398 0.054283133839320201 -0.0015136575892627927 0.0065641265434878571 -0.01619526261504969 -0.040598330009077491 0.028645195174266294 0.0030381240192921301 -0.0053066768887864071 -0.044663004965577027 0.0089968020664242358 -0.04313795609377899 0.071985758226286486 0.036995268529162871
leaf_weight=4.7741942405700675 4.9397810697555524 6.1189290583133689 4.8291835635900524 5.393567681312561 10.757990628480909 4.7955498844385129 7.8687722235918063 8.8699715137481672 4.7797055095434198 5.729447364807128 5.6324344128370285 11.434994980692862 4.8664897978305817 6.666376233100892
leaf_count=20 22 25 21 23 46 21 32 37 20 24 23 51 20 27
internal_value=-5.5453e-05 -0.00223929 0.00098787 -0.0279575 -0.00329005 0.00664675 0.014318 0.0278946 -0.0160057 -0.00201649 -0.0138107 -0.0307788 0.0452068 0.0193306
internal_weight=97.4574 92.6832 82.3498 10.3333 76.2309 42.7912 32.0332 21.6052 33.4397 17.1755 10.428 16.2642 12.7353 11.4461
internal_count=412 392 347 45 322 179 133 89 143 71 44 72 52 47
is_linear=0
shrinkage=0.05


Tree=16
num_leaves=15
num_cat=0
split_feature=4 0 7 0 5 2 6 3 1 2 6 0 7 4
split_gain=3.4382 3.11163 4.05745 3.51008 5.28514 3.55537 2.81914 3.45748 3.76455 3.16014 2.34145 2.30028 3.06233 1.81328
threshold=-0.027516214092290461 56.512244640384047 0.0030750875485419647 40.239815185064202 -0.019509791444217526 0.49563123248497093 -0.0090424162717359785 60.992571492971706 26.199538963032584 -0.048167028958832341 0.011321503851444859 46.926118186491337 0.0080786357190189752 0.013364697021740294
decision_type=2 2 2 2 2 2 10 2 2 2 10 2 2 2
left_child=11 2 -2 -4 -5 6 7 8 -6 -8 -7 12 -1 -3
right_child=1 13 3 4 5 10 9 -9 -10 -11 -12 -13 -14 -15
leaf_value=0.034740304755862282 0.034028441083433426 0.038975710892250742 0.023696639448999909 -0.068641520495800898 -0.021242428061823113 0.034662272799110709 -0.057037080922850127 -0.036938234485881759 0.03965603031939087 -0.014153335147530527 -0.011051266291598073 0.049667168706770869 -0.015534253542955893 0.0041005016557414979
leaf_weight=5.8718814104795474 4.7687421590089789 4.8716145455837276 5.5317081958055487 4.7159427106380454 4.7306751608848518 5.4993702322244626 8.4566558301448769 5.7931203544139853 5.4743326604366302 8.7315912097692578 5.7091230750083923 4.8105832189321509 6.2561724781990051 15.864281103014944
leaf_count=24 20 20 23 21 22 23 37 25 23 37 24 20 27 66
internal_value=-5.64282e-05 -0.00438209 -0.0102024 -0.0140625 -0.0183156 -0.0129696 -0.0211928 -0.00608748 0.0114257 -0.0352522 0.0113778 0.020411 0.00880652 0.012294
internal_weight=97.0858 80.1472 59.4113 54.6425 49.1108 44.3949 33.1864 15.9981 10.205 17.1882 11.2085 16.9386 12.1281 20.7359
internal_count=412 341 255 235 212 191 144 70 45 74 47 71 51 86
is_linear=0
shrinkage=0.05


Tree=17
num_leaves=15
num_cat=0
split_feature=1 6 2 2 1 6 3 5 1 7 3 7 5 7
split_gain=3.30899 4.4064 4.16992 4.97466 3.04255 3.04718 2.99671 5.26194 3.08264 3.02888 3.74584 1.87056 1.81791 1.56266
threshold=32.092703067490184 0.022034532138718175 1.1907427303768137 0.47205231291614963 37.54518687866409 -0.010090870339020943 -3.6472842447243496 0.020593362797862915 25.302996004639329 0.0057825629024910192 36.760903593817126 0.0062718545562766665 0.049750538763350262 0.0069030243068074074
decision_type=2 8 2 2 2 10 2 2 2 2 2 2 2 2
left_child=2 4 3 6 -2 -6 8 9 -1 10 -8 -5 -9 -7
right_child=1 -3 -4 11 5 13 7 12 -10 -11 -12 -13 -14 -15
leaf_value=0.028677986835413435 0.024952668834647071 0.055408516308581929 -0.046384765863731331 0.0091411632388811673 0.020384622381709148 -0.0047774829374803195 -0.0039375810058272735 0.020258354701400576 -0.020161306371700202 -0.074023973594093698 -0.058177661956620733 0.050227096157074214 -0.018165399870474361 -0.040383471343970551
leaf_weight=8.1190776526927895 11.684971183538439 5.0379381924867621 6.0822314172983161 6.4377218484878522 6.4199896752834347 6.3371650725603086 8.0930823534727185 7.8329932838678342 5.3664195090532294 4.1852920204401007 5.2466350346803656 4.862913191318512 5.0713053494691849 5.9980252981185913
leaf_count=34 48 21 27 27 27 26 35 33 23 20 24 20 22 25
internal_value=-5.83458e-05 0.0120945 -0.00709219 -0.00276393 0.00492585 -0.00755139 -0.0103771 -0.0190722 0.00924288 -0.0369139 -0.0252707 0.0268213 0.00515807 -0.022091
internal_weight=96.7758 35.4781 61.2977 55.2154 30.4402 18.7552 43.9148 30.4293 13.4855 17.525 13.3397 11.3006 12.9043 12.3352
internal_count=412 147 265 238 126 78 191 134 57 79 59 47 55 51
is_linear=0
shrinkage=0.05


Tree=18
num_leaves=15
num_cat=0
split_feature=3 6 0 5 0 1 6 2 1 7 1 0 7 2
split_gain=3.22429 2.77154 6.34432 4.85552 3.18945 2.63179 4.06691 3.35385 2.51566 5.54643 2.23307 2.10238 1.98069 1.74714
threshold=-69.818428315781091 -0.015744125743863333 39.379354028881771 0.023527834339699859 51.513029618995184 22.829496123735037 -0.00085239144446783946 0.99179389063883516 26.73106196807937 0.0069030243068074074 33.14952972058321 43.069143062181482 0.0057568670343847309 -0.34200847761169467
decision_type=2 10 2 2 2 2 8 2 2 2 2 2 2 2
left_child=-1 3 -3 -2 8 -6 10 12 11 13 -7 -4 -8 -10
right_child=1 2 4 -5 5 6 7 -9 9 -11 -12 -13 -14 -15
leaf_value=0.040288007695573211 -0.063187375842232232 0.050011013173074242 -0.0012402114234677047 0.0059156059732351071 -0.015467260234816064 -0.038025595228894295 0.026548253338087486 0.0019147398111822715 -0.0044580089396276962 -0.041904579875813856 0.0087091126831213353 -0.040877074274948515 0.067197313217957952 0.035287662876304825
leaf_weight=4.7095237821340552 4.8147977441549283 6.0949297100305548 4.7800579220056525 5.3852617740631104 10.665144547820089 4.6985459029674512 7.8624543100595528 8.8238916397094709 4.7344527542591104 5.6340976655483237 5.6053258031606674 11.146766036748884 4.8424993455410004 6.6466685980558404
leaf_count=20 22 25 21 23 46 21 32 37 20 24 23 51 20 27
internal_value=-6.04755e-05 -0.0021319 0.000942021 -0.0267035 -0.00302235 0.00602912 0.0132312 0.0255951 -0.0146995 -0.00133147 -0.0126018 -0.028981 0.0420417 0.0187538
internal_weight=96.4444 91.7349 81.5348 10.2001 75.4399 42.4979 31.8327 21.5288 32.942 17.0152 10.3039 15.9268 12.705 11.3811
internal_count=412 392 347 45 322 179 133 89 143 71 44 72 52 47
is_linear=0
shrinkage=0.05


Tree=19
num_leaves=15
num_cat=0
split_feature=3 6 0 5 0 1 6 2 1 7 1 0 7 1
split_gain=2.93763 2.52083 5.73978 4.47873 2.8957 2.38093 3.67432 3.03521 2.3017 5.03601 2.03928 1.94337 1.80809 1.74973
threshold=-69.818428315781091 -0.015744125743863333 39.379354028881771 0.023527834339699859 51.513029618995184 22.829496123735037 -0.0004195974278129074 0.99179389063883516 26.73106196807937 0.0069030243068074074 33.14952972058321 43.069143062181482 0.0057568670343847309 21.149751593944764
decision_type=2 10 2 2 2 2 10 2 2 2 2 2 2 2
left_child=-1 3 -3 -2 8 13 10 12 11 -10 -7 -4 -8 -6
right_child=1 2 4 -5 5 6 7 -9 9 -11 -12 -13 -14 -15
leaf_value=0.038632930434975968 -0.061018739617412943 0.047615783789840528 -0.0011785188566100938 0.0056137599834630656 0.0081406681347944067 -0.036514172070549362 0.02521831841963508 0.0018186753224910192 0.017819114811293873 -0.040137717596398809 0.0082708623923622073 -0.039367007468152679 0.064104305811539586 -0.032720578746807623
leaf_weight=4.6668205857276908 4.7385689914226514 6.0817633420228949 4.7788005322217932 5.390931248664856 4.6787334382534009 4.649643316864962 7.8632093220949262 8.8254400044679624 11.379088670015337 5.5891604274511328 5.6071701794862747 10.999424025416372 4.822813406586647 5.9538401365280151
leaf_count=20 22 25 21 23 20 21 32 37 47 24 23 51 20 26
internal_value=-6.07192e-05 -0.00203729 0.000895671 -0.0255568 -0.00288544 0.00574007 0.0125946 0.0243364 -0.0140539 -0.00127125 -0.0120312 -0.0278007 0.0400015 -0.0147401
internal_weight=96.0254 91.3586 81.2291 10.1295 75.1473 42.4008 31.7683 21.5115 32.7465 16.9682 10.2568 15.7782 12.686 10.6326
internal_count=412 392 347 45 322 179 133 89 143 71 44 72 52 46
is_linear=0
shrinkage=0.05


Tree=20
num_leaves=15
num_cat=0
split_feature=5 7 7 6 7 7 0 7 0 5 4 6 5 10
split_gain=2.88632 3.76547 4.2534 3.65047 3.16165 4.08506 2.74239 3.56917 3.3622 2.22781 4.22199 2.79687 2.917 2.43751
threshold=-0.050244716399512224 0.0082058789056854483 0.0095251554576716562 0.0075756294393162027 0.0063708371739316424 0.0055458063288666435 39.379354028881771 0.0030750875485419647 57.546047672070621 0.036042311886738253 0.017229679797435896 -0.0092632039055380103 0.0065134421812501212 1.0000000180025095e-35
decision_type=2 2 2 8 2 2 2 2 2 2 2 10 2 2
left_child=-1 3 -3 6 5 -5 -2 -8 9 10 11 -9 13 -13
right_child=1 2 -4 4 -6 -7 7 8 -10 -11 -12 12 -14 -15
leaf_value=0.030351365052620406 0.027532354855086889 -0.05435713430542477 -0.0028117713049301343 0.036781866120381757 0.056037116142939138 -0.026403909328661809 0.029877985159217264 0.0032995005706660157 0.015393402813966889 -0.051248271123066153 0.021171215239565534 -0.044714816620991124 -0.06477207779296279 0.00047843558404499941
leaf_weight=7.212916672229766 6.3250462263822547 6.811711028218272 9.7033042907714826 5.6145496070384961 5.1268741935491553 4.6987534016370773 5.6894653141498557 6.820213556289672 8.8495119065046293 4.6666083782911292 6.63144826889038 5.6072053015232175 5.455664560198783 6.3765498995780945
leaf_count=31 26 32 42 23 22 20 24 31 37 20 28 25 24 27
internal_value=-6.10068e-05 -0.00254312 -0.0240719 0.00240454 0.0239468 0.00799435 -0.00349065 -0.00740751 -0.0121845 -0.0190481 -0.0141837 -0.0238481 -0.034465 -0.0206675
internal_weight=95.5898 88.3769 16.515 71.8619 15.4402 10.3133 56.4217 50.0967 44.4072 35.5577 30.8911 24.2596 17.4394 11.9838
internal_count=412 381 74 307 65 43 242 216 192 155 135 107 76 52
is_linear=0
shrinkage=0.05


Tree=21
num_leaves=15
num_cat=0
split_feature=4 5 7 6 1 1 5 0 7 6 6 0 7 4
split_gain=2.67009 2.67616 2.4424 4.86286 3.75741 2.85412 2.27376 2.65732 3.97278 1.95046 6.44605 1.93345 2.52198 1.49235
threshold=-0.027516214092290461 -0.011116713346469744 0.0082058789056854483 0.0033467772697648589 26.73106196807937 22.829496123735037 -0.0011865630645135886 52.462112369473161 0.0059493164275086748 -0.0093795182016630195 -0.012814470312280139 46.926118186491337 0.0080786357190189752 -0.013773468047119399
decision_type=2 2 2 8 2 2 2 2 2 10 10 2 2 2
left_child=11 13 3 6 -4 -5 -3 9 -9 10 -8 12 -1 -2
right_child=1 2 4 5 -6 -7 7 8 -10 -11 -12 -13 -14 -15
leaf_value=0.031103192343265619 -0.011636860139505397 0.024978018415346644 -0.054050030676932176 -0.0077319146212207262 0.0051578911337207311 0.036461519083771633 -0.050015305367719115 -0.014331088670242376 0.041210648358891711 -0.04417124332037254 0.02970523540339471 0.045314432864904247 -0.015003712091011243 -0.047551440234822696
leaf_weight=5.7763069272041339 7.5545558035373688 5.0086120367050126 4.9028654396533948 4.9496626704931286 5.9091560691595078 13.950050145387648 5.0807795822620374 9.3959118425846082 4.8978074193000785 7.2635389566421606 5.0619394481182098 4.7014358341693869 6.0956779420375824 4.6870463043451291
leaf_count=24 32 21 23 21 26 58 23 40 20 33 22 20 27 22
internal_value=-6.28845e-05 -0.00390577 5.34716e-05 0.00428125 -0.0216908 0.0248877 -0.00632813 -0.0112745 0.00470054 -0.024393 -0.0102291 0.0181765 0.00742957 -0.0253878
internal_weight=95.2353 78.6619 66.4203 55.6083 10.812 18.8997 36.7086 31.7 14.2937 17.4063 10.1427 16.5734 11.872 12.2416
internal_count=412 341 287 238 49 79 159 138 60 78 45 71 51 54
is_linear=0
shrinkage=0.05


Tree=22
num_leaves=15
num_cat=0
split_feature=5 7 7 7 0 3 1 1 1 3 3 7 3 2
split_gain=2.5611 3.24974 3.94582 3.10443 5.49189 6.83867 3.05267 2.86755 2.19455 1.96373 2.18132 1.93672 1.89395 3.03416
threshold=-0.050244716399512224 0.0082058789056854483 0.0095251554576716562 0.0060564640703730391 53.422245039415863 -29.393707223194308 28.101605449489426 30.602485438957583 25.235770178456466 -26.901644940959866 59.920739889749406 0.006759902007153591 22.406476185299212 0.15889577566119226
decision_type=2 2 2 2 2 2 2 2 2 2 2 2 2 2
left_child=-1 3 -3 6 5 -5 8 -8 12 -9 -11 -7 13 -2
right_child=1 2 -4 4 -6 11 7 9 -10 10 -12 -13 -14 -15
leaf_value=0.028645246701958411 0.0037772135242999071 -0.052232784512980371 -0.0021427576992399905 0.050228248226265398 0.047241287884780929 0.0041067657208180355 0.040132713097263434 -0.027501643117311399 -0.04089428525802246 0.032481071970330892 -0.014063280004980742 -0.037057540874712296 0.011581243897658092 -0.049867499745286162
leaf_weight=7.1800823211669913 5.5793042629957252 6.6402692347764996 9.6385865062475187 4.6847852170467403 9.1187187135219556 4.6853886395692843 5.3358430713415173 5.1717303693294552 7.1186639815568915 5.3030274510383553 4.7918329983949661 7.3236669600009918 7.2725319415330878 4.9963272511959076
leaf_count=31 24 32 42 20 38 20 22 21 33 22 20 33 32 22
internal_value=-6.4132e-05 -0.00241565 -0.0225749 0.00218172 0.0160361 -0.00100916 -0.00566605 0.00858005 -0.0174218 -0.00244796 0.0103874 -0.0209971 -0.00805994 -0.0215666
internal_weight=94.8408 87.6607 16.2789 71.3818 25.8126 16.6938 45.5693 20.6024 24.9668 15.2666 10.0949 12.0091 17.8482 10.5756
internal_count=412 381 74 307 111 73 196 85 111 63 42 53 78 46
is_linear=0
shrinkage=0.05


Tree=23
num_leaves=14
num_cat=0
split_feature=6 6 5 7 7 0 7 3 1 6 7 3 2
split_gain=2.45028 5.19441 3.84508 4.3842 7.42726 3.92742 3.84215 3.24943 4.20973 5.23304 2.61315 2.55483 4.52152
threshold=-0.005172937803471377 -0.0090424162717359785 -0.050244716399512224 0.0082058789056854483 0.0062454236493429656 53.830831733158483 0.0037223666768807962 60.992571492971706 33.032988256345654 -0.013330276394079257 0.0097977559419058485 -26.901644940959866 0.26533427181185926
decision_type=8 8 2 2 2 2 2 2 2 10 2 2 2
left_child=1 7 -2 4 6 -6 -4 8 9 -1 -5 -8 -13
right_child=2 -3 3 10 5 -7 11 -9 -10 -11 -12 12 -14
leaf_value=-0.032585791479004041 0.049940147308040216 -0.046126442628297182 0.022665245198181055 -0.055264889546576115 0.015157269546760374 0.068169498095999551 -0.040335184959303355 -0.029390373390295068 0.047641756324796683 0.030876690614887577 -0.0046415603096728484 -0.030480563462209911 0.023463409888849387
leaf_weight=7.3277810961008099 4.5843221545219413 7.9838950634002677 9.2901793271303195 4.5855374187231046 7.7195130437612516 6.3823795169591904 7.1137614697217932 6.8407501876354209 5.4975672960281363 5.8348591774702099 5.7404016852378845 7.9612498730421084 7.5859469622373581
leaf_count=35 20 36 39 21 33 27 30 30 23 26 25 35 32
internal_value=-6.45961e-05 -0.0109311 0.00590399 0.00232329 0.00892555 0.0391501 -0.0044143 8.78851e-05 0.0108945 -0.00445354 -0.0271223 -0.0155159 -0.00415967
internal_weight=94.4481 33.4849 60.9633 56.379 46.053 14.1019 31.9511 25.501 18.6602 13.1626 10.3259 22.661 15.5472
internal_count=412 150 262 242 196 60 136 114 84 61 46 97 67
is_linear=0
shrinkage=0.05


Tree=24
num_leaves=15
num_cat=0
split_feature=1 2 2 7 6 3 0 1 6 5 5 0 7 2
split_gain=2.30082 4.33494 4.35799 6.53762 3.84139 3.10674 3.05967 2.7256 2.98293 2.49256 4.12835 2.29436 1.46602 1.24098
threshold=32.092703067490184 -1.2116841545761854 1.1907427303768137 0.0062454236493429656 0.022034532138718175 46.467747072018149 53.422245039415863 37.54518687866409 -0.010090870339020943 -0.011116713346469744 -0.0011865630645135886 48.35904476461392 0.0069030243068074074 0.26533427181185926
decision_type=2 2 2 2 8 2 2 2 10 2 2 2 2 2
left_child=1 -1 3 5 7 9 11 -2 -9 -3 -11 -5 -10 -12
right_child=4 2 -4 6 -6 -7 -8 8 12 10 13 -13 -14 -15
leaf_value=-0.058490581699437522 0.022572315736998971 -0.034307312782151579 -0.04344273663689685 0.032381089273110029 0.051310870976209282 -0.041916644890573375 0.055492249168210078 0.019462642318657578 -0.006182877989046074 0.043940860216732762 -0.018339160757396222 -0.011967993396349389 -0.0409953854478049 0.012053691504554473
leaf_weight=3.6953550130128852 11.464045628905298 5.1782301366329184 5.8356438130140296 6.2442391663789767 4.8740709722042075 6.571065053343772 6.0341207683086386 6.284157037734988 6.2631079107522947 5.0100135058164623 10.246481359004976 5.4718586951494217 5.8479283899068832 4.9963200837373725
leaf_count=19 48 23 27 28 21 30 26 27 26 21 46 24 25 21
internal_value=-6.41304e-05 -0.00605122 -0.00256518 0.00222951 0.0101547 -0.011269 0.0265662 0.0034366 -0.00848895 -0.00335002 0.00456512 0.0116684 -0.0229924 -0.00837692
internal_weight=94.0166 59.2833 55.588 49.7523 34.7333 32.0021 17.7502 29.8592 18.3952 25.431 20.2528 11.7161 12.111 15.2428
internal_count=412 265 246 219 147 141 78 126 78 111 88 52 51 67
is_linear=0
shrinkage=0.05


Tree=25
num_leaves=15
num_cat=0
split_feature=3 2 6 0 2 10 7 7 7 4 7 6 4 5
split_gain=2.31748 2.05586 2.23563 3.60899 2.66884 3.11042 2.82908 3.04187 3.83639 3.42346 2.79688 5.83226 2.10239 2.9295
threshold=-73.877888073318829 -1.2559466158249366 -0.013330276394079257 39.379354028881771 -0.69288146369396697 1.0000000180025095e-35 0.0035392117866552566 0.0062454236493429656 0.0079429623073804852 -0.012431695630634119 0.005432790427976353 0.0054038296252504172 -0.0019142344255521011 0.032940993095238527
decision_type=2 2 10 2 2 2 2 2 2 2 2 10 2 2
left_child=-1 -2 -3 -4 -5 12 -7 10 -9 -10 11 -8 -6 -14
right_child=1 2 3 4 5 6 7 8 9 -11 -12 -13 13 -15
leaf_value=0.038293365325815801 -0.025384983664403966 -0.024121871646187329 0.044435569224042772 0.032200923418246694 -0.042389743697644928 0.038986225309814597 -0.03766350701934814 0.03950882244382245 0.02226886776376652 -0.03770580624104173 -0.038739163208681038 0.036915679931872107 0.0065318007867726739 -0.041471887561057248
leaf_weight=3.7787791192531577 8.3000589907169324 8.1422938555479032 5.0146315693855277 6.0482802093028942 6.2704411298036602 5.4598087370395652 4.9403932094573992 8.3809764981269854 4.8968791961669851 4.6283346265554481 7.0772837698459616 5.5848653465509415 10.539573982357984 4.5504068285226813
leaf_count=17 39 37 21 26 29 23 21 36 21 21 31 23 47 20
internal_value=-6.45911e-05 -0.00167808 0.000735252 0.00349297 0.000490331 -0.0025868 0.00547838 0.000326227 0.014836 -0.00687304 -0.0144338 0.00190937 -0.0180555 -0.00794378
internal_weight=93.613 89.8342 81.5342 73.3919 68.3772 62.329 40.9685 35.5087 17.9062 9.52521 17.6025 10.5253 21.3604 15.09
internal_count=412 395 356 319 298 272 176 153 78 42 75 44 96 67
is_linear=0
shrinkage=0.05


Tree=26
num_leaves=14
num_cat=0
split_feature=6 6 5 7 7 0 7 7 6 7 7 3 6
split_gain=2.11801 4.79733 3.33708 3.77151 6.18016 3.40981 3.2572 2.95438 4.33896 2.56079 2.50514 2.33244 4.04375
threshold=-0.005172937803471377 -0.0090424162717359785 -0.050244716399512224 0.0082058789056854483 0.0062454236493429656 53.830831733158483 0.0037223666768807962 0.0068469379776228568 -0.013330276394079257 0.0093404790516929282 0.0097977559419058485 -26.901644940959866 0.0034696398756189103
decision_type=8 8 2 2 2 2 2 2 10 2 2 2 10
left_child=1 7 -2 4 6 -6 -4 8 -1 -9 -5 -8 -13
right_child=2 -3 3 10 5 -7 11 9 -10 -11 -12 12 -14
leaf_value=-0.016542644113472196 0.046998838084585791 -0.044381889257371146 0.021017889970846637 -0.053443905034932085 0.013807342976484185 0.063597651900149654 -0.038079190216610319 -0.035444445507509637 0.04182409426523289 0.011719726637071839 -0.0033103176773598025 -0.030026090526557192 0.021273577208852486
leaf_weight=5.5491164773702613 4.4871919453144065 7.8444766700267783 9.2812762558460253 4.464459076523779 7.6841782182455045 6.2235898971557617 7.0243667215108863 7.4898390322923643 7.4712886065244701 4.6739823818206787 5.6393994837999344 7.3760287314653423 8.0163944065570814
leaf_count=25 20 36 39 21 33 27 30 36 32 21 25 33 34
internal_value=-6.41485e-05 -0.0102385 0.00551831 0.00217722 0.00830066 0.036088 -0.00389126 0.000396575 0.016949 -0.0173215 -0.0254622 -0.0142044 -0.00330916
internal_weight=93.2256 33.0287 60.1969 55.7097 45.6058 13.9078 31.6981 25.1842 13.0204 12.1638 10.1039 22.4168 15.3924
internal_count=412 150 262 242 196 60 136 114 57 57 46 97 67
is_linear=0
shrinkage=0.05


Tree=27
num_leaves=15
num_cat=0
split_feature=1 2 2 7 7 1 7 5 6 3 1 1 5 5
split_gain=2.14123 3.80491 3.82866 5.67907 3.59711 4.69278 4.19376 3.22822 2.83829 4.39317 3.25776 3.22072 2.8319 4.86355
threshold=32.092703067490184 -1.2116841545761854 1.1907427303768137 0.0062454236493429656 0.012287598885466397 37.54518687866409 0.0077632610432040641 0.028386644049877022 0.0022359260882492374 40.3275852122839 23.594092927955522 23.486176987567461 0.026028183949957488 -0.021629686450764494
decision_type=2 2 2 2 2 2 2 2 8 2 2 2 2 2
left_child=1 -1 3 8 5 -2 7 -7 9 11 -10 -3 13 -5
right_child=4 2 -4 12 -6 6 -8 -9 10 -11 -12 -13 -14 -15
leaf_value=-0.056126908261604075 0.02635189887273863 0.023771971125699072 -0.041468730892874173 0.042598389907012195 0.051463574624554781 0.023537482417772183 -0.052650590624575201 -0.029023717044544269 -0.019801901628999238 -0.05425710846598937 0.032446408591897923 -0.027064913350188614 0.049549532771711841 -0.025149405509791126
leaf_weight=3.5405230671167365 12.856296166777613 5.5212721824646014 5.6927430331706992 5.2533647418022165 4.5092799216508856 7.1748623400926608 4.9098746478557578 4.9275396764278412 5.533570274710657 7.0045178681612006 6.4737296104431152 7.1503915041685104 6.9251345694065085 5.3439163714647302
leaf_count=19 54 24 27 23 20 30 22 21 24 33 27 33 30 25
internal_value=-6.35807e-05 -0.00588831 -0.00264832 0.0018429 0.00983791 0.00355366 -0.0136751 0.00213699 -0.0107893 -0.0224799 0.00836775 -0.00491437 0.0246841 0.00843505
internal_weight=92.817 58.4392 54.8986 49.2059 34.3779 29.8686 17.0123 12.1024 31.6835 19.6762 12.0073 12.6717 17.5224 10.5973
internal_count=412 265 246 219 147 127 73 51 141 90 51 57 78 48
is_linear=0
shrinkage=0.05


Tree=28
num_leaves=15
num_cat=0
split_feature=1 1 6 1 1 6 7 7 7 1 0 7 9 7
split_gain=1.96209 2.68659 3.49521 2.4311 3.25628 2.79044 2.38288 7.08807 1.93502 1.99264 1.82342 1.64617 1.34447 1.32797
threshold=28.101605449489426 29.698967358868792 0.022034532138718175 33.032988256345654 37.54518687866409 -0.010090870339020943 0.0062454236493429656 0.0079429623073804852 0.0053790615872382208 25.235770178456466 52.363360492957661 0.0044991692198082947 -1.0000000180025095e-35 0.0069030243068074074
decision_type=2 2 8 2 2 10 2 2 2 2 2 2 2 2
left_child=6 -2 3 -3 -5 -6 8 10 9 11 -8 -1 -9 -7
right_child=1 2 -4 4 5 13 7 12 -10 -11 -12 -13 -14 -15
leaf_value=-0.012013642484155448 0.040863846774740975 -0.025768829270709455 0.042271182493511118 0.028536574425559125 0.01952818852272915 -0.0057719252712603586 0.013966641629405039 -0.0089652927749465199 -0.039627128144235885 -0.036105679016451959 0.054926803791216686 0.02408574421562382 -0.047474466874975224 -0.039143809770272785
leaf_weight=8.907314479351049 5.2524368315935126 8.5703761130571348 4.9549211114644995 9.4396284967660922 6.2054903656244269 6.2053206562995928 5.9583389759063738 4.8222153931856155 7.1093099415302268 4.9818564951419821 4.9947472512722015 4.8926966637372962 4.2766700983047468 5.7371327877044678
leaf_count=39 24 37 22 40 27 26 26 23 34 24 22 21 22 25
internal_value=-6.56306e-05 0.00719079 0.00288884 -0.00250794 0.00471831 -0.00767073 -0.00738873 0.00555049 -0.0174098 -0.00900008 0.032645 0.000785141 -0.0270654 -0.0218037
internal_weight=92.3085 46.3653 41.1129 36.1579 27.5876 18.1479 45.9431 20.052 25.8912 18.7819 10.9531 13.8 9.09889 11.9425
internal_count=412 201 177 155 118 78 211 93 118 84 48 60 45 51
is_linear=0
shrinkage=0.05


Tree=29
num_leaves=15
num_cat=0
split_feature=3 7 7 0 3 1 1 5 10 3 7 3 3 3
split_gain=1.91054 1.7159 2.4624 2.79403 3.21234 2.53389 2.71604 2.35031 3.92542 2.83775 2.05459 2.46547 2.05184 1.63487
threshold=-73.877888073318829 0.007869266865362122 0.0060564640703730391 53.422245039415863 -5.6348173910582577 28.101605449489426 30.602485438957583 0.0065134421812501212 1.0000000180025095e-35 27.28768274029861 0.0093404790516929282 18.918552948736259 6.6786012355621338 -22.854628654561388
decision_type=2 2 2 2 2 2 2 2 2 2 2 2 2 2
left_child=-1 2 5 4 -4 7 -7 8 -2 -9 12 -12 -3 -8
right_child=1 10 3 -5 -6 6 13 9 -10 -11 11 -13 -14 -15
leaf_value=0.035413177185641957 -0.021276342891065156 -0.0091285584384247706 0.028449565083211344 0.041791509087173447 -0.019616585649988829 0.040007608803291808 -0.024600128296488919 -0.061932354057297218 0.0378654360959228 -0.011989403891621869 -0.015666969386062598 0.030458015603815447 -0.054157784798418707 0.010437073296480312
leaf_weight=3.6442547589540473 7.5340132564306277 5.4441309571266192 6.7021304219961175 7.2533662170171729 7.2213481813669214 5.2421952188015011 5.1534108817577389 4.5050874799489957 4.4704853147268295 7.7150408923625946 8.5348763167858106 4.3858921974897376 4.7259607091546059 9.4064419269561714
leaf_count=17 35 25 29 32 32 22 21 20 20 36 38 20 25 40
internal_value=-6.5004e-05 -0.00152933 0.00261863 0.0166287 0.00352028 -0.00412023 0.00914698 -0.0149653 0.000748105 -0.0304014 -0.0132422 -1.0067e-05 -0.0300533 -0.00196423
internal_weight=91.9386 88.2944 65.2035 21.1768 13.9235 44.0267 19.802 24.2246 12.0045 12.2201 23.0909 12.9208 10.1701 14.5599
internal_count=412 395 287 93 61 194 83 111 55 56 108 58 50 61
is_linear=0
shrinkage=0.05


Tree=30
num_leaves=15
num_cat=0
split_feature=6 6 6 10 5 7 3 1 6 3 6 2 4 5
split_gain=1.78013 4.18522 3.28362 4.88347 3.74435 3.882 2.949 3.1492 4.22259 2.3484 3.47043 1.88898 1.73966 1.47603
threshold=-0.005172937803471377 -0.0090424162717359785 -0.0026822409429881401 1.0000000180025095e-35 -0.044561837393675689 0.0035392117866552566 60.992571492971706 33.032988256345654 -0.013330276394079257 25.788095772788356 0.003723660193409578 -1.0000000180025095e-35 0.0050543957011327635 -0.012507141161339233
decision_type=8 8 10 2 2 2 2 2 10 2 10 2 2 2
left_child=1 6 -2 -4 -5 -6 7 8 -1 11 -11 -7 13 -13
right_child=2 -3 3 4 5 9 -8 -9 -10 10 -12 12 -14 -15
leaf_value=-0.028696557058060342 0.037305804388359114 -0.041825432699162141 -0.034101146321839609 0.050793964890584381 0.041627361645076313 -0.041300606159240236 -0.027789684201610723 0.043161792608910322 0.029154718472439108 -0.01227910142568055 0.048930271619513459 -0.012721570082018819 -0.024885289331002685 0.021320185338775142
leaf_weight=6.9745145738124874 6.9796502292156211 7.6430810689926139 8.4122036397457105 4.481732726097106 5.4718786627054206 4.4593703150749162 6.720976546406745 5.3567913621664038 5.7585297450423267 4.7313802540302259 4.5356638580560684 5.8711205720901463 7.260824814438819 6.958047285676014
leaf_count=35 31 36 38 20 23 20 30 23 26 21 20 26 33 30
internal_value=-6.46969e-05 -0.00947487 0.00509736 0.000789307 0.00749494 0.00255569 0.000490861 0.010998 -0.00253327 -0.00376655 0.0176792 -0.011862 -0.00532756 0.00574137
internal_weight=91.6158 32.4539 59.1619 52.1822 43.77 39.2883 24.8108 18.0898 12.733 33.8164 9.26704 24.5494 20.09 12.8292
internal_count=412 150 262 231 193 173 114 84 61 150 41 109 89 56
is_linear=0
shrinkage=0.05


Tree=31
num_leaves=15
num_cat=0
split_feature=6 2 2 2 7 5 5 4 7 1 3 7 2 2
split_gain=2.05932 1.75713 2.61308 2.33673 1.74715 1.68578 2.62781 3.0679 3.72359 2.74342 2.235 2.22835 1.9081 1.53831
threshold=0.032892685269215557 1.1907427303768137 1.7607088024958528 0.47205231291614963 0.0030750875485419647 -0.033125886345727586 0.020593362797862915 0.020882108996845481 0.0060798846542330972 30.218893222693616 36.760903593817126 0.0068469379776228568 0.15889577566119226 0.75838145778476396
decision_type=8 2 2 2 2 2 2 2 2 2 2 2 2 2
left_child=1 3 -3 4 -1 -6 10 -8 -9 -10 11 12 -7 -5
right_child=-2 2 -4 13 5 6 7 8 9 -11 -12 -13 -14 -15
leaf_value=0.024120107524316023 0.041671459790447521 -0.048146000120644565 0.0059157249238482104 0.038146030719659552 0.014739080080041678 0.0069715598694152087 0.037966263076358531 -0.040489140274073868 0.040162562504134018 -0.0098503344382061125 -0.04706985029628636 -0.038927863171411545 -0.031449272047462944 0.0055053479465256572
leaf_weight=5.3706884384155265 2.8628734499216071 4.6942321807146055 4.2668859660625458 6.0732509195804587 8.6400585025548846 12.498204588890092 5.0599912106990841 5.4396909177303341 4.5029641985893232 7.0115810930728912 5.7454416304826728 5.7847795337438574 4.3584541976451865 8.89854948222637
leaf_count=23 13 22 20 26 38 55 22 24 21 31 29 29 20 39
internal_value=-6.40104e-05 -0.00141648 -0.0224042 0.000952695 -0.00318313 -0.00566678 -0.00916487 0.00379958 -0.00639747 0.00970808 -0.0192189 -0.0121515 -0.00296252 0.0187459
internal_weight=91.2076 88.3448 8.96112 79.3837 64.4119 59.0412 50.4011 22.0142 16.9542 11.5145 28.3869 22.6414 16.8567 14.9718
internal_count=412 399 42 357 292 269 231 98 76 52 133 104 75 65
is_linear=0
shrinkage=0.05


Tree=32
num_leaves=15
num_cat=0
split_feature=6 2 2 2 6 2 2 6 6 2 2 3 6 2
split_gain=1.87216 1.59817 2.40508 2.1374 1.72296 1.54871 1.98591 1.5913 6.19914 4.81808 2.67606 2.44181 3.01558 2.35271
threshold=0.032892685269215557 1.1907427303768137 1.7607088024958528 0.37904949146001005 0.0092471391536008574 0.15889577566119226 -0.0079456041091824203 -0.005172937803471377 -0.0090424162717359785 -0.2334424201665104 -0.44222113185799933 60.992571492971706 -0.015744125743863333 -0.60142461635462152
decision_type=8 2 2 2 8 2 2 10 8 2 2 2 10 2
left_child=1 3 -3 5 -5 6 7 8 11 10 -9 12 -1 -14
right_child=-2 2 -4 4 -6 -7 -8 9 -10 -11 -12 -13 13 -15
leaf_value=-0.016240023215063071 0.039869581233864498 -0.046418338034141499 0.005615745628608431 0.033474034354789094 0.0015165937776690707 -0.024909241682691631 0.025687978527494073 0.0079793264554641943 -0.055346775194272647 -0.024493770556331507 0.056738573246371271 -0.025328914719648921 0.0054904917694289998 0.0535204013404506
leaf_weight=6.3388719186186817 2.8431540578603736 4.6272249668836576 4.269989937543869 8.018637537956236 8.897710859775545 7.3633681684732428 6.4006307721138063 7.2011300176382074 6.2706498354673377 7.3627890497446016 4.618920013308526 6.4739374667406073 5.5330052599310893 4.7287367731332779
leaf_count=31 13 22 20 35 39 33 28 33 30 32 20 29 26 21
internal_value=-6.45406e-05 -0.00135321 -0.0214459 0.000903738 0.016665 -0.00337646 -0.000489922 -0.00394267 -0.0112631 0.00725589 0.027033 0.000716875 0.0108743 0.0276233
internal_weight=90.9488 88.1056 8.89721 79.2084 16.9163 62.292 54.9287 48.528 29.3452 19.1828 11.8201 23.0746 16.6006 10.2617
internal_count=412 399 42 357 74 283 250 222 137 85 53 107 78 47
is_linear=0
shrinkage=0.05


Tree=33
num_leaves=15
num_cat=0
split_feature=1 2 2 7 7 1 7 4 6 3 1 1 5 5
split_gain=1.71927 3.41811 3.18843 4.62059 2.96902 3.79885 3.85318 2.74849 2.36942 3.94534 2.89499 2.88513 2.35902 4.13874
threshold=32.092703067490184 -1.2116841545761854 1.1907427303768137 0.0062454236493429656 0.012287598885466397 37.54518687866409 0.0077632610432040641 0.02588075375118461 0.0022359260882492374 40.3275852122839 23.486176987567461 23.594092927955522 0.026028183949957488 -0.021629686450764494
decision_type=2 2 2 2 2 2 2 2 8 2 2 2 2 2
left_child=1 -1 3 8 5 -2 7 -7 9 10 -3 -10 13 -5
right_child=4 2 -4 12 -6 6 -8 -9 11 -11 -12 -13 -14 -15
leaf_value=-0.054307767314984323 0.023810691973534224 0.023252618568921156 -0.038442105297408713 0.03932139230403555 0.047619821109121711 0.022491619153731511 -0.050692288095099014 -0.026404039757404126 -0.018861979788958982 -0.051501208507121643 -0.025324000371656011 0.030639394118685687 0.04542766694571309 -0.023896342982558376
leaf_weight=3.3559195622801772 12.688627436757089 5.4819934815168399 5.4771770089864722 5.1547525376081476 4.3154613822698584 7.0811817795038241 4.7295114398002616 4.8374021500349045 5.4524248987436312 6.7058344334363928 6.9627171009778976 6.3970476388931274 6.828064337372779 5.2014196664094934
leaf_count=19 54 24 27 23 20 30 22 21 24 33 33 27 30 25
internal_value=-6.46646e-05 -0.00535416 -0.00229266 0.0018165 0.0088974 0.0032013 -0.0125065 0.00264631 -0.0097114 -0.0205849 -0.00392562 0.0078618 0.0226126 0.00757009
internal_weight=90.6695 57.0174 53.6614 48.1843 33.6522 29.3367 16.6481 11.9186 31 19.1505 12.4447 11.8495 17.1842 10.3562
internal_count=412 265 246 219 147 127 73 51 141 90 57 51 78 48
is_linear=0
shrinkage=0.05


Tree=34
num_leaves=15
num_cat=0
split_feature=6 7 7 4 5 6 1 1 7 6 3 6 2 7
split_gain=1.67654 1.56363 3.2214 2.38711 2.58186 2.4469 2.51956 2.24621 2.19207 2.18838 5.3596 2.29803 3.3061 2.09786
threshold=0.032892685269215557 0.007869266865362122 0.0093404790516929282 -0.027516214092290461 -0.012507141161339233 0.0033467772697648589 22.926020520838225 26.73106196807937 0.0082058789056854483 -0.0090424162717359785 42.561625706744259 -0.005172937803471377 -0.2334424201665104 0.005432790427976353
decision_type=8 2 2 2 2 10 2 2 2 10 2 10 2 2
left_child=1 3 8 -1 -5 9 -7 -4 -3 10 -6 -11 -13 -8
right_child=-2 2 7 4 5 6 13 -9 -10 11 -12 12 -14 -15
leaf_value=0.031776720403706958 0.038051311556096361 -0.0081113474146181832 -0.026969607889984468 -0.027702801394776502 0.05542469580203381 -0.013558975330147466 0.049712055984223541 0.01819249647208784 -0.055488099390121393 -0.041298277733622615 -0.012055136838833889 0.024061859545963984 -0.023612813488094467 0.0091190742731614687
leaf_weight=6.3523695617914191 2.7952632904052725 4.4554350227117556 4.0177870392799369 7.5878828763961783 4.5661465227603868 4.432609140872958 6.6223621815443021 8.747607007622717 5.4015343487262726 5.719184756278989 8.2755497395992261 6.1650054007768604 8.8663939386606305 6.1281533688306808
leaf_count=28 13 21 20 34 20 20 28 39 29 28 38 28 39 27
internal_value=-6.62009e-05 -0.00128616 -0.0126016 0.00266933 -0.000498773 0.0035666 0.0189135 0.00397815 -0.0340734 -0.00428364 0.0119388 -0.014323 -0.00405944 0.0302023
internal_weight=90.1333 87.338 22.6224 64.7157 58.3633 50.7754 17.1831 12.7654 9.85697 33.5923 12.8417 20.7506 15.0314 12.7505
internal_count=412 399 109 290 262 228 75 59 50 153 58 95 67 55
is_linear=0
shrinkage=0.05


Tree=35
num_leaves=15
num_cat=0
split_feature=1 1 6 6 4 7 7 7 7 3 1 5 7 0
split_gain=1.5489 2.36886 3.72823 2.13936 3.42675 2.13108 3.00759 2.04785 5.73127 1.77926 3.20738 2.69466 1.74857 1.63968
threshold=28.101605449489426 29.698967358868792 0.022962115074476815 0.010095223555633649 0.03099616797705676 0.007869266865362122 0.0057071122143615496 0.0062454236493429656 0.0079429623073804852 -26.901644940959866 24.755024195189588 0.0054190140231688364 0.0044325008227835095 52.363360492957661
decision_type=2 2 8 8 2 2 2 2 2 2 2 2 2 2
left_child=7 -2 3 4 5 6 12 9 13 -1 11 -11 -3 -9
right_child=1 2 -4 -5 -6 -7 -8 8 -10 10 -12 -13 -14 -15
leaf_value=-0.046903314287743123 0.038312845255145563 0.026303270290886877 0.047957736828882436 -0.034104682100877734 -0.025221928252060568 -0.015901501198452659 0.055135249887535626 0.012212498041337866 -0.024492526025530707 0.029173418086114452 -0.036016603404863193 -0.01576355489236449 -0.010497515817495527 0.051635510625245656
leaf_weight=3.948428466916087 5.1691017895936957 6.514590486884126 4.0278737246990195 4.7304216027259818 8.4446850866079313 5.2402808368206015 4.6047248542308798 5.7836597263813037 8.7225124239921552 6.0435415208339709 7.7359381616115561 7.446726456284523 6.3977130353450775 4.8487425744533539
leaf_count=18 24 28 19 21 38 24 20 26 45 27 39 34 27 22
internal_value=-6.56894e-05 0.00646229 0.00234223 -0.00277108 0.0019793 0.012073 0.0204417 -0.0066816 0.00554711 -0.0160834 -0.0103503 0.00436788 0.00806943 0.0301908
internal_weight=89.6589 45.1294 39.9603 35.9324 31.202 22.7573 17.517 44.5295 19.3549 25.1746 21.2262 13.4903 12.9123 10.6324
internal_count=412 201 177 158 137 99 75 211 93 118 100 61 55 48
is_linear=0
shrinkage=0.05


Tree=36
num_leaves=15
num_cat=0
split_feature=1 6 2 7 0 7 1 7 5 6 3 1 1 3
split_gain=1.47334 3.40372 3.46093 3.16318 3.28424 2.61246 3.28191 3.38383 2.32175 2.17855 3.51833 3.21341 2.56043 2.16682
threshold=32.092703067490184 0.018021763014891893 -1.2116841545761854 0.0062454236493429656 53.422245039415863 0.012287598885466397 37.54518687866409 0.0077632610432040641 0.028386644049877022 0.0022359260882492374 40.3275852122839 23.594092927955522 23.486176987567461 -25.314498765034475
decision_type=2 8 2 2 2 2 2 2 2 10 2 2 2 2
left_child=1 2 -1 9 13 6 -2 8 -8 10 12 -11 -4 -5
right_child=5 -3 3 4 -6 -7 7 -9 -10 11 -12 -13 -14 -15
leaf_value=-0.052512258664600846 0.022181539005685098 -0.059867431690685514 0.021638048267941492 0.031944745606113906 0.047762730270528013 0.045129940848063002 0.020721369779833229 -0.048148061133907911 -0.024478832156683866 -0.02002231985310593 -0.049284913523672459 0.030898937285762842 -0.024214532179160218 -0.011489434228570808
leaf_weight=3.2170109599828711 12.555563598871233 2.6911028772592536 5.4840964227914863 4.3026751726865777 5.9815071374177924 4.2030856758356085 7.0112472921609896 4.6024938374757758 4.7764935344457626 5.7454702556133253 6.4970770776271811 6.7240999191999435 6.8442310094833374 8.6323094740509987
leaf_count=19 54 13 24 20 28 20 30 22 21 26 33 29 33 40
internal_value=-6.36144e-05 -0.00500047 -0.00223691 0.000984196 0.0171258 0.00829425 0.00294551 -0.01179 0.00240586 -0.00877274 -0.0195094 0.0074365 -0.00381761 0.00295845
internal_weight=89.2685 56.1196 53.4285 50.2115 18.9165 33.1489 28.9458 16.3902 11.7877 31.295 18.8254 12.4696 12.3283 12.935
internal_count=412 265 252 233 88 147 127 73 51 145 90 55 57 60
is_linear=0
shrinkage=0.05


Tree=37
num_leaves=15
num_cat=0
split_feature=1 1 6 6 4 7 7 7 7 5 3 1 5 0
split_gain=1.38948 2.18235 3.37797 1.96141 2.96771 1.95262 2.6913 1.76583 5.05451 1.62724 1.62572 2.93356 2.32631 1.42332
threshold=28.101605449489426 29.698967358868792 0.022962115074476815 0.010095223555633649 0.03099616797705676 0.007869266865362122 0.0057071122143615496 0.0062454236493429656 0.0079429623073804852 0.0092571609890617773 -26.901644940959866 24.755024195189588 0.0054190140231688364 52.363360492957661
decision_type=2 2 8 8 2 2 2 2 2 2 2 2 2 2
left_child=7 -2 3 4 5 6 9 10 13 -3 -1 12 -12 -9
right_child=1 2 -4 -5 -6 -7 -8 8 -10 -11 11 -13 -14 -15
leaf_value=-0.044810547623896524 0.036792989527107627 -0.012124439972226087 0.046104919048993831 -0.032848752456260642 -0.023606999309557928 -0.015575748257823034 0.052419276131151382 0.01161377780461674 -0.023399104031156092 0.023640005806239872 0.027316228540884731 -0.034527687268858805 -0.014493473567036395 0.048592490493337276
leaf_weight=3.8956330120563534 5.1397333666682234 5.7565253376960843 3.938186213374137 4.683827966451644 8.349213555455206 5.2107957080006591 4.5382586121559134 5.7590921372175234 8.5823245272040349 7.1070931553840637 6.0662664920091647 7.573564611375331 7.3678910732269287 4.7471412271261215
leaf_count=18 24 25 19 21 38 24 20 26 45 30 27 39 34 22
internal_value=-6.46449e-05 0.00614139 0.00216147 -0.00269347 0.00186834 0.0112745 0.0193145 -0.00637391 0.00506804 0.00763526 -0.0151442 -0.00964295 0.00438592 0.0283223
internal_weight=88.7155 44.7236 39.5839 35.6457 30.9619 22.6127 17.4019 43.9919 19.0886 12.8636 24.9034 21.0077 13.4342 10.5062
internal_count=412 201 177 158 137 99 75 211 93 55 118 100 61 48
is_linear=0
shrinkage=0.05


Tree=38
num_leaves=15
num_cat=0
split_feature=1 6 2 7 0 7 1 7 7 6 2 3 8 3
split_gain=1.30739 3.14489 3.18083 2.65518 2.90177 2.40771 2.95649 3.02017 2.09543 3.28501 2.44776 4.27956 2.06642 2.06502
threshold=32.092703067490184 0.018021763014891893 -1.2116841545761854 0.0062454236493429656 53.422245039415863 0.012287598885466397 37.54518687866409 0.0077632610432040641 0.0053790615872382208 0.0022359260882492374 -0.25394690755192667 41.85291978364328 1.0000000180025095e-35 53.173402316739974
decision_type=2 8 2 2 2 2 2 2 2 10 2 2 2 2
left_child=1 2 -1 8 12 6 -2 13 9 10 11 -4 -5 -8
right_child=5 -3 3 4 -6 -7 7 -9 -10 -11 -12 -13 -14 -15
leaf_value=-0.051107387992076758 0.021005325122438037 -0.058011233245691296 0.023239303901343357 0.023206921135928756 0.044982852397078998 0.043580186156350217 0.021670393012862246 -0.046053314833615473 -0.030759867400041708 0.02430545298400566 -0.04522194264332631 -0.043620788252298114 -0.016842711502510418 -0.020427176168188309
leaf_weight=3.1136303171515456 12.487260937690737 2.6390118151903144 6.5391601920127869 6.2495710998773593 5.8666903376579276 4.1218687891960135 6.2506816387176531 4.5237500816583625 7.6264032125473014 8.4598925113677961 4.5604110211134001 3.7749987915158272 6.6457079648971558 5.4555748105049133
leaf_count=19 54 13 30 28 28 20 27 22 38 36 21 20 32 24
internal_value=-6.23809e-05 -0.00474298 -0.0020824 0.000987531 0.01583 0.0078446 0.00271537 -0.0113568 -0.00800686 -0.000570487 -0.0147186 -0.0012316 0.00256695 0.00205127
internal_weight=88.3146 55.4755 52.8365 49.7228 18.762 32.8391 28.7173 16.23 30.9609 23.3345 14.8746 10.3142 12.8953 11.7063
internal_count=412 265 252 233 88 147 127 73 145 107 71 50 60 51
is_linear=0
shrinkage=0.05


Tree=39
num_leaves=15
num_cat=0
split_feature=3 7 0 7 6 0 5 7 4 5 0 5 3 0
split_gain=1.24703 1.29598 1.92641 1.8004 2.34373 5.1348 3.1363 1.97878 2.0027 4.45582 2.43764 2.09855 2.48674 1.10959
threshold=-73.877888073318829 0.0030750875485419647 56.512244640384047 0.0039907536906769606 -0.015744125743863333 40.239815185064202 0.023527834339699859 0.0044325008227835095 -0.027516214092290461 -0.012507141161339233 46.809472889613808 0.030408259748741506 12.988999902584036 58.243179192460637
decision_type=2 2 2 2 10 2 2 2 2 2 2 2 2 2
left_child=-1 -2 3 -3 6 -6 -5 -7 -9 -10 -11 12 -12 -4
right_child=1 2 13 4 5 7 -8 8 9 10 11 -13 -14 -15
leaf_value=0.02995592821391746 0.02196565961488596 -0.032271243340572367 0.031704242379996861 -0.059373204284461016 0.04587917004668382 0.028990061231978 0.001910222449837462 0.014064628704327606 -0.054800885096806411 -0.041353989809811316 -0.0049846245536159283 -0.023276021905066974 0.038176549554809341 0.0038472327874123171
leaf_weight=3.3282205313444129 5.6129501909017554 6.3828364238142958 4.9264260083436993 4.1543514877557737 5.430262714624404 3.6976147741079322 4.1967193484306335 7.3128383159637371 5.7191270440816835 3.9906691834330728 8.4398695826530474 6.0003313124179831 5.5197927802801123 13.02756631374359
leaf_count=17 25 30 22 22 24 17 20 33 28 21 39 29 25 60
internal_value=-6.37056e-05 -0.00124734 -0.00290084 -0.00714758 -0.00420311 0.000211064 -0.028576 -0.00588501 -0.00937191 -0.0151484 -0.00567988 0.00145257 0.0120817 0.011491
internal_weight=87.7396 84.4114 78.7984 60.8444 54.4616 46.1105 8.35107 40.6802 36.9826 29.6698 23.9507 19.96 13.9597 17.954
internal_count=412 395 370 288 258 216 42 192 175 142 114 93 64 82
is_linear=0
shrinkage=0.05


Tree=40
num_leaves=15
num_cat=0
split_feature=6 2 5 2 4 7 2 2 7 7 5 5 2 7
split_gain=1.20406 1.26681 2.99759 2.95883 1.59876 1.47999 1.55196 1.54006 1.83826 1.82567 3.17479 3.01919 2.98064 3.21738
threshold=0.032892685269215557 1.0333438684152667 -0.0011865630645135886 0.47205231291614963 -0.0047087277741031611 0.0030750875485419647 0.15889577566119226 -0.0079456041091824203 0.0046709389448307504 0.0068469379776228568 0.035380528429368535 -0.021629686450764494 -0.64954032586349209 0.0058210675788404193
decision_type=8 2 2 2 2 2 2 2 2 2 2 2 2 2
left_child=1 3 -3 5 -5 -1 7 8 -7 12 11 -11 -10 -14
right_child=-2 2 -4 4 -6 6 -8 -9 9 10 -12 -13 13 -15
leaf_value=0.022781318202925994 0.033255711287911986 -0.04248233904854079 0.0066692167450810433 0.046668897953693188 0.0074434829092107956 -0.023608078289872967 -0.025321733877452249 0.023027002693097588 0.041131332648614766 -0.0055106747416306954 0.016421372229675196 -0.059619905929637645 -0.031017184164734413 0.027966496930668768
leaf_weight=5.2143428772687903 2.6296823322772971 5.7130281776189804 6.7871436029672605 4.9534366577863693 5.4622244089841825 10.044808931648722 8.0962517261505109 5.583809942007071 5.9500599205493918 6.4610074311494721 6.8663734793663016 4.2896582335233813 5.0782811865210515 4.2441539764404297
leaf_count=23 13 28 32 23 24 49 38 25 27 29 32 25 24 20
internal_value=-6.43495e-05 -0.00109829 -0.0157948 0.00144459 0.0260981 -0.00270855 -0.00505623 -0.00167452 -0.00488706 0.000830531 -0.0101378 -0.027101 0.0134827 -0.00416413
internal_weight=87.3743 84.7446 12.5002 72.2444 10.4157 61.8287 56.6144 48.5182 42.9343 32.8895 17.617 10.7507 15.2725 9.32244
internal_count=412 399 60 339 47 292 269 231 206 157 86 54 71 44
is_linear=0
shrinkage=0.05


Tree=41
num_leaves=15
num_cat=0
split_feature=1 1 6 6 4 7 7 7 7 7 3 1 5 1
split_gain=1.19493 2.05088 2.95217 1.64329 2.57382 1.76698 2.35886 1.64004 1.57556 4.28138 1.54489 2.62699 2.08155 1.27109
threshold=28.101605449489426 29.698967358868792 0.022962115074476815 0.010095223555633649 0.03099616797705676 0.007869266865362122 0.0057071122143615496 0.0044325008227835095 0.0062454236493429656 0.0079429623073804852 -26.901644940959866 24.755024195189588 0.0054190140231688364 23.383076841043529
decision_type=2 2 8 8 2 2 2 2 2 2 2 2 2 2
left_child=8 -2 3 4 5 6 7 -3 10 -10 -1 12 -12 -11
right_child=1 2 -4 -5 -6 -7 -8 -9 9 13 11 -13 -14 -15
leaf_value=-0.043564916460616533 0.035757734466044404 0.024889317137706285 0.043642365189704352 -0.030577353889900755 -0.022410586619707358 -0.015426183251469272 0.049530716816621717 -0.010969975718757873 0.026541309492652765 -0.043500535230456674 0.026060684551281972 -0.032805680453632829 -0.01366257515755314 -0.0041880767051899826
leaf_weight=3.8101118057966259 5.0372062996029845 6.4339094460010617 3.812001258134841 4.5904950946569434 8.2172776609659177 5.1290430501103392 4.4124005138874045 6.3212303519248962 10.298625230789186 3.7036479786038381 6.0368233919143695 7.3982931971549979 7.2688623815774918 4.6223487630486488
leaf_count=18 24 28 19 21 38 24 20 27 48 22 27 39 34 23
internal_value=-6.46095e-05 0.00573752 0.0018518 -0.00268626 0.00150966 0.0103253 0.018019 0.00711806 -0.00597633 0.00498639 -0.0143053 -0.00892068 0.00435997 -0.0216754
internal_weight=87.0923 43.9536 38.9164 35.1044 30.5139 22.2966 17.1675 12.7551 43.1387 18.6246 24.5141 20.704 13.3057 8.326
internal_count=412 201 177 158 137 99 75 55 211 93 118 100 61 45
is_linear=0
shrinkage=0.05


Tree=42
num_leaves=15
num_cat=0
split_feature=1 6 2 5 3 6 7 1 6 6 8 2 6 6
split_gain=1.13619 2.8894 2.79724 2.44906 2.69039 3.07197 2.1787 2.44606 2.68588 1.84447 1.29562 1.30119 1.1994 1.52048
threshold=32.092703067490184 0.018021763014891893 -1.2116841545761854 0.03458408835036874 -5.6348173910582577 0.0022359260882492374 0.011257449765344025 37.54518687866409 -0.010090870339020943 0.003723660193409578 1.0000000180025095e-35 0.20012714283479752 -0.0030094421978923975 -0.010012506677814123
decision_type=2 8 2 2 2 10 2 2 10 10 2 2 8 10
left_child=1 2 -1 4 10 12 7 -2 -9 -10 11 -4 13 -6
right_child=6 -3 3 -5 5 -7 -8 8 9 -11 -12 -13 -14 -15
leaf_value=-0.049336815050707722 0.018886363068413216 -0.05625006007494289 0.040433509580050396 0.028925564125240999 -0.039208184561130739 0.0094111755131267814 0.039181480656890644 0.021504901920056021 -0.044033060728923136 -0.0031341273165000488 -0.0030410053668960342 0.0033372118152381405 -0.050492941931799498 -0.0021231901652237167
leaf_weight=2.9329052641987792 12.134487181901934 2.5672436952590934 5.2277882695198024 6.7385029643774024 5.1444090083241427 8.5854559093713743 4.6126835271716109 4.4962251335382453 5.7244131267070753 5.3173287361860275 8.6721329391002655 4.3149215430021286 4.257380858063704 5.9730242937803286
leaf_count=19 53 13 23 32 26 38 23 21 25 25 41 21 21 31
internal_value=-6.30928e-05 -0.00447204 -0.00190819 0.000935678 -0.00353639 -0.0145471 0.0073678 0.00206482 -0.0110721 -0.0243375 0.0109474 0.0236597 -0.0279257 -0.0192837
internal_weight=86.6989 54.4138 51.8465 48.9136 42.1751 23.9603 32.2851 27.6725 15.538 11.0417 18.2148 9.54271 15.3748 11.1174
internal_count=412 265 252 233 201 116 147 124 71 50 85 44 78 57
is_linear=0
shrinkage=0.05


Tree=43
num_leaves=15
num_cat=0
split_feature=3 0 7 3 4 3 3 0 4 1 2 1 4 7
split_gain=1.08625 1.18291 2.01467 1.71219 3.29984 1.88603 5.58276 3.33586 3.86972 2.66618 1.91346 1.64391 1.41042 2.33387
threshold=-73.877888073318829 56.512244640384047 0.0030750875485419647 60.992571492971706 0.017229679797435896 -33.775517801325066 -43.600245054082798 40.239815185064202 -0.0029317071262903783 26.087748613232794 0.27907709137254139 23.486176987567461 0.013364697021740294 0.0059493164275086748
decision_type=2 2 2 2 2 2 2 2 2 2 2 2 2 2
left_child=-1 2 -2 4 5 6 10 -7 -9 11 -4 -10 -3 -14
right_child=1 12 3 -5 -6 7 -8 8 9 -11 -12 -13 13 -15
leaf_value=0.028409319709224432 0.028176427707412299 0.033999313778261868 0.0061228212310815502 -0.029650679260036214 0.028886923040802426 0.017831009847608891 0.051138689786162643 -0.054889195880520075 -0.009765392848853173 0.011338181761604525 -0.034437585151916326 -0.0526574086295317 -0.018846162282402535 0.021537819391514973
leaf_weight=3.2245101109147063 4.4177489131689063 4.5735691487789181 6.0295533388853091 7.2170604616403571 6.7759453132748595 5.8239207118749681 4.6967868506908372 7.2299622148275402 4.9278063923120516 7.3678534626960746 5.6160385757684708 4.0863499566912651 6.8947836607694608 7.4363091140985489
leaf_count=17 20 21 26 34 33 27 23 37 24 35 26 23 31 35
internal_value=-6.38389e-05 -0.00116876 -0.00440631 -0.00681453 -0.00367853 -0.00849876 0.00512181 -0.0160607 -0.0244201 -0.010973 -0.0134373 -0.0292095 0.00982403 0.00210882
internal_weight=86.3182 83.0937 64.189 59.7713 52.5542 45.7783 16.3424 29.4359 23.612 16.382 11.6456 9.01416 18.9047 14.3311
internal_count=412 395 308 288 254 221 75 146 119 82 52 47 87 66
is_linear=0
shrinkage=0.05


Tree=44
num_leaves=15
num_cat=0
split_feature=1 6 2 5 6 7 1 3 3 8 6 1 0 0
split_gain=1.06101 2.74838 2.58211 2.15564 2.3322 1.95256 2.29201 2.59837 2.75098 2.70392 1.70232 1.95123 1.52967 1.8546
threshold=32.092703067490184 0.018021763014891893 -1.2116841545761854 0.03458408835036874 0.013080928217372416 0.011257449765344025 47.633510120342173 62.5052010005708 16.007785161533651 1.0000000180025095e-35 -0.013330276394079257 28.530957419470379 42.884386112848652 51.513029618995184
decision_type=2 8 2 2 8 2 2 2 2 2 10 2 2 2
left_child=1 2 -1 4 10 6 7 8 9 -2 -4 12 -12 -14
right_child=5 -3 3 -5 -6 -7 -8 -9 -10 -11 11 -13 13 -15
leaf_value=-0.048161939086301633 0.03520916099614909 -0.055200985920621198 -0.036668158595258953 0.02713222853905909 0.036066542107447662 0.03755945385154083 -0.027480406954533184 -0.023130073566725178 0.050449369369487011 -0.012454598612149252 0.0138714478673928 0.022087899135554645 -0.03170545239145952 -0.0023475152146532263
leaf_weight=2.8420811817049971 4.8428361564874738 2.5320592373609534 4.2668600901961318 6.7309942394495001 3.442537546157836 4.5300809219479552 5.2796384543180457 4.863394856452941 4.7929217666387549 7.716711163520813 5.8574694246053722 6.2462359219789496 9.3878916501998919 12.598910436034201
leaf_count=19 22 13 22 32 16 23 24 22 21 35 27 28 49 59
internal_value=-6.46449e-05 -0.00434706 -0.00184059 0.000872098 -0.00335654 0.00714346 0.00213221 0.0091697 0.0182224 0.00592407 -0.00689473 -0.0031682 -0.00883384 -0.0148827
internal_weight=85.9306 53.905 51.373 48.5309 41.7999 32.0256 27.4955 22.2159 17.3525 12.5595 38.3574 34.0905 27.8443 21.9868
internal_count=412 265 252 233 201 147 124 100 78 57 185 163 135 108
is_linear=0
shrinkage=0.05


Tree=45
num_leaves=15
num_cat=0
split_feature=3 7 7 3 3 6 5 5 5 3 4 4 5 4
split_gain=0.97715 1.17569 1.38329 2.16815 2.10751 1.29832 1.93229 1.37526 3.68496 2.6099 2.34454 3.69299 3.11464 0.93425
threshold=-73.877888073318829 0.007869266865362122 0.0093404790516929282 10.241273937979598 6.6786012355621338 0.0075756294393162027 0.0092571609890617773 0.036042311886738253 0.020593362797862915 36.760903593817126 -0.0029317071262903783 -0.013773468047119399 0.0065134421812501212 0.020882108996845481
decision_type=2 2 2 2 2 10 2 2 2 2 2 2 2 2
left_child=-1 5 4 -4 -3 7 -7 8 9 10 11 -2 -12 -10
right_child=1 2 3 -5 -6 6 -8 -9 13 -11 12 -13 -14 -15
leaf_value=0.027200410072007339 0.010691621643209977 -0.0039412593843751384 -0.017217204539194075 0.02629897804925815 -0.052155576646731518 0.00044336570797610708 0.039798326077907009 -0.021435176777197352 0.043220925386306001 -0.037374139231802182 0.042347895098101031 -0.040337673748205995 -0.0096693466612383233 0.012093215053088554
leaf_weight=3.1646252945065489 7.6200718730688068 4.967764228582384 7.2844279855489713 4.7151864916086197 4.1682302355766296 7.6551864743232709 5.2635113447904587 7.254953294992446 5.3021370470523816 5.5197648480534545 5.9708238542079979 6.6306558474898347 5.5551734119653702 4.4199480563402176
leaf_count=17 35 25 35 23 25 35 24 35 23 30 28 31 26 20
internal_value=-6.418e-05 -0.00111221 -0.011279 -0.000117745 -0.0259387 0.00239937 0.0164779 -0.00136825 0.00218098 -0.00617174 0.000509864 -0.0130516 0.0172772 0.0290693
internal_weight=85.4925 82.3278 21.1356 11.9996 9.13599 61.1922 12.9187 48.2735 41.0186 31.2965 25.7767 14.2507 11.526 9.72209
internal_count=412 395 108 58 50 287 59 228 193 150 120 66 54 43
is_linear=0
shrinkage=0.05


Tree=46
num_leaves=15
num_cat=0
split_feature=1 6 2 7 0 3 4 7 6 3 2 6 3 3
split_gain=0.976642 2.53437 2.40489 2.14 2.43681 2.34905 3.49805 1.89584 2.68314 1.97093 2.98188 1.84325 2.70314 4.36815
threshold=32.092703067490184 0.018021763014891893 -1.2116841545761854 0.0062454236493429656 53.422245039415863 -27.987670731172372 0.010395180878566399 0.0053790615872382208 0.0033467772697648589 40.3275852122839 -0.25394690755192667 0.022034532138718175 -26.901644940959866 61.49271841758496
decision_type=2 8 2 2 2 2 2 2 10 2 2 8 2 2
left_child=1 2 -1 7 5 -5 -7 8 9 10 -4 12 -2 -14
right_child=11 -3 3 4 -6 6 -8 -9 -10 -11 -12 -13 13 -15
leaf_value=-0.047234815437565941 -0.017409723382170585 -0.053576847051732795 0.023208634046622038 0.03388116650497975 0.041598045404596579 -0.046078371112357436 0.018086994073875193 -0.029415418955478303 0.027026907336399848 -0.035980938318300577 -0.029769405010199142 0.038322786532473868 0.03921393112208852 -0.011493665439476766
leaf_weight=2.7539747580885878 10.710775509476667 2.4774923026561728 6.365814864635472 3.9518847689032564 5.6563708931207648 4.0916412621736526 4.4170074462890625 7.3651163205504409 6.4630928188562384 5.3312745392322531 4.5577122271060988 4.0640892982482937 8.7701794952154142 8.2350235283374769
leaf_count=19 48 13 30 19 28 21 20 38 28 28 21 21 40 38
internal_value=-6.42191e-05 -0.00419249 -0.00179131 0.000805174 0.0143812 0.00202629 -0.0127689 -0.00737072 -0.000223848 -0.0110591 0.00110418 0.00687658 0.00226552 0.014658
internal_weight=85.2115 53.4314 50.9539 48.1999 18.1169 12.4605 8.50865 30.083 22.7179 16.2548 10.9235 31.7801 27.716 17.0052
internal_count=412 265 252 233 88 60 41 145 107 79 51 147 126 78
is_linear=0
shrinkage=0.05


Tree=47
num_leaves=15
num_cat=0
split_feature=1 1 6 6 4 7 7 7 1 2 2 7 6 0
split_gain=0.924536 1.95704 2.38161 1.51324 2.14555 1.56874 2.01003 1.54816 1.41213 1.65724 1.58889 3.62324 1.64052 1.61461
threshold=28.101605449489426 29.698967358868792 0.022962115074476815 0.010095223555633649 0.03099616797705676 0.007869266865362122 0.0057071122143615496 0.0044325008227835095 27.005676743138647 1.1741760823881 -0.910015567026354 0.0062454236493429656 0.0026419040672055849 47.597569138771753
decision_type=2 2 8 8 2 2 2 2 2 2 2 2 8 2
left_child=8 -2 3 4 5 6 7 -3 9 10 -1 12 13 -12
right_child=1 2 -4 -5 -6 -7 -8 -9 -10 -11 11 -13 -14 -15
leaf_value=-0.034097275042841262 0.034982638107016947 0.024069664477955291 0.040014444026883422 -0.029627791586191606 -0.020854794157802243 -0.015079558897534595 0.046395331823963992 -0.011020890642422704 -0.03327693689580076 -0.034583455926569744 -0.0044259374944276711 0.027011462603869104 0.0077059385973236418 -0.042809543849782028
leaf_weight=2.9354105815291396 4.857223153114318 6.3429040610790342 3.5927268266677848 4.5501124411821356 7.9861705005168906 5.0291006192564955 4.2671524137258521 6.230968251824379 4.0849551707506171 3.6025787740945807 6.2746097072958964 11.289261169731615 8.7913242280483264 4.8633337393403053
leaf_count=18 24 28 19 21 38 24 20 27 21 20 31 55 39 27
internal_value=-6.41974e-05 0.00509749 0.00127743 -0.0027675 0.00132602 0.00942565 0.0167434 0.00668058 -0.00535108 -0.00232973 0.00107242 0.00437935 -0.00844099 -0.021186
internal_weight=84.6978 42.8564 37.9991 34.4064 29.8563 21.8701 16.841 12.5739 41.8415 37.7565 34.1539 31.2185 19.9293 11.1379
internal_count=412 201 177 158 137 99 75 55 211 190 170 152 97 58
is_linear=0
shrinkage=0.05


Tree=48
num_leaves=15
num_cat=0
split_feature=5 7 7 3 6 0 7 0 6 6 1 2 6 0
split_gain=0.911133 1.57552 3.64531 2.06094 1.50051 1.69261 1.98455 2.11229 1.75261 2.77759 1.69108 1.42845 1.88549 1.82486
threshold=-0.076493578050937497 0.0082058789056854483 0.0093404790516929282 10.241273937979598 0.0075756294393162027 39.379354028881771 0.0030750875485419647 57.546047672070621 -0.0090424162717359785 -0.013330276394079257 24.808950161165662 -0.048167028958832341 -0.0046431230753144074 50.970111307445798
decision_type=2 2 2 2 8 2 2 2 8 10 2 2 10 2
left_child=-1 4 -3 -4 5 -2 -7 8 9 -8 -6 12 -10 -13
right_child=1 2 3 -5 10 6 7 -9 11 -11 -12 13 -14 -15
leaf_value=0.024240038234034231 0.022726480324991451 -0.05142474876685435 -0.018979496684266139 0.025727099004152446 -0.0056048261150982983 0.023651210050672986 -0.028302322123233321 0.014220744280541675 -0.068142482487424244 0.020191078908957417 0.029837145567718104 0.0064184590686919415 -0.019115665937940226 -0.033350089842793612
leaf_weight=3.6878957375884047 6.1759189516305915 4.8531793132424346 5.7585476636886579 4.6671887710690498 5.3973645716905585 5.2622644752264014 5.0385037809610367 7.8316164165735236 3.4537317454814911 7.1335201263427717 8.9410453885793668 5.966571293771274 4.5376038998365376 5.584593802690506
leaf_count=19 28 29 29 23 26 24 28 37 20 34 41 28 21 25
internal_value=-6.27866e-05 -0.00117475 -0.015629 0.00103387 0.00220609 -0.00181264 -0.00519486 -0.0090333 -0.0147757 0.000117656 0.0164958 -0.024052 -0.0403043 -0.0128083
internal_weight=84.2895 80.6017 15.2789 10.4257 65.3227 50.9843 44.8084 39.5461 31.7145 12.172 14.3384 19.5425 7.99134 11.5512
internal_count=412 393 81 52 312 245 217 193 156 62 67 94 41 53
is_linear=0
shrinkage=0.05


Tree=49
num_leaves=15
num_cat=0
split_feature=1 6 2 5 3 6 1 1 1 6 2 0 6 6
split_gain=0.894505 2.31486 2.18172 1.82103 2.15413 2.2907 1.78996 3.39909 1.68095 2.23991 1.68367 1.35123 1.14025 1.45456
threshold=32.092703067490184 0.018021763014891893 -1.2116841545761854 0.03458408835036874 -5.6348173910582577 0.0022359260882492374 21.648581000076359 24.459633024784633 37.54518687866409 -0.010090870339020943 0.21468396334265485 53.126146051737898 -0.0030094421978923975 -0.010012506677814123
decision_type=2 8 2 2 2 10 2 2 2 10 2 2 8 10
left_child=1 2 -1 4 6 12 -4 -8 11 -10 -11 -2 13 -6
right_child=8 -3 3 -5 5 -7 7 -9 9 10 -12 -13 -14 -15
leaf_value=-0.045995219649231089 0.0080659607443923972 -0.051931900687855095 0.039636568440768238 0.024981839048735369 -0.036647380268825407 0.0074521247765294233 -0.026902979644064386 0.023141235541768695 0.022819516404298145 -0.032436843805864451 0.0036555753505114249 0.041907894375632193 -0.047797912424919903 0.00045550636934292869
leaf_weight=2.6397652104496947 7.8643478751182574 2.4086703434586516 3.9305862039327613 6.6447820961475363 4.8952748104929888 8.4473619312047941 6.0009448379278165 7.8078437969088554 5.8470679521560713 6.4931334257125819 6.4319913536310196 4.7197223752737045 4.0516195595264497 5.7376143410801905
leaf_count=19 36 13 19 32 26 38 29 37 28 30 32 21 21 31
internal_value=-6.45023e-05 -0.00405147 -0.00175207 0.000705868 -0.00324088 -0.0132931 0.00986702 0.00139331 0.0066191 -0.00285938 -0.014476 0.0207586 -0.0252269 -0.0166263
internal_weight=83.9207 52.5645 50.1558 47.516 40.8712 23.1319 17.7394 13.8088 31.3563 18.7722 12.9251 12.5841 14.6845 10.6329
internal_count=412 265 252 233 201 116 85 66 147 90 62 57 78 57
is_linear=0
shrinkage=0.05


Tree=50
num_leaves=15
num_cat=0
split_feature=5 7 7 3 0 5 5 0 6 6 6 1 4 3
split_gain=0.852244 1.4293 3.41342 1.85533 1.35163 2.82922 2.5391 1.90764 3.20501 2.11252 1.77382 2.68753 3.18714 1.50275
threshold=-0.076493578050937497 0.0082058789056854483 0.0093404790516929282 10.241273937979598 60.524189047356671 0.036042311886738253 0.02103473488257096 47.597569138771753 -0.013330276394079257 -0.0084528096317124119 0.012790569085196407 22.606169322930874 -0.00064333419078687736 14.489759215732944
decision_type=2 2 2 2 2 2 2 2 10 10 10 2 2 2
left_child=-1 4 -3 -4 5 6 7 8 -2 -10 11 -9 -13 -14
right_child=1 2 3 -5 -6 -7 -8 10 9 -11 -12 12 13 -15
leaf_value=0.023511590465733579 -0.032802424583961175 -0.050206409182314463 -0.018064206441354425 0.024493726918673603 0.020719167975352577 -0.036491068675621692 0.026354828518750418 -0.053508357908628061 0.050672640929834346 0.0082968445707757525 0.014045848090230996 -0.042337988118668464 0.028231732531960336 -0.011578035202374685
leaf_weight=3.6649639979004851 3.5783771872520473 4.7288362905383101 5.6963234394788724 4.6526835486292839 8.4562609121203405 5.0334673076868048 9.3492991030216199 4.3378988206386628 4.055755779147149 10.701055943965908 5.1726386025547972 4.6693989560008022 4.6937177777290344 4.7894024327397346
leaf_count=19 20 29 29 23 40 25 42 22 19 51 24 22 22 25
internal_value=-6.49542e-05 -0.00114619 -0.0150125 0.00106889 0.0020784 -0.000717419 0.00278938 -0.00245656 0.00964928 0.0199434 -0.0118367 -0.0190773 -0.00852379 0.00812601
internal_weight=83.5801 79.9151 15.0778 10.349 64.8373 56.381 51.3475 41.9982 18.3352 14.7568 23.6631 18.4904 14.1525 9.48312
internal_count=412 393 81 52 312 272 247 205 90 70 115 91 69 47
is_linear=0
shrinkage=0.05


Tree=51
num_leaves=15
num_cat=0
split_feature=1 1 1 1 1 1 1 2 2 7 6 0 3 0
split_gain=0.843009 1.95558 2.31067 1.57872 2.15216 1.71991 1.322 1.47714 1.36877 3.29172 1.45377 1.654 1.32421 1.19194
threshold=32.092703067490184 30.037515715002758 28.101605449489426 37.54518687866409 43.900066743064961 50.567513784500285 27.005676743138647 1.1741760823881 -0.910015567026354 0.0062454236493429656 0.0027942399361831202 43.069143062181482 2.3006630744461574 53.126146051737898
decision_type=2 2 2 2 2 2 2 2 2 2 10 2 2 2
left_child=1 2 6 13 -5 -6 7 8 -1 10 11 -10 -11 -2
right_child=3 -3 -4 4 5 -7 -8 -9 9 12 -12 -13 -14 -15
leaf_value=-0.032173922506936424 0.0082523776181262758 -0.033756521662779142 0.028158449446734186 -0.021769533886918813 0.030980327136837932 -0.0098861687539202742 -0.032275598247574248 -0.033069072841092395 0.0050422616954336223 0.043820624959294896 0.0070917670318657103 -0.035236681559664911 0.0093037666066019473 0.040175601938377388
leaf_weight=2.8264070078730539 7.8093920499086398 4.9792732968926421 6.0070714950561515 8.2848805636167544 5.6628093719482404 4.7210565283894539 4.0199509076774111 3.4858799353241912 4.0534697920084088 5.3543173372745496 8.7243603020906431 6.8656377047300339 5.7762602791190147 4.6741422712802887
leaf_count=18 36 24 30 39 27 24 21 20 19 26 39 39 29 21
internal_value=-6.60195e-05 -0.00395704 -0.000807625 0.00644053 -0.00276373 0.0124002 -0.00504059 -0.00208846 0.00112562 0.00418398 -0.00812547 -0.020284 0.025908 0.0202052
internal_weight=83.2449 52.0926 47.1134 31.1523 18.6687 10.3839 41.1063 37.0863 33.6005 30.774 19.6435 10.9191 11.1306 12.4835
internal_count=412 265 241 147 90 51 211 190 170 152 97 58 55 57
is_linear=0
shrinkage=0.05


Tree=52
num_leaves=15
num_cat=0
split_feature=7 7 2 2 7 7 2 2 4 5 6 6 5 1
split_gain=0.860085 1.36336 2.11854 4.05457 1.64959 1.83476 2.11417 2.25309 1.98146 1.67438 2.5792 5.66641 1.74523 2.33959
threshold=0.0030750875485419647 0.0046709389448307504 -0.41323837541951164 0.15889577566119226 0.0052971126292449457 0.0057825629024910192 -0.910015567026354 -0.46178423259982065 0.035497901118832796 -0.03888473248775106 -0.005172937803471377 0.0011001668694206759 -0.011116713346469744 25.095854748632572
decision_type=2 2 2 2 2 2 2 2 2 2 8 10 2 2
left_child=-1 2 -2 -4 -3 -6 8 -8 -7 -9 -11 -12 -13 -14
right_child=1 4 3 -5 5 6 7 9 -10 10 11 12 13 -15
leaf_value=0.019184050067853051 -0.040222680209435445 0.023425323759045061 0.025418644736450627 -0.03487106531071555 -0.023887655758938281 -0.041205632829314873 0.037685006525170595 0.025918409636118037 0.0064396959606805391 -0.039425002471097627 0.054367790488459591 -0.037538989417112659 -0.023858101271955912 0.019877665767515637
leaf_weight=5.4232957363128653 5.2940835580229786 7.8580947965383521 6.16124579310417 5.0945654064416885 7.5844650715589514 4.7562196627259237 5.4304692000150636 6.2560333162546149 4.0320640653371811 4.0695417150855064 4.4177598953247204 4.1297213584184709 5.6021341010928101 6.7326191514730453
leaf_count=25 30 36 28 23 36 29 26 33 20 21 22 21 30 32
internal_value=-6.48889e-05 -0.0014133 -0.0141381 -0.00186947 0.00204649 -0.0011226 0.00267828 0.00796115 -0.019346 0.0027889 -0.00301024 0.00408628 -0.00940529 1.39825e-05
internal_weight=82.8423 77.419 16.5499 11.2558 60.8691 53.011 45.4266 36.6383 8.78828 31.2078 24.9518 20.8822 16.4645 12.3348
internal_count=412 387 81 51 306 270 234 185 49 159 126 105 83 62
is_linear=0
shrinkage=0.05


Tree=53
num_leaves=15
num_cat=0
split_feature=7 7 2 2 7 7 2 2 5 6 7 8 4 7
split_gain=0.77632 1.23755 1.95868 3.66167 1.48635 1.66177 1.91957 2.1537 3.38176 2.51172 1.99886 2.30051 1.8163 1.65406
threshold=0.0030750875485419647 0.0046709389448307504 -0.41323837541951164 0.15889577566119226 0.0052971126292449457 0.0057825629024910192 -0.910015567026354 1.1907427303768137 -0.033622924795602423 0.022962115074476815 0.006565477224679637 1.0000000180025095e-35 0.035497901118832796 0.0079429623073804852
decision_type=2 2 2 2 2 2 2 2 2 10 2 2 2 2
left_child=-1 2 -2 -4 -3 -6 12 8 -8 -9 -10 -12 -7 -13
right_child=1 4 3 -5 5 6 7 9 10 -11 11 13 -14 -15
leaf_value=0.018216583843180492 -0.038861445245935364 0.022222142352969026 0.024082651848702171 -0.033220324960294388 -0.022771737745960502 -0.039612001145558712 0.047668528631098731 -0.034087842187038538 0.028312723069588843 0.018140036150875352 0.021499751352379987 -0.00045615406648886125 0.0061092368411913333 -0.043037098672878166
leaf_weight=5.425690069794654 5.2077776268124607 7.8690840378403655 6.1774568632245046 5.0806865319609642 7.5589929148554793 4.7016055062413198 6.073861069977279 5.651582866907118 6.4824379086494544 3.8840760141611099 5.1794091463088963 4.9228600710630417 4.0375129878520966 4.2492414116859436
leaf_count=25 30 36 28 23 36 29 30 30 33 22 25 23 20 22
internal_value=-6.40493e-05 -0.00135089 -0.0135063 -0.0017776 0.00195135 -0.00107307 0.00255709 0.00760383 0.0148397 -0.0128143 0.00526885 -0.00513985 -0.0184886 -0.020183
internal_weight=82.5023 77.0766 16.4659 11.2581 60.6107 52.7416 45.1826 36.4435 26.9078 9.53566 20.8339 14.3515 8.73912 9.1721
internal_count=412 387 81 51 306 270 234 185 133 52 103 70 49 45
is_linear=0
shrinkage=0.05


Tree=54
num_leaves=15
num_cat=0
split_feature=1 1 1 7 1 6 6 1 2 6 5 0 4 5
split_gain=0.787302 1.80433 2.09066 1.48693 1.84004 2.50476 1.53938 1.25132 1.25437 1.23415 1.86607 1.18667 2.14325 1.35096
threshold=32.092703067490184 30.037515715002758 28.101605449489426 0.011257449765344025 37.54518687866409 -0.010090870339020943 0.0023363198575819992 27.005676743138647 1.1741760823881 0.0033467772697648589 0.0071461861639705773 42.884386112848652 0.017229679797435896 0.0054190140231688364
decision_type=2 2 2 2 2 10 8 2 2 8 2 2 2 2
left_child=1 2 7 4 -2 -6 -7 8 9 11 -11 -1 13 -13
right_child=3 -3 -4 -5 5 6 -8 -9 -10 10 -12 12 -14 -15
leaf_value=0.0085012978011294506 0.016762188231114496 -0.03267891601772998 0.026828202237386647 0.033622168959185655 0.022486770207447326 -0.041128180658848497 -0.0030643431777285009 -0.031587432122285534 -0.030977865767195269 0.037983874873467188 -0.001839343982793533 -0.013472074570929858 0.01386410017296459 -0.05377123662598822
leaf_weight=8.0305598005652481 11.623817756772047 4.9107981324195853 5.9637861400842658 4.2741332948207846 4.2891744673252132 5.5086075663566518 5.1296606063842791 3.9576745219528666 3.3847391977906218 4.7677815556526131 7.6804421693086624 4.9860801771283132 4.0519986450672141 3.5677220597863197
leaf_count=41 53 24 30 23 21 25 25 21 20 22 36 28 21 22
internal_value=-6.35981e-05 -0.00385838 -0.000807519 0.00625192 0.00184595 -0.00976915 -0.0227742 -0.00488434 -0.0019865 0.000979479 0.0134133 -0.00652083 -0.0160907 -0.0302805
internal_weight=82.127 51.3016 46.3908 30.8254 26.5513 14.9274 10.6383 40.427 36.4693 33.0846 12.4482 20.6364 12.6058 8.5538
internal_count=412 265 241 147 124 71 50 211 190 170 58 112 71 50
is_linear=0
shrinkage=0.05


Tree=55
num_leaves=15
num_cat=0
split_feature=7 7 2 5 7 7 2 2 5 6 7 8 8 4
split_gain=0.769275 1.07853 1.84645 3.45809 1.35349 1.50677 1.7825 1.93597 3.00781 2.19559 1.79051 2.117 1.70651 1.6473
threshold=0.0030750875485419647 0.0046709389448307504 -0.41323837541951164 0.0033282968900683416 0.0052971126292449457 0.0057825629024910192 -0.910015567026354 1.1907427303768137 -0.033622924795602423 0.022962115074476815 0.006565477224679637 1.0000000180025095e-35 1.0000000180025095e-35 0.012791230281435336
decision_type=2 2 2 2 2 2 2 2 2 10 2 2 2 2
left_child=-1 2 -2 -4 -3 -6 12 8 -8 -9 -10 -12 -7 -13
right_child=1 4 3 -5 5 6 7 9 10 -11 11 13 -14 -15
leaf_value=0.018196175951363212 -0.03768909781114909 0.021097077057163339 0.034124507017289141 -0.023105809340795532 -0.021890484952166885 -0.040262133862605208 0.045339839559459763 -0.032463488254717086 0.026885966831952143 0.016738332328902969 0.020721911101078853 -0.039273251472367592 0.0040830863337912669 0.0034224949498973946
leaf_weight=5.3881500512361518 5.1018529832363155 7.85360413044691 4.2515856474637967 6.9613150954246521 7.5093159079551688 4.3275013603270036 5.9722805917262987 5.5410304665565473 6.4645392298698523 3.8378651812672615 5.1622583419084522 4.8487210646271706 4.3504458144307137 4.2299996316432953
leaf_count=25 30 36 19 32 36 28 30 30 33 22 25 25 21 20
internal_value=-6.35675e-05 -0.00135114 -0.0127521 -0.00140584 0.0017439 -0.00116538 0.00231361 0.00721003 0.0140796 -0.01233 0.00506287 -0.00484349 -0.0180309 -0.0193803
internal_weight=81.8005 76.4123 16.3148 11.2129 60.0976 52.244 44.7346 36.0567 26.6778 9.3789 20.7055 14.241 8.67795 9.07872
internal_count=412 387 81 51 306 270 234 185 133 52 103 70 49 45
is_linear=0
shrinkage=0.05


Tree=56
num_leaves=15
num_cat=0
split_feature=1 1 1 1 6 2 1 0 2 6 1 0 4 0
split_gain=0.738025 1.61549 1.87388 1.37053 1.95524 1.50711 1.16027 1.09922 1.0883 1.11202 1.63766 1.08556 1.9601 1.36281
threshold=32.092703067490184 30.037515715002758 28.101605449489426 37.54518687866409 -0.010090870339020943 0.21468396334265485 27.005676743138647 53.126146051737898 1.1741760823881 0.0033467772697648589 22.779864192688411 42.884386112848652 0.017229679797435896 50.262377042619299
decision_type=2 2 2 2 10 2 2 2 2 10 2 2 2 2
left_child=1 2 6 7 -5 -6 8 -2 9 11 -11 -1 13 -13
right_child=3 -3 -4 4 5 -7 -8 -9 -10 10 -12 12 -14 -15
leaf_value=0.0080261557773439515 0.007467165060500775 -0.031226279077024646 0.025337528549980573 0.021686413688243176 -0.030726631194736276 0.0038424754592504594 -0.030611859246741219 0.038434448602792604 -0.029286392354840568 -0.0079474396111201533 0.028646541728363742 -0.047888669512843256 0.012996205886541138 -0.007446631948749588
leaf_weight=7.9741973243653801 7.6799573600292224 4.8419508337974539 5.9425792992115012 5.7130890488624599 6.353584408760069 6.2586692199110985 3.913337890058755 4.5712936371564865 3.3076122328639022 5.4443977773189527 6.9732346683740616 4.5527561642229539 4.0421863198280326 3.8401191309094429
leaf_count=41 36 24 30 28 30 32 21 21 20 26 32 30 21 20
internal_value=-6.29037e-05 -0.00375518 -0.000862972 0.00607535 -0.00257998 -0.0135722 -0.00475079 0.0190219 -0.00195005 0.000804337 0.0126022 -0.00637388 -0.0156081 -0.0293846
internal_weight=81.409 50.8324 45.9904 30.5766 18.3253 12.6123 40.0478 12.2513 36.1345 32.8269 12.4176 20.4093 12.4351 8.39288
internal_count=412 265 241 147 90 62 211 57 190 170 58 112 71 50
is_linear=0
shrinkage=0.05


Tree=57
num_leaves=15
num_cat=0
split_feature=7 0 3 3 3 3 5 0 5 1 5 2 2 3
split_gain=0.743428 0.97074 1.48323 2.53008 2.60956 3.81403 2.5431 2.16148 2.43747 2.8517 1.26614 1.57164 1.17018 3.35824
threshold=0.0030750875485419647 56.512244640384047 60.992571492971706 27.28768274029861 -33.775517801325066 -43.600245054082798 0.020593362797862915 40.239815185064202 0.0015589975346591166 26.087748613232794 -0.076493578050937497 0.9692411988766696 0.75838145778476396 51.371090118337925
decision_type=2 2 2 2 2 2 2 2 2 2 2 2 2 2
left_child=-1 2 3 4 5 10 -5 -6 -9 -10 -2 -12 13 -3
right_child=1 12 -4 6 7 -7 -8 8 9 -11 11 -13 -14 -15
leaf_value=0.017943469122458131 0.02028746354091639 0.047965057792356471 -0.02625441226398147 -0.0063521131211702669 0.011179395871823096 0.04797685406785987 0.042172162101300835 -0.049526298883977922 -0.035043946281812517 0.016188686104852457 0.00044348120547012715 -0.03928663530352678 -0.0099866982390800531 -0.0065620412034468464
