tree
version=v4
num_class=1
num_tree_per_iteration=1
label_index=0
max_feature_idx=10
objective=binary sigmoid:1
feature_names=rsi adx macd_hist wt2 close_vs_ema_fast close_vs_ema_slow close_vs_hma atr_pct vol_filter donchian_trend direction_bull
feature_infos=[21.393140268598728:75.75396165331847] [20.041744597867979:64.215533905514505] [-0.27318125413089778:0.21965124254656476] [-215.89295395108766:101.75210636393092] [-0.26263313577837055:0.18685446573737424] [-0.32744442272850138:0.23928608463501289] [-0.12007780536251229:0.095592323834301843] [0.0042325512580221655:0.037895607029332409] [0:1] [-1:1] [0:1]
tree_sizes=1586 1507 1613 1616 1506 1615 1611 1604 1613 1711 1710 1723 1724 1729 1723 1617 1728 1626 1732 1718 1733 1725 1727 1729 1722 1722 1728 1724 1721 1716 1717 1733 1726 1616 1714 1721 1616 1722 1721 1729 1736 1518 1502 1507 1721 1724 1622 1619 1620 1616 1610 1614 1500 1732 1613 1611 1725 1614 1506 1721 1724 1521 1631 1626 1722 1515 1614 1728 1514 1715 1620 1622 1725 1621 1733 1613 1604 1621 1626 1524 1517 1621 1628 1620 1518 1728 1527 1514 1628 1737 1609 1728 1627 1632 1743 1630 1513 1625 1618 1740 1628 1514 1619 1744 1526 1731 1525 1625 1521 1511 1513 1735 1629 1629 1535 1741 1734 1722 1631 1742 1626 1629 1629 1734 1732 1742 1722 1617 1511 1521 1617 1626 1728 1539 1624 1625 1521 1726 1627 1732 1617 1624 1635 1627 1722 1624 1517 1730 1631 1622 1627 1639 1627 1523 1724 1638 1613 1529 1746 1750 1745 1736 1618 1734 1737 1632 1519 1744 1639 1638 1747 1528 1732 1736 1621 1512 1729 1627 1728 1631 1624 1633 1736 1720 1623 1734 1622 1744 1635 1629 1636 1747 1631 1745 1631 1735 1519 1640 1645 1736

Tree=0
num_leaves=14
num_cat=0
split_feature=3 2 4 1 5 2 6 5 6 9 4 4 0
split_gain=11.6205 8.75545 6.44797 6.09827 6.27525 5.29041 4.84068 5.3679 3.48702 3.35919 2.65702 2.54149 1.88943
threshold=-55.434661184639374 0.020304679079274971 0.048030184405036057 24.583570189466545 -0.018604053642698393 -0.042714613776591311 0.0070658201628657725 0.030387112827485924 0.026836030511467608 -1.0000000180025095e-35 -0.068978558829031839 -0.0097268487968874533 49.083526381163544
decision_type=2 2 2 2 2 2 2 2 2 2 2 2 2
left_child=10 2 3 4 -2 -4 7 9 11 -5 -1 -3 -11
right_child=1 8 5 6 -6 -7 -8 -9 -10 12 -12 -13 -14
leaf_value=-0.4171429920459756 -0.5390531160525065 -0.53542303791831702 -0.5659358613462544 -0.45965524041748379 -0.47845873488949708 -0.49980569721279711 -0.42940614061467985 -0.43485642886743736 -0.56138097759216421 -0.53405167506762319 -0.47028330251036088 -0.48960705177013736 -0.491539426696115
leaf_weight=4.7045266628265381 7.9976953268051174 7.2920163273811349 4.7045266628265372 4.7045266628265372 9.1738269925117475 8.4681479930877668 6.1158846616744986 4.9397529959678641 6.5863373279571524 4.7045266628265434 4.7045266628265363 5.1749793291091928 5.8806583285331726
leaf_count=20 34 31 20 20 39 36 26 21 28 20 20 22 25
internal_value=-0.496119 -0.50263 -0.492774 -0.483497 -0.506681 -0.523424 -0.468385 -0.48017 -0.531952 -0.49481 -0.443713 -0.516405 -0.510434
internal_weight=85.1519 75.7429 56.6895 43.5169 17.1715 13.1727 26.3453 20.2295 19.0533 15.2897 9.40905 12.467 10.5852
internal_count=362 322 241 185 73 56 112 86 81 65 40 53 45
is_linear=0
shrinkage=1


Tree=1
num_leaves=13
num_cat=0
split_feature=3 2 4 1 5 2 1 5 9 6 6 5
split_gain=10.3759 7.98185 5.83779 5.46472 5.71722 4.90577 4.59552 5.67344 7.86274 3.2506 2.42346 2.34309
threshold=-55.434661184639374 0.020304679079274971 0.048030184405036057 24.583570189466545 -0.018604053642698393 -0.042714613776591311 27.184627925294279 0.030387112827485924 -1.0000000180025095e-35 0.026836030511467608 0.0079686061790604275 -0.089569659149730446
decision_type=2 2 2 2 2 2 2 2 2 2 2 2
left_child=11 2 3 4 -2 -4 -5 8 -8 10 -3 -1
right_child=1 9 5 6 -6 -7 7 -9 -10 -11 -12 -13
leaf_value=0.073848829523866219 -0.041244283418074304 -0.047770003684312168 -0.067569114133474634 0.069502079459855051 0.016705183947279451 -0.003505142233767319 0.038959376001426682 0.064268767560178505 -0.029657374947812145 -0.063079925107543885 -0.0021726536708894305 0.02424277595372866
leaf_weight=4.7858846187591553 7.9112393260002163 4.6796358823776263 4.6200862526893607 4.971265226602557 9.2126201838254911 8.4605364203453046 7.8527445942163494 4.7722636908292762 8.9143692851066607 6.4762154817581168 7.7235523760318756 4.736183285713194
leaf_count=20 34 20 20 21 39 36 33 20 38 28 33 20
internal_value=-1.22091e-05 -0.00620798 0.00316594 0.011949 -0.0100675 -0.0261326 0.0261699 0.0161689 0.00247874 -0.0343679 -0.0193762 0.0491753
internal_weight=85.1166 75.5945 56.7151 43.6345 17.1239 13.0806 26.5106 21.5394 16.7671 18.8794 12.4032 9.52207
internal_count=362 322 241 185 73 56 112 91 71 81 53 40
is_linear=0
shrinkage=0.05


Tree=2
num_leaves=14
num_cat=0
split_feature=3 2 4 1 5 2 1 2 2 4 6 2 5
split_gain=9.2852 7.27934 5.28898 4.90339 5.22582 4.55946 4.04464 5.22151 7.31793 3.88817 3.0388 2.46216 2.05695
threshold=-55.434661184639374 0.020304679079274971 0.048030184405036057 24.583570189466545 -0.017090695219003815 -0.042714613776591311 27.184627925294279 -0.0067281414613941581 -0.026714612933225173 -0.012276132784227373 0.026836030511467608 0.028598296044567238 -0.089569659149730446
decision_type=2 2 2 2 2 2 2 2 2 2 2 2 2
left_child=12 2 3 4 -2 -4 -5 8 -8 -9 11 -3 -1
right_child=1 10 5 6 -6 -7 7 9 -10 -11 -12 -13 -14
leaf_value=0.069157165934004505 -0.037268479121333666 -0.047178311181825999 -0.065499088446959938 0.065031397151071799 0.018059924239466382 -0.0033328310137790123 0.027208752241110686 0.01108136483225715 -0.051523783155847984 0.074886412104927927 -0.061053256391207171 -0.0011095940432386772 0.022902676781688676
leaf_weight=4.8531848788261414 8.5341439545154589 4.6601505428552645 4.5300817489624015 5.0453455448150661 8.5368103981018049 8.4532542228698713 6.8769102841615668 4.7848869115114212 5.1702364236116436 4.7658395022153837 6.3596052527427664 7.6801555752754211 4.7619578242301923
leaf_count=20 37 20 20 21 36 36 29 20 22 20 28 33 20
internal_value=-2.33229e-05 -0.0059243 0.00299797 0.0113205 -0.00959996 -0.0250236 0.0247248 0.015309 -0.00658064 0.0429203 -0.0329763 -0.0185068 0.0462493
internal_weight=85.0126 75.3974 56.6975 43.7142 17.071 12.9833 26.6432 21.5979 12.0471 9.55073 18.6999 12.3403 9.61514
internal_count=362 322 241 185 73 56 112 91 51 40 81 53 40
is_linear=0
shrinkage=0.05


Tree=3
num_leaves=14
num_cat=0
split_feature=3 2 4 1 1 7 2 5 4 6 1 2 4
split_gain=8.32518 6.64059 4.82605 3.77351 7.17729 5.18609 5.35587 4.1627 5.29804 2.84768 2.4485 2.18441 1.84009
threshold=-55.434661184639374 0.020304679079274971 0.079936600950148123 24.583570189466545 26.818184485770534 0.011252341319445521 -0.0067281414613941581 -0.018604053642698393 0.017704449802621702 0.026836030511467608 29.338748218150993 -0.027263965578403767 -0.068978558829031839
decision_type=2 2 2 2 2 2 2 2 2 2 2 2 2
left_child=12 2 3 7 -5 6 11 -2 -9 10 -3 -6 -1
right_child=1 9 -4 4 5 -7 -8 8 -10 -11 -12 -13 -14
leaf_value=0.065111818328742646 -0.038195148834783539 -0.00029358934704428358 -0.041654035366859549 0.072723945149429134 -0.0070561284389912722 0.044448257324673314 0.025466162543784594 0.03826688786095802 -0.030077765327723174 -0.059160760954016726 -0.046356112445373909 -0.050860943622768995 0.021532721379085143
leaf_weight=4.9034994691610336 7.7384159862995174 7.6454663574695605 5.5025399029254904 5.0752528011798885 6.0991530418396023 7.1118510961532584 8.1941099315881729 6.6573980599641782 4.9395038187503815 6.237992823123931 4.6333781182765961 5.3356962949037561 4.7869939208030683
leaf_count=20 34 33 24 21 26 30 34 28 21 28 20 23 20
internal_value=-3.35436e-05 -0.00565645 0.00283961 0.00762595 0.0182128 0.00786689 -0.00538706 -0.00979458 0.00915664 -0.0316509 -0.0176751 -0.0274962 0.0435842
internal_weight=84.8613 75.1708 56.6539 51.1514 31.8161 26.7408 19.629 19.3353 11.5969 18.5168 12.2788 11.4348 9.69049
internal_count=362 322 241 217 134 113 83 83 49 81 53 49 40
is_linear=0
shrinkage=0.05


Tree=4
num_leaves=13
num_cat=0
split_feature=3 2 4 2 1 5 6 5 1 6 6 5
split_gain=7.47626 6.05989 4.41191 4.28627 4.03251 4.36106 3.62525 3.87448 2.71509 2.6738 2.32018 1.63801
threshold=-55.434661184639374 0.020304679079274971 0.048030184405036057 -0.042714613776591311 24.583570189466545 -0.017090695219003815 0.0070658201628657725 0.030387112827485924 30.72866296211669 0.026836030511467608 0.0079686061790604275 -0.089569659149730446
decision_type=2 2 2 2 2 2 2 2 2 2 2 2
left_child=11 2 4 -4 5 -2 7 8 -6 10 -3 -1
right_child=1 9 3 -5 6 -7 -8 -9 -10 -11 -12 -13
leaf_value=0.061353798955727117 -0.034559358535892017 -0.044990192955628519 -0.063060166559683037 -0.0021723053167268733 -0.023878978743898521 0.016153358233311328 0.055360607188598338 0.049735589774440439 0.01840141942372827 -0.057384983505516657 8.2728929763997639e-06 0.020363102726663813
leaf_weight=4.9427392333745956 8.3594788461923617 4.5856759995222109 4.4066134840250006 8.4004341214895231 6.8583942502737107 8.6013248860836011 6.3359592109918585 5.1241556107997885 8.5065668523311597 6.1126757860183707 7.6325985044240952 4.807784363627432
leaf_count=20 37 20 20 36 29 36 26 21 36 28 33 20
internal_value=-4.22441e-05 -0.00540194 0.00269095 -0.0231224 0.0102412 -0.00884144 0.0223066 0.0120852 -0.000471107 -0.030387 -0.0168802 0.0411421
internal_weight=84.6744 74.9239 56.5929 12.807 43.7859 16.9608 26.8251 20.4891 15.365 18.331 12.2183 9.75052
internal_count=362 322 241 56 185 73 112 86 65 81 53 40
is_linear=0
shrinkage=0.05


Tree=5
num_leaves=14
num_cat=0
split_feature=3 2 4 1 1 7 2 5 4 6 2 2 4
split_gain=6.72287 5.53236 4.13483 3.09009 6.45458 4.63438 4.58367 3.50242 4.69613 2.51424 2.3221 1.98146 1.48258
threshold=-55.434661184639374 0.020304679079274971 0.079936600950148123 24.583570189466545 26.818184485770534 0.011252341319445521 -0.0067281414613941581 -0.018604053642698393 0.017704449802621702 0.026836030511467608 0.028598296044567238 -0.027263965578403767 -0.068978558829031839
decision_type=2 2 2 2 2 2 2 2 2 2 2 2 2
left_child=12 2 3 7 -5 6 11 -2 -9 10 -3 -6 -1
right_child=1 9 -4 4 5 -7 -8 8 -10 -11 -12 -13 -14
leaf_value=0.058065835450865716 -0.035402213881466783 -0.044329018112333543 -0.039125779088344234 0.067817302468258886 -0.007165982126100149 0.040979304184602251 0.022356179148280451 0.035441179979403166 -0.028909640474017728 -0.055711166240211399 0.00080671114603688722 -0.049067650097488251 0.019160638101207803
leaf_weight=4.9692061543464661 7.5626647770404842 4.5598095655441302 5.3837681412696829 5.1360495984554317 6.0865223556757 7.1867279708385459 8.2696940004825592 6.7248992919921857 4.9015466570854187 5.984780251979827 7.5975199937820435 5.2593520879745492 4.8278026878833753
leaf_count=20 34 20 24 21 26 30 34 28 21 28 33 23 20
internal_value=-4.85601e-05 -0.00515912 0.00255305 0.00694187 0.0164698 0.00663025 -0.00595452 -0.00891645 0.00831178 -0.0291819 -0.0161222 -0.0265894 0.038894
internal_weight=84.4503 74.6533 56.5112 51.1275 31.9383 26.8023 19.6156 19.1891 11.6264 18.1421 12.1573 11.3459 9.79701
internal_count=362 322 241 217 134 113 83 83 49 81 53 49 40
is_linear=0
shrinkage=0.05


Tree=6
num_leaves=14
num_cat=0
split_feature=4 7 6 7 5 4 4 3 3 6 6 2 0
split_gain=6.10285 6.20494 6.67549 5.17068 3.32529 4.38439 4.84276 5.13521 2.57275 2.4623 1.80622 1.5846 0.916597
threshold=0.048903063718579796 0.01375502780019686 0.026836030511467608 0.017011516318030783 0.036554212414408586 -0.052214935795228054 -0.012276132784227373 29.328042587374014 -16.83443833031539 -1.0000000180025095e-35 0.012164353078074586 -0.025532178843669814 52.30553713635576
decision_type=2 2 2 2 2 2 2 2 2 2 2 2 2
left_child=1 2 4 11 5 -1 8 12 10 -3 -7 -2 -8
right_child=3 9 -4 -5 -6 6 7 -9 -10 -11 -12 -13 -14
leaf_value=0.035542592431391344 0.012466659894617356 0.01326623772316443 -0.055385805336298582 -0.07385887019276037 0.039009831104287289 -0.022032818542801248 0.043605903535902268 -0.021134950586839667 0.0022669489316083716 0.05583044626451087 -0.062200288958981678 -0.028367242231282987 0.016748350836530437
leaf_weight=7.1031930297613064 4.4921730309724799 6.305871844291687 5.1883576810359946 4.5610112547874442 6.0295254737138739 5.8411049991846102 5.4710642993450325 8.9693975746631605 4.8627002388238827 7.3676020950078946 5.3733170181512833 5.0430241525173178 7.5754435211420059
leaf_count=30 20 27 24 21 25 25 23 38 21 31 23 22 32
internal_value=-5.50427e-05 0.0059824 -0.00134186 -0.0300737 0.00413193 -0.000521047 -0.00724582 0.00798873 -0.0281079 0.0362009 -0.0412788 -0.00912978 0.0280111
internal_weight=84.1838 70.0876 56.4141 14.0962 51.2257 45.1962 38.093 22.0159 16.0771 13.6735 11.2144 9.5352 13.0465
internal_count=362 299 241 63 217 192 162 93 69 58 48 42 55
is_linear=0
shrinkage=0.05


Tree=7
num_leaves=14
num_cat=0
split_feature=3 2 4 1 1 7 2 1 6 1 2 7 4
split_gain=5.79312 4.78661 3.43883 2.7804 5.78801 4.03475 4.19645 3.2817 2.2257 2.25425 1.7527 1.70071 1.10232
threshold=-55.434661184639374 0.020304679079274971 0.079936600950148123 24.583570189466545 26.818184485770534 0.011252341319445521 -0.0067281414613941581 22.176521047120932 0.026836030511467608 29.338748218150993 -0.027263965578403767 0.0092052684975234503 -0.068978558829031839
decision_type=2 2 2 2 2 2 2 2 2 2 2 2 2
left_child=12 2 3 7 -5 6 10 -2 9 -3 -6 -9 -1
right_child=1 8 -4 4 5 -7 -8 11 -10 -11 -12 -13 -14
leaf_value=0.052486707067250761 0.014268756783012933 0.0014683076476141492 -0.036262673064672575 0.063659878920618043 -0.007583696981831466 0.037785730616135972 0.02110850562313633 -0.0083624589800365065 -0.053006386664322072 -0.043184151240255229 -0.047157980427452083 -0.04846456259621508 0.018982670853337921
leaf_weight=4.9955322295427322 8.5290202200412768 7.5614763647317904 5.2425146400928488 5.1801539808511761 6.0942272096872356 7.2507509142160407 8.2950339019298553 5.5712392628192884 5.7553983032703391 4.513783872127533 5.1724767386913308 5.0315863192081451 4.8273729979991895
leaf_count=20 37 33 24 21 26 30 34 24 28 20 23 22 20
internal_value=-6.2037e-05 -0.00483907 0.00230359 0.00625833 0.0152753 0.00592748 -0.0058811 -0.00882008 -0.0274187 -0.015223 -0.025752 -0.027393 0.0360215
internal_weight=84.0206 74.1977 56.367 51.1245 31.9926 26.8125 19.5617 19.1318 17.8307 12.0753 11.2667 10.6028 9.82291
internal_count=362 322 241 217 134 113 83 83 81 53 49 46 40
is_linear=0
shrinkage=0.05


Tree=8
num_leaves=14
num_cat=0
split_feature=3 2 2 4 4 2 3 6 5 6 6 5 5
split_gain=5.22361 4.37158 3.13946 3.8758 3.26914 3.72561 5.56837 4.64798 4.23726 3.15145 2.09983 2.24097 1.00964
threshold=-55.434661184639374 0.020304679079274971 -0.047039586242168821 0.048903063718579796 -0.012276132784227373 -0.030862197950945146 14.366425868733085 0.0021167444439239096 0.025745089846689054 -0.0062484952737736242 0.026836030511467608 -0.028057749364951669 -0.089569659149730446
decision_type=2 2 2 2 2 2 2 2 2 2 2 2 2
left_child=12 2 3 -2 9 -6 -7 8 -8 -4 11 -3 -1
right_child=1 10 4 -5 5 6 7 -9 -10 -11 -12 -13 -14
leaf_value=0.04991824596150482 0.0034809566394063546 -0.042500461850016741 -0.038919117457007657 -0.059826731445430041 0.048486223730371716 0.046002298368308034 -0.020421151517722204 -0.045089340812576914 0.03917746264393536 0.0077197486025340593 -0.051552605716233407 0.0021351616307738004 0.017885880054237132
leaf_weight=4.9978668689727783 5.6987724453210813 4.4886580556631097 6.190042331814765 4.1989718973636627 7.160112813115119 6.7571836858987906 5.80778616666794 5.5820719897747031 6.1301582157611847 8.7307791113853401 5.6251484453678122 7.5279894769191751 4.8443645834922773
leaf_count=20 24 20 27 20 30 28 25 24 26 37 28 33 20
internal_value=-6.6385e-05 -0.00462382 0.0021864 -0.0233764 0.00764422 0.0167916 0.00744387 -0.00742748 0.0101829 -0.0116288 -0.0263402 -0.0145379 0.0341519
internal_weight=83.7399 73.8977 56.2559 9.89774 46.3581 31.4373 24.2772 17.52 11.9379 14.9208 17.6418 12.0166 9.84223
internal_count=362 322 241 44 197 133 103 75 51 64 81 53 40
is_linear=0
shrinkage=0.05


Tree=9
num_leaves=15
num_cat=0
split_feature=4 1 4 4 7 5 1 4 1 1 2 4 3 1
split_gain=5.12956 7.56151 4.88756 7.02841 4.77781 3.40806 3.64794 4.10084 3.22544 2.95742 2.4471 2.29053 1.99218 1.71515
threshold=-0.048557541611383037 25.845825528178498 -0.012276132784227373 0.048030184405036057 0.017011516318030783 0.040749678379378568 28.623197632810186 0.011410337964586573 41.713876305186005 22.459522252477285 -0.025532178843669814 -0.018365039474500296 -20.954762864781308 33.424626472659021
decision_type=2 2 2 2 2 2 2 2 2 2 2 2 2 2
left_child=1 -1 11 5 10 6 7 9 -3 -4 -5 12 -2 -8
right_child=2 8 3 4 -6 -7 13 -9 -10 -11 -12 -13 -14 -15
leaf_value=-0.027245829919196968 -0.03021948426165403 0.070755344518268606 0.012376915983109485 0.018317947047067285 -0.070891229441985934 0.053543716639710651 -0.036779364484038145 -0.0085270895118053306 0.017985659608405931 0.06537136375272401 -0.030954206698478922 -0.057736416478861977 0.0097949885423285147 0.0028056441490192266
leaf_weight=4.9090432971715954 9.9150230288505554 6.3558769673109037 4.7265756726265007 4.7104264497756949 4.3106596916913977 4.8852191269397727 4.7174803465604764 6.4829750955104819 5.3191619515419006 5.9425865113735199 5.4188329428434363 4.7353709787130347 4.5324407666921624 6.5160994082689285
leaf_count=22 43 27 20 21 21 20 21 27 22 25 24 21 20 28
internal_value=-7.18774e-05 0.0248208 -0.00624319 0.00232662 -0.0268034 0.0149693 0.00833061 0.0228365 0.0467134 0.0418941 -0.00804109 -0.0275577 -0.0176662 -0.0138179
internal_weight=83.4778 16.5841 66.8937 47.7109 14.4399 33.2709 28.3857 17.1521 11.675 10.6692 10.1293 19.1828 14.4475 11.2336
internal_count=362 71 291 207 66 141 121 72 49 45 45 84 63 49
is_linear=0
shrinkage=0.05


Tree=10
num_leaves=15
num_cat=0
split_feature=4 1 4 4 7 5 1 5 1 1 2 4 3 1
split_gain=4.62465 6.78155 4.447 6.38391 4.52025 3.04965 3.28329 3.75583 4.81867 2.84174 2.22321 2.13406 1.81617 1.56992
threshold=-0.048557541611383037 25.845825528178498 -0.012276132784227373 0.048030184405036057 0.017011516318030783 0.040749678379378568 28.623197632810186 0.014054380630989743 23.116269169221344 41.713876305186005 -0.025532178843669814 -0.018365039474500296 -20.954762864781308 33.424626472659021
decision_type=2 2 2 2 2 2 2 2 2 2 2 2 2 2
left_child=1 -1 11 5 10 6 7 8 -4 -3 -5 12 -2 -8
right_child=2 9 3 4 -6 -7 13 -9 -10 -11 -12 -13 -14 -15
leaf_value=-0.026102602099362472 -0.028937482495180855 0.066454328456164002 0.0034021552207323526 0.017304914142509002 -0.069476173669125438 0.05056522654428957 -0.035319232226578616 -0.010461961740134635 0.069022993390854367 0.017064510262065038 -0.029695485099611181 -0.055807238839449859 0.0092789759389296147 0.0026635712431858933
leaf_weight=4.8688870370388058 9.8385497033596039 6.4269243776798231 5.2137217819690758 4.7361824810504904 4.1818015277385703 4.9135497361421576 4.6681547015905362 5.966301053762435 6.0368371605873108 5.325799822807312 5.3674302101135245 4.6561383306980124 4.5449393391609201 6.5203695297241211
leaf_count=22 43 27 22 21 21 20 21 25 25 22 24 21 20 28
internal_value=-7.81495e-05 0.0235169 -0.00596296 0.00220528 -0.0257581 0.0141945 0.00790312 0.0216067 0.0386131 0.0440731 -0.00766352 -0.0263858 -0.0168617 -0.0131839
internal_weight=83.2656 16.6216 66.644 47.6043 14.2854 33.3189 28.4054 17.2169 11.2506 11.7527 10.1036 19.0396 14.3835 11.1885
internal_count=362 71 291 207 66 141 121 72 47 49 45 84 63 49
is_linear=0
shrinkage=0.05


Tree=11
num_leaves=15
num_cat=0
split_feature=3 2 6 7 8 7 6 7 4 4 7 6 3 5
split_gain=4.2861 3.89905 3.04541 5.76018 6.59325 3.50498 3.09075 2.93183 2.98796 2.76975 2.00824 2.69788 1.76098 0.856908
threshold=-55.434661184639374 0.020304679079274971 -0.0072839083402015661 0.012314197155071991 1.0000000180025095e-35 0.0080131917249861399 0.0049248753133070708 0.012314197155071991 -0.0089002107261751309 0.048030184405036057 0.0090130175451780849 0.026836030511467608 41.240608195878167 -0.089569659149730446
decision_type=2 2 2 2 2 2 2 2 2 2 2 2 2 2
left_child=13 2 7 4 6 -6 -4 8 -2 -9 -3 -12 -10 -1
right_child=1 10 3 -5 5 -7 -8 9 12 -11 11 -13 -14 -15
leaf_value=0.045471630486338864 -0.055326735173467083 -0.052746580106785727 0.08591168310246676 -0.032951094245107247 0.027786356468097292 -0.028298432565941747 0.028718326561932985 0.031492219244267171 0.014687991562312409 -0.018745115951088069 0.0026007958177894424 -0.045777471500594337 -0.022323417272441349 0.01595905859958837
leaf_weight=4.9809755235910416 4.6877372264862087 4.7306890785694149 4.7242072522640264 5.0610180199146262 5.7356227040290833 5.4163441210985184 4.7244920581579208 6.8509458899497968 4.9730678796768215 4.5763825327157974 8.1341706961393339 4.4629294127225867 9.0849614888429624 4.8588382154703122
leaf_count=20 21 22 20 22 24 23 20 29 21 22 36 23 39 20
internal_value=-8.3322e-05 -0.00425014 0.00218005 0.0148422 0.0265837 0.00054681 0.0573141 -0.00858889 -0.0207578 0.0113733 -0.0249699 -0.0145388 -0.00923053 0.0308985
internal_weight=83.0024 73.1626 55.8348 25.6617 20.6007 11.152 9.4487 30.1731 18.7458 11.4273 17.3278 12.5971 14.058 9.83981
internal_count=362 322 241 109 87 47 40 132 81 51 81 59 60 40
is_linear=0
shrinkage=0.05


Tree=12
num_leaves=15
num_cat=0
split_feature=4 7 6 7 5 2 4 3 1 0 4 4 6 2
split_gain=4.0806 4.66876 5.32819 4.18201 3.16415 3.81689 5.15256 4.50071 3.53466 3.42313 2.52153 4.62363 2.11504 2.01416
threshold=0.048030184405036057 0.01375502780019686 0.026836030511467608 0.017011516318030783 0.036554212414408586 -0.010336955814459021 -0.05373069292528667 -16.83443833031539 26.239432557204026 52.070922625548278 -0.0097268487968874533 0.011410337964586573 -1.0000000180025095e-35 -0.025532178843669814
decision_type=2 2 2 2 2 2 2 2 2 2 2 2 2 2
left_child=1 2 4 13 5 10 -7 8 -8 -9 -1 -12 -3 -2
right_child=3 12 -4 -5 -6 6 7 9 -10 -11 11 -13 -14 -15
leaf_value=-0.050725657688092896 0.016212605222491353 0.0098628663795201025 -0.051749154278422596 -0.067814063480695935 0.039463914276880584 0.054480543262182907 0.0088843854113969372 0.054359650462359105 -0.042341764758347951 -0.0028627849078173605 0.029024206142731598 -0.037466862972373491 0.049293564578131881 -0.02857696429566747
leaf_weight=4.9236167669296256 4.7569435834884635 6.3216102570295334 4.8247863799333564 4.0069970935583106 5.3879024982452384 5.2333427071571306 6.1349642574787104 4.9865707904100596 7.4649882018566132 5.4919948428869247 4.7734898328781039 5.7808448374271393 7.3607665598392469 5.3139944821596137
leaf_count=22 21 27 24 21 22 22 27 21 32 23 20 25 31 24
internal_value=-8.7487e-05 0.00493887 -0.00156288 -0.0246106 0.00326273 -0.00109202 0.00951444 -0.000258718 -0.0192336 0.0243684 -0.0211783 -0.00739444 0.0310756 -0.0074209
internal_weight=82.7628 68.6849 55.0025 14.0779 50.1777 44.7898 29.3119 24.0785 13.6 10.4786 15.478 10.5543 13.6824 10.0709
internal_count=362 296 238 66 214 192 125 103 59 44 67 45 58 45
is_linear=0
shrinkage=0.05


Tree=13
num_leaves=15
num_cat=0
split_feature=4 7 6 7 2 4 3 4 5 7 8 8 2 2
split_gain=3.72198 4.1987 4.9126 3.97142 2.84893 3.86278 6.10777 3.50696 3.13706 2.63957 2.60511 1.94502 1.83056 1.46642
threshold=0.048030184405036057 0.01375502780019686 0.026836030511467608 0.017011516318030783 -0.010336955814459021 -0.05373069292528667 -9.2376872519133624 -0.0097268487968874533 -0.015451992703477557 0.0086301162642816662 1.0000000180025095e-35 1.0000000180025095e-35 -0.025532178843669814 0.0083443912979024471
decision_type=2 2 2 2 2 2 2 2 2 2 2 2 2 2
left_child=1 2 4 12 7 -6 8 -1 10 -9 -7 -3 -2 -8
right_child=3 11 -4 -5 5 6 13 9 -10 -11 -12 -13 -14 -15
leaf_value=-0.048875451633758234 0.015330305048687999 0.0084805924201052495 -0.050244379457348776 -0.066658294185623412 0.051371278890668351 -0.0043919739905448367 0.054306657916601969 -0.021086572936659456 0.01888043260071734 0.022383460296260666 -0.05314718229885658 0.046337124606625507 -0.027414437205178999 0.01654709620661507
leaf_weight=4.8562326133251217 4.7786077708005896 6.1336048096418363 4.7234188318252555 3.8759718090295783 5.2715448588132849 5.2456852793693525 4.8561191856861203 7.0486933141946739 4.7212421894073477 6.9210772961378098 5.7355023175477982 7.5936217755079269 5.2636763155460349 5.4647454470396042
leaf_count=22 21 26 24 21 22 23 20 30 20 29 25 32 24 23
internal_value=-9.32352e-05 0.00469172 -0.00149816 -0.0236674 0.00309572 0.0123415 0.00443524 -0.0122738 -0.0152031 0.000449891 -0.0298569 0.0294221 -0.00707441 0.0343135
internal_weight=82.4897 68.5715 54.8443 13.9183 50.1208 31.2948 26.0233 18.826 15.7024 13.9698 10.9812 13.7272 10.0423 10.3209
internal_count=362 296 238 66 214 133 111 81 68 59 48 58 45 43
is_linear=0
shrinkage=0.05


Tree=14
num_leaves=15
num_cat=0
split_feature=3 2 6 7 8 7 7 6 3 3 4 7 5 5
split_gain=3.64534 3.43193 2.60518 5.32678 5.58936 3.16237 2.73851 2.58787 2.5437 3.618 2.18036 1.90265 2.33032 0.591096
threshold=-55.434661184639374 0.020304679079274971 -0.0072839083402015661 0.012314197155071991 1.0000000180025095e-35 0.0080131917249861399 0.011252341319445521 0.0049248753133070708 23.888968358711775 49.446400871399575 0.048030184405036057 0.0090130175451780849 -0.028057749364951669 -0.089569659149730446
decision_type=2 2 2 2 2 2 2 2 2 2 2 2 2 2
left_child=13 2 6 4 7 -6 8 -4 -2 -10 -8 -3 -13 -1
right_child=1 11 3 -5 5 -7 10 -9 9 -11 -12 12 -14 -15
leaf_value=0.040733150147682168 -0.050084156300547411 -0.051085195762516647 0.078832875007079875 -0.032506619056440471 0.026598759925216292 -0.026823559756937412 0.024001856832367753 0.026742469149363138 0.019453657505193334 -0.037002833503485995 -0.018586985466121669 -0.040891400066478123 0.0037495920616148733 0.016131756237420133
leaf_weight=4.9404472410678864 5.2966519147157731 4.6041678339242962 4.8145040869712865 5.0101716220378867 5.7450437694787979 5.3497309386730194 8.5498496294021589 4.7237034142017365 5.8092121928930265 5.5479792058467865 4.6340559124946585 4.7514246255159387 7.5985027104616139 4.8273500204086286
leaf_count=20 24 22 20 22 24 23 36 20 25 24 23 23 36 20
internal_value=-9.80367e-05 -0.00396455 0.00205176 0.0137391 0.0249686 0.000839333 -0.00799255 0.0530356 -0.0214701 -0.00812529 0.00903216 -0.0236525 -0.0134253 0.0285749
internal_weight=82.2028 72.435 55.4809 25.6432 20.633 11.0948 29.8377 9.53821 16.6538 11.3572 13.1839 16.9541 12.3499 9.7678
internal_count=362 322 241 109 87 47 132 40 73 49 59 81 59 40
is_linear=0
shrinkage=0.05


Tree=15
num_leaves=14
num_cat=0
split_feature=4 7 7 6 5 2 4 3 1 0 6 6 2
split_gain=3.36958 3.71762 3.61166 4.42561 2.77197 3.1561 4.10647 3.57978 3.23728 3.0844 2.30968 1.95324 1.66105
threshold=0.048030184405036057 0.017011516318030783 0.01375502780019686 0.026836030511467608 0.036554212414408586 -0.010336955814459021 -0.05373069292528667 -16.83443833031539 26.239432557204026 52.070922625548278 -0.023399245079530926 -1.0000000180025095e-35 -0.025532178843669814
decision_type=2 2 2 2 2 2 2 2 2 2 2 2 2
left_child=2 12 3 4 5 10 -7 8 -8 -9 -1 -4 -2
right_child=1 -3 11 -5 -6 6 7 9 -10 -11 -12 -13 -14
leaf_value=0.0031573718087543365 0.014406570119274023 -0.065389065337039323 0.0070642479482426043 -0.048433785406055918 0.036764432600615342 0.048393180134184983 0.0095214237944592599 0.04980648077303073 -0.039814654929595579 -0.0043498932968722617 -0.036215869345512311 0.044857156668126723 -0.026381111047446781
leaf_weight=6.455038294196128 4.792238935828208 3.7191738337278357 6.3706982433795929 4.5688873082399359 5.4127407968044272 5.2825655788183168 6.0841860026121104 5.0299358516931711 7.3318364322185516 5.5083034485578537 8.805829629302016 7.3783776909112913 5.2096161842346183
leaf_count=28 21 21 27 24 22 22 27 21 32 23 39 31 24
internal_value=-0.000100247 -0.0227089 0.00444645 -0.00133268 0.00297904 -0.00113065 0.00848993 -0.000309822 -0.0174407 0.0214991 -0.0195618 0.0273456 -0.00683831
internal_weight=81.9494 13.721 68.2284 54.4793 49.9104 44.4977 29.2368 23.9543 13.416 10.5382 15.2609 13.7491 10.0019
internal_count=362 66 296 238 214 192 125 103 59 44 67 58 45
is_linear=0
shrinkage=0.05


Tree=16
num_leaves=15
num_cat=0
split_feature=0 4 5 7 4 6 2 4 4 2 6 7 9 1
split_gain=3.87863 2.60907 2.81887 3.70967 3.17622 2.93005 3.6324 3.57553 3.8092 2.69287 3.14876 2.48877 1.45437 0.890215
threshold=36.609313208055731 0.079936600950148123 0.051913898827859739 0.016156430377612278 0.05520734927980777 0.026836030511467608 -0.010336955814459021 -0.0097268487968874533 0.011410337964586573 0.0083443912979024471 0.0070658201628657725 0.0085643001108147033 -1.0000000180025095e-35 31.52643107747318
decision_type=2 2 2 2 2 2 2 2 2 2 2 2 2 2
left_child=-1 2 3 5 -4 6 7 -2 -9 12 -11 -12 -8 -10
right_child=1 -3 4 -5 -6 -7 9 8 13 10 11 -13 -14 -15
leaf_value=0.047841254476974134 -0.054099934168122192 -0.035007319835215121 0.050767790170517191 0.03665402655381033 -0.006816568705049395 -0.043474558986053798 0.04486137239875744 0.02669984611950002 -0.041287161761300956 -0.039126301658659525 -0.015813874578566783 0.024338428238542788 0.0081361731140411741 -0.010752909610557859
leaf_weight=4.0110799372196189 5.6785997003316906 5.7442012429237357 5.3705749511718732 5.1707903742790213 4.3215417414903641 5.1686058789491645 5.5220689326524734 5.2670320719480435 4.8515616655349714 4.8505266606807735 6.8051905930042258 8.9150260984897596 5.2671192884445279 4.6990456432104111
leaf_count=17 26 30 23 22 20 27 23 22 21 21 30 38 22 20
internal_value=-0.000103268 -0.00258046 1.06127e-05 -0.00389789 0.025092 -0.00757498 -0.0039968 -0.0203656 -0.00743753 0.00670154 -0.00390953 0.00695673 0.0269327 -0.0262638
internal_weight=81.643 77.6319 71.8877 62.1956 9.69212 57.0248 51.8562 20.4962 14.8176 31.3599 20.5707 15.7202 10.7892 9.55061
internal_count=362 345 315 272 43 250 223 89 63 134 89 68 45 41
is_linear=0
shrinkage=0.05


Tree=17
num_leaves=14
num_cat=0
split_feature=0 2 7 2 4 2 4 4 0 8 5 3 1
split_gain=3.47944 2.49218 2.97262 2.55975 4.68409 3.4936 3.77353 2.38421 2.97882 3.59264 3.58896 4.59911 2.34677
threshold=36.609313208055731 -0.047039586242168821 0.013001534171831676 -0.019854818004301323 0.039818187932911517 -0.012269655277960626 0.048030184405036057 0.0068867137540661594 53.173582045549061 1.0000000180025095e-35 -0.06740984888586464 -33.932164268366826 27.352570369693332
decision_type=2 2 2 2 2 2 2 2 2 2 2 2 2
left_child=-1 2 -2 4 12 -5 7 8 10 -10 -7 -12 -3
right_child=1 3 -4 5 -6 6 -8 -9 9 -11 11 -13 -14
leaf_value=0.045145871253203816 -0.055949680462881117 0.024501467693253089 0.00025579246026716912 -0.045466999216737337 0.057250356076156798 0.033912084492328048 -0.04138496295424296 0.027717656139335002 0.0072909819425798668 -0.055635733878603856 -0.039145167951953989 0.016597253100356521 -0.020726733563600788
leaf_weight=4.0373167991638175 4.4979817569255811 5.3155976831913012 4.9318326264619827 4.7606276124715796 5.1998637765645972 8.3882735967636037 5.0300859510898581 8.7130394726991636 4.2859914898872358 4.8179508447647095 6.3842614740133206 8.8020528852939748 6.2290005385875702
leaf_count=17 20 23 24 22 22 36 25 37 19 23 29 38 27
internal_value=-0.000105419 -0.00246713 -0.026554 0.000876686 0.0178463 -0.00467499 -0.000491695 0.00447784 -0.00171857 -0.0260108 0.00766252 -0.00683662 9.81507e-05
internal_weight=81.3939 77.3566 9.42981 67.9267 16.7445 51.1823 46.4217 41.3916 32.6785 9.10394 23.5746 15.1863 11.5446
internal_count=362 345 44 301 72 229 207 182 145 42 103 67 50
is_linear=0
shrinkage=0.05


Tree=18
num_leaves=15
num_cat=0
split_feature=0 4 5 7 4 6 2 4 4 2 6 7 2 9
split_gain=3.12561 2.37086 2.45674 3.20099 2.77939 2.71092 3.0791 3.37093 3.37255 2.29675 2.99091 2.23878 2.59475 1.31778
threshold=36.609313208055731 0.079936600950148123 0.051913898827859739 0.016156430377612278 0.05520734927980777 0.026836030511467608 -0.010336955814459021 -0.0097268487968874533 0.011410337964586573 0.0083443912979024471 0.0070658201628657725 0.0082352491733305618 0.02544529955270591 -1.0000000180025095e-35
decision_type=2 2 2 2 2 2 2 2 2 2 2 2 2 2
left_child=-1 2 3 5 -4 6 7 -2 -9 13 -11 -12 -13 -8
right_child=1 -3 4 -5 -6 -7 9 8 -10 10 11 12 -14 -15
leaf_value=0.0426593410054441 -0.05189654359591777 -0.033637671754250878 0.047409883402748876 0.034060842108538283 -0.0065126698882638145 -0.041982851353565796 0.041877210369890498 0.025812390414243203 -0.024133384175816994 -0.03808193028528755 -0.018332935146654426 -0.0035622543018403855 0.047262817396851016 0.0069822059109652251
leaf_weight=4.0584373623132697 5.5702732950449017 5.6171942204236975 5.3925199806690198 5.1771976798772803 4.2915622740983963 5.0479091405868521 5.5490331798791885 5.2701946943998257 9.4230683892965299 4.8129164427518871 5.6055862456560126 5.1745951026678068 4.8788770735263824 5.2798727005720227
leaf_count=17 26 30 23 22 20 27 23 22 41 21 25 22 21 22
internal_value=-0.000108448 -0.00235995 9.81987e-05 -0.00357165 0.0235138 -0.00701314 -0.00358978 -0.0187752 -0.00621878 0.00624096 -0.00360961 0.00698569 0.0211028 0.0248634
internal_weight=81.1492 77.0908 71.4736 61.7895 9.68408 56.6123 51.5644 20.2635 14.6933 31.3009 20.472 15.6591 10.0535 10.8289
internal_count=362 345 315 272 43 250 223 89 63 134 89 68 43 45
is_linear=0
shrinkage=0.05


Tree=19
num_leaves=15
num_cat=0
split_feature=3 2 6 7 8 7 7 0 3 3 6 7 5 5
split_gain=2.84149 2.90589 2.19471 4.86349 4.77827 2.72528 2.40959 2.43516 2.32822 3.22798 2.05295 1.65423 2.21186 0.36374
threshold=-55.434661184639374 0.020304679079274971 -0.0072839083402015661 0.012314197155071991 1.0000000180025095e-35 0.0080131917249861399 0.011252341319445521 47.517216143741187 23.888968358711775 49.446400871399575 0.0049248753133070708 0.0090130175451780849 -0.028057749364951669 -0.089569659149730446
decision_type=2 2 2 2 2 2 2 2 2 2 2 2 2 2
left_child=13 2 6 4 10 -6 8 -8 -2 -10 -4 -3 -13 -1
right_child=1 11 3 -5 5 -7 7 -9 9 -11 -12 12 -14 -15
leaf_value=0.035077769875672252 -0.048050708105042278 -0.048286991171974984 0.072081577622584367 -0.031920352407771961 0.024672411648621679 -0.025116520341372506 -0.0086555771590286056 0.035637286956874882 0.018649726346363527 -0.035066969249066757 0.025690674795519921 -0.039697062433785575 0.0044020479155036521 0.015619256007320313
leaf_weight=4.837061271071434 5.1261533945798936 4.3853260725736645 4.85664659738541 4.9244866818189612 5.7733340561389923 5.2456870079040527 7.9216522276401502 5.1015584468841553 5.7746555060148221 5.4233269691467285 4.6856202036142349 4.5974116176366815 7.4527507275342915 4.7700428217649442
leaf_count=20 24 22 20 22 24 23 35 24 25 24 20 23 36 20
internal_value=-0.000109846 -0.00355082 0.0019767 0.012711 0.0234003 0.00097002 -0.00734513 0.00869519 -0.0201419 -0.00736596 0.0493019 -0.0219921 -0.0124228 0.0254164
internal_weight=80.8757 71.2686 54.8331 25.4858 20.5613 11.019 29.3473 13.0232 16.3241 11.198 9.54227 16.4355 12.0502 9.6071
internal_count=362 322 241 109 87 47 132 59 73 49 40 81 59 40
is_linear=0
shrinkage=0.05


Tree=20
num_leaves=15
num_cat=0
split_feature=4 7 5 7 6 2 4 4 4 2 8 2 7 6
split_gain=2.90679 3.35951 2.8958 2.89526 2.55833 3.15222 2.27146 3.4211 2.0482 2.79957 1.89667 1.38517 1.19842 0.530198
threshold=0.048030184405036057 0.017011516318030783 0.040749678379378568 0.01375502780019686 0.022073201441089749 -0.025532178843669814 -0.05373069292528667 -0.012276132784227373 -0.0021382937567137467 -0.0074298557730652645 1.0000000180025095e-35 -0.025532178843669814 0.0083313884742762436 -0.024047358359023014
decision_type=2 2 2 2 2 2 2 2 2 2 2 2 2 2
left_child=2 11 3 4 5 13 -7 12 -9 -10 -5 -2 -8 -1
right_child=1 -3 -4 10 -6 6 7 8 9 -11 -12 -13 -14 -15
leaf_value=-0.013623399188158608 0.012744013386871514 -0.063659709408792717 0.040996383142327571 0.00086788695474320724 -0.034042168563488635 0.038046788696567468 -0.032415941247735884 0.044569584723939251 -0.025337606755817789 0.024808291084561375 0.040499617369176018 -0.024714562623690196 -0.0020541784866057872 -0.03759719896250454
leaf_weight=4.5320934951305389 4.795746609568595 3.4800207465887061 4.9333889484405509 5.4062204807996732 6.2539897561073294 5.0527770668268124 6.5817102342843956 4.7507787495851472 4.4986945688724465 7.2993270307779632 6.8363792896270752 5.0846112072467795 6.4206854104995728 4.6957574635744006
leaf_count=20 21 21 20 23 33 21 30 20 20 30 29 24 29 21
internal_value=-0.000110653 -0.0214129 0.00412066 0.00120189 -0.00412594 0.000142555 0.00706677 0.00176969 0.0168494 0.0056872 0.0229986 -0.00653285 -0.0174231 -0.0258229
internal_weight=80.6222 13.3604 67.2618 62.3284 50.0858 43.8318 34.604 29.5512 16.5488 11.798 12.2426 9.88036 13.0024 9.22785
internal_count=362 66 296 276 224 191 150 129 70 50 52 45 59 41
is_linear=0
shrinkage=0.05


Tree=21
num_leaves=15
num_cat=0
split_feature=0 2 7 2 5 2 4 3 4 0 8 4 3 4
split_gain=2.78993 2.15543 2.63206 2.44761 4.13304 2.99745 3.18474 2.52023 2.05654 2.56114 3.30902 2.84951 4.19331 0.436521
threshold=36.609313208055731 -0.047039586242168821 0.013001534171831676 -0.019854818004301323 0.0092530297672343397 -0.012269655277960626 0.048030184405036057 55.640168151703968 0.0068867137540661594 53.173582045549061 1.0000000180025095e-35 -0.048557541611383037 -16.83443833031539 -0.068978558829031839
decision_type=2 2 2 2 2 2 2 2 2 2 2 2 2 2
left_child=-1 2 -2 4 -3 -5 8 -6 9 11 -11 13 -13 -7
right_child=1 3 -4 5 7 6 -8 -9 -10 10 -12 12 -14 -15
leaf_value=0.040337631622087228 -0.053047382981109475 -0.014165167420144571 0.0004025153115472602 -0.043033117077756512 0.060006489622994034 0.017470014740804601 -0.03908199575734652 0.010222318825796052 0.025333313553005533 0.0070597265794068 -0.054002617097889706 -0.030342399015263252 0.025538472215677635 0.039029047329680627
leaf_weight=4.0479935556650153 4.3735631555318815 6.351449370384219 4.8656863570213318 4.6137444972991934 5.5435080677270872 4.8375889807939529 4.8451589941978446 4.6952860504388809 8.7165577262639982 4.2426307499408704 4.6507648527622223 8.2831080108880908 5.6451091617345961 4.5622254610061574
leaf_count=17 20 29 24 22 23 21 25 20 37 19 23 38 24 20
internal_value=-0.000111639 -0.00225969 -0.0248989 0.000862842 0.0175208 -0.00462081 -0.000749854 0.0371766 0.00378689 -0.00204186 -0.0248726 0.00666195 -0.00769387 0.0279337
internal_weight=80.2744 76.2264 9.23925 66.9871 16.5902 50.3969 45.7831 10.2388 40.938 32.2214 8.8934 23.328 13.9282 9.39981
internal_count=362 345 44 301 72 229 207 43 182 145 42 103 62 41
is_linear=0
shrinkage=0.05


Tree=22
num_leaves=15
num_cat=0
split_feature=0 4 6 2 4 0 7 7 7 6 1 2 3 6
split_gain=2.51188 2.01505 3.25094 6.35152 2.86808 1.9963 3.35274 2.64193 1.86818 2.5666 3.14323 3.16076 2.15315 0.627858
threshold=36.609313208055731 0.048030184405036057 0.00031910217762357441 -0.042714613776591311 0.033686401796212607 40.182381510502019 0.01375502780019686 0.0067982724928837548 0.0081613327853740907 0.02334208343340359 28.147066920436654 0.0049493915602850996 -1.0000000180025095e-35 0.015226356448388548
decision_type=2 2 2 2 2 2 2 2 2 2 2 2 2 2
left_child=-1 4 3 -3 5 -2 7 -7 -9 10 12 -12 -10 -8
right_child=1 2 -4 -5 -6 6 13 8 9 -11 11 -13 -14 -15
leaf_value=0.038203331203010643 -0.030903691769448856 -0.054069172581694747 -0.056919946779965036 0.031570716948542375 0.032960180664654858 0.023077918326513718 0.015071124549320657 -0.03339899985950439 -0.034626090137559622 -0.035861555475830212 -0.0048453771257677474 0.050344408505601804 0.0086671396556410683 0.040862894785680705
leaf_weight=4.0601029098033896 5.4280433356761923 3.6432830244302741 4.0982142239809027 5.3359529972076407 6.5155112594366065 6.9169080555438986 4.747677266597746 7.2185388207435599 6.3753066062927193 5.3487152010202399 5.1879844367504102 5.1890844106674194 5.2262184321880447 4.6910706907510757
leaf_count=17 24 20 22 24 27 31 20 32 29 29 23 22 22 20
internal_value=-0.0001134 -0.00216246 -0.0200192 -0.00317727 0.00155335 -0.00207941 0.000994357 -0.0051282 -0.0107757 -0.00479978 0.00275942 0.0227524 -0.0151235 0.0278897
internal_weight=79.9826 75.9225 13.0775 8.97924 62.8451 56.3295 50.9015 41.4628 34.5458 27.3273 21.9786 10.3771 11.6015 9.43875
internal_count=362 345 66 44 279 252 228 188 157 125 96 45 51 40
is_linear=0
shrinkage=0.05


Tree=23
num_leaves=15
num_cat=0
split_feature=3 2 5 5 0 9 6 6 7 3 1 5 1 6
split_gain=2.38657 2.55404 1.96344 2.94553 2.03057 3.49564 4.12767 4.82323 3.7518 2.04648 1.68603 1.88103 1.61598 1.27456
threshold=-55.434661184639374 0.020304679079274971 -0.081963219533062195 -0.055191421733445052 46.656248997930213 -1.0000000180025095e-35 0.0021167444439239096 -0.0062484952737736242 0.011252341319445521 1.0000000180025095e-35 29.213905956490862 -0.018604053642698393 34.010899334565607 -0.028593746335605567
decision_type=2 2 2 2 2 2 2 2 2 2 2 2 2 2
left_child=-1 2 -2 -4 9 -6 7 8 12 -5 11 -3 -7 -11
right_child=1 10 3 4 5 6 -8 -9 -10 13 -12 -13 -14 -15
leaf_value=0.023473695323556049 -0.032633350373029765 -0.034176210421573858 0.05085219673054317 -0.041104170144208259 0.040384370611302789 -0.04075038103336532 -0.037529535549258267 0.053988335012534909 0.031620426963580715 -0.019639324761395131 -0.040692065760921603 0.010777468306289825 -0.001445006417821875 0.01724191224935746
leaf_weight=9.4503315538167936 3.8258655071258536 3.9351835399866113 3.2117528617382041 4.7795268893241873 6.7058790028095165 5.0256316065788251 5.7436324208974829 4.8515984714031353 5.2098030596971503 4.6106411814689627 6.407648801803588 5.6944158226251611 5.4516939967870712 4.7620332241058341
leaf_count=40 17 20 14 21 29 23 26 20 25 21 33 28 24 21
internal_value=-0.000115531 -0.00329042 0.00189783 0.00452158 0.001365 0.00816196 -5.95103e-05 0.0104189 -0.00305588 -0.0144784 -0.0208177 -0.00759308 -0.0202985 -0.000900844
internal_weight=79.6656 70.2153 54.1781 50.3522 47.1404 32.9882 26.2824 20.5387 15.6871 14.1522 16.0372 9.6296 10.4773 9.37267
internal_count=362 322 241 224 210 147 118 92 72 63 81 48 47 42
is_linear=0
shrinkage=0.05


Tree=24
num_leaves=15
num_cat=0
split_feature=0 4 5 7 1 4 4 4 6 6 1 7 1 5
split_gain=2.36433 1.98893 2.08438 2.42233 2.4621 2.21765 2.20133 2.16499 4.0323 3.26356 2.89299 2.15986 1.99433 1.68355
threshold=36.609313208055731 0.079936600950148123 0.051913898827859739 0.016156430377612278 41.713876305186005 0.03208517226254913 0.05520734927980777 -0.012276132784227373 -0.0062484952737736242 0.018879165105429616 28.623197632810186 0.0085643001108147033 24.583570189466545 0.0041820642110347471
decision_type=2 2 2 2 2 2 2 2 2 2 2 2 2 2
left_child=-1 2 3 4 5 7 -4 8 -2 11 12 -10 13 -9
right_child=1 -3 6 -5 -6 -7 -8 10 9 -11 -12 -13 -14 -15
leaf_value=0.037085228448961914 -0.051319174522444548 -0.031539828837002244 0.043142109472370072 0.029662440732963782 -0.039668431446640375 -0.034547305769180962 -0.0053243093185229625 -0.011640001468387522 -0.010520861593162369 -0.033863212720382459 -0.012388874170548375 0.032983270249297168 0.046364569368825131 0.030755766780110258
leaf_weight=4.0530651211738578 4.8205193430185345 5.3368310630321494 5.3406225293874723 5.1053486168384543 5.034870281815528 5.0157886892557135 4.1738253533840179 4.7147495299577802 4.8858479708433098 4.8525193929672232 8.6081119626760465 6.8571427166461945 5.9862174689769736 4.6522620320320129
leaf_count=17 24 30 23 22 22 22 20 20 22 25 40 30 25 20
internal_value=-0.000116226 -0.00211637 0.000125359 -0.00329408 -0.00632963 -0.00299869 0.0218807 0.000488536 -0.0110636 0.000629433 0.0108136 0.0148827 0.0238225 0.00941647
internal_weight=79.4377 75.3847 70.0478 60.5334 55.428 50.3932 9.51445 45.3774 21.416 16.5955 23.9613 11.743 15.3532 9.36701
internal_count=362 345 315 272 250 228 43 206 101 77 105 52 65 40
is_linear=0
shrinkage=0.05


Tree=25
num_leaves=15
num_cat=0
split_feature=4 2 2 6 5 2 5 1 1 1 1 5 5 1
split_gain=2.26391 3.00584 5.77087 2.59285 3.02259 2.95833 2.8432 3.24471 2.70047 7.16896 3.13269 2.11105 1.71878 1.71814
threshold=0.048030184405036057 -0.0012859367815384497 -0.042714613776591311 -0.039528456558344562 0.036554212414408586 -0.033323990288712163 -0.11346044299487736 41.114278573480384 32.279061100136509 29.213905956490862 24.678999500329176 -0.018604053642698393 -0.017090695219003815 22.768255773388585
decision_type=2 2 2 2 2 2 2 2 2 2 2 2 2 2
left_child=3 2 -2 -1 5 -5 -7 8 9 10 13 -12 -10 -8
right_child=1 -3 -4 4 -6 6 7 -9 12 -11 11 -13 -14 -15
leaf_value=0.048160978762545367 -0.052629247995732709 -0.055312083616064038 0.029802727894746601 -0.036164467520508163 0.035684178018905784 0.038177868519062602 0.0050430405030263865 -0.041660867723316154 0.04833430178355233 -0.053809030214306511 0.0049254848236953775 0.045890764177627691 0.0048896459053466654 -0.030062832218363273
leaf_weight=3.1121465265750876 3.5319536477327338 3.9971920847892752 5.323133945465087 5.7290603518486014 5.8390551507472983 4.8424128741025916 8.5522941052913684 4.6594742536544791 4.512352779507637 5.9937589168548575 6.4614518657326698 6.1270232498645765 4.5948338061571103 5.8826085180044165
leaf_count=13 20 22 24 26 24 21 38 21 20 29 30 26 21 27
internal_value=-0.000116083 -0.0193221 -0.00307621 0.00360665 0.00141247 -0.00207656 0.00170624 -0.0020688 0.00231058 -0.00433827 0.0066343 0.024864 0.0264152 -0.00926354
internal_weight=79.1588 12.8523 8.85509 66.3065 63.1943 57.3553 51.6262 46.7838 42.1243 33.0171 27.0234 12.5885 9.10719 14.4349
internal_count=362 66 44 296 283 259 233 212 191 150 121 56 41 65
is_linear=0
shrinkage=0.05


Tree=26
num_leaves=15
num_cat=0
split_feature=3 2 5 5 0 9 6 6 7 3 1 7 5 4
split_gain=2.11231 2.28921 1.93416 2.56264 1.86229 3.01932 3.66362 4.23665 3.54094 1.80394 1.51676 1.43751 1.8994 1.29542
threshold=-55.434661184639374 0.020304679079274971 -0.081963219533062195 -0.055191421733445052 46.656248997930213 -1.0000000180025095e-35 0.0021167444439239096 -0.0062484952737736242 0.011252341319445521 1.0000000180025095e-35 34.010899334565607 0.0090130175451780849 -0.028057749364951669 0.01034017677976789
decision_type=2 2 2 2 2 2 2 2 2 2 2 2 2 2
left_child=-1 2 -2 -4 9 -6 7 8 10 -5 -7 -3 -13 -11
right_child=1 11 3 4 5 6 -8 -9 -10 13 -12 12 -14 -15
leaf_value=0.022185610356133641 -0.032587769840616801 -0.04521754938872679 0.04754897256249218 -0.039125448702129771 0.037908022228309218 -0.039580388728028437 -0.035411942027790626 0.050814489598088777 0.031147497368164124 0.01673740971239808 -0.0012400109629821456 -0.036964949145718774 0.004784550152918148 -0.020679694788441394
leaf_weight=9.3547741770744306 3.8010071367025366 4.1309593915939322 3.2208146750926963 4.6888952851295462 6.6944325417280117 4.9351004064083046 5.638963356614112 4.8689896166324784 5.1675772964954367 4.8600465059280378 5.4044423550367355 4.3599866777658454 7.2616999596357337 4.4141543805599213
leaf_count=40 17 22 14 21 29 23 26 20 25 22 24 23 36 20
internal_value=-0.000118822 -0.00312331 0.00179366 0.00441293 0.00143617 0.00796171 0.000255656 0.0101264 -0.00264895 -0.0138504 -0.01954 -0.0198833 -0.0108782 -0.00107166
internal_weight=78.8018 69.4471 53.6944 49.8934 46.6726 32.7095 26.0151 20.3761 15.5071 13.9631 10.3395 15.7526 11.6217 9.2742
internal_count=362 322 241 224 210 147 118 92 72 63 47 81 59 42
is_linear=0
shrinkage=0.05


Tree=27
num_leaves=15
num_cat=0
split_feature=4 2 2 6 5 2 5 1 1 1 7 1 4 2
split_gain=2.16585 2.76699 5.21715 2.31705 2.76921 2.6592 2.60059 2.94158 2.38464 6.66057 2.90757 4.13452 1.76733 2.22807
threshold=0.048030184405036057 -0.0012859367815384497 -0.042714613776591311 -0.039528456558344562 0.036554212414408586 -0.033323990288712163 -0.11346044299487736 41.114278573480384 32.279061100136509 29.213905956490862 0.0067982724928837548 27.270828504905797 -0.012276132784227373 0.01679954573266108
decision_type=2 2 2 2 2 2 2 2 2 2 2 2 2 2
left_child=3 2 -2 -1 5 -5 -7 8 9 10 -8 12 13 -12
right_child=1 -3 -4 4 -6 6 7 -9 -10 -11 11 -13 -14 -15
leaf_value=0.045593349184709052 -0.051503864952726977 -0.054162716459941619 0.027334962710892419 -0.034486142889218134 0.034265863782538396 0.036714351142636735 0.041612956253785222 -0.039947872241483655 0.024846456121501208 -0.05236996619780563 -0.0045667677214904423 0.041415597356255281 0.0052071699149786382 -0.052914768092563402
leaf_weight=3.1183872520923606 3.4478547275066367 3.8876949697732917 5.3615593165159217 5.6482240259647361 5.8266170620918265 4.796400621533393 4.8231445699930218 4.5915358960628501 9.1045333296060544 5.8630014508962622 5.2165042310953122 4.5187636762857428 7.9615990370512071 4.3868985250592232
leaf_count=13 20 22 24 26 24 21 21 21 41 29 24 20 34 22
internal_value=-0.000118914 -0.019027 -0.00352121 0.00352661 0.00143566 -0.00192556 0.00166205 -0.00195619 0.0022096 -0.00407964 0.0064428 -0.00123845 -0.0122116 -0.0266525
internal_weight=78.5527 12.6971 8.80941 65.8556 62.7372 56.9106 51.2624 46.466 41.8744 32.7699 26.9069 22.0838 17.565 9.6034
internal_count=362 66 44 296 283 259 233 212 191 150 121 100 80 46
is_linear=0
shrinkage=0.05


Tree=28
num_leaves=15
num_cat=0
split_feature=0 0 4 7 6 2 5 7 5 4 6 1 3 5
split_gain=2.08591 1.66864 2.07342 3.48889 2.72509 4.006 2.24494 1.95605 1.7248 4.51274 2.06665 1.77294 2.43985 1.52026
threshold=36.609313208055731 40.182381510502019 0.048030184405036057 0.01375502780019686 0.00031910217762357441 -0.035007923760268254 0.036554212414408586 0.0067982724928837548 -0.058071192270911641 -0.012276132784227373 0.015226356448388548 22.895348420712541 29.328042587374014 -0.044045313827217943
decision_type=2 2 2 2 2 2 2 2 2 2 2 2 2 2
left_child=-1 -2 3 6 5 -4 7 -3 -9 10 -10 -11 -13 -5
right_child=1 2 4 13 -6 -7 -8 8 9 11 -12 12 -14 -15
leaf_value=0.035043409018516991 -0.02911964657192978 0.018015781252399329 -0.036983517559877901 0.010522920392887249 -0.053676311658284882 0.030769602172352681 0.028509315737300096 0.0090008853328934612 -0.073008984190537016 -0.02906019330448581 -0.022164123787555112 0.025052108867867774 -0.020304554411455622 0.048155915343493866
leaf_weight=4.00105395913124 5.2760829478502265 7.0334546566009513 4.3435209691524497 5.2432656437158585 3.801146872341632 4.3834019601345053 5.3593923002481452 8.1326213330030352 4.1422176808118767 4.7176120281219651 3.8617646172642708 7.4358688667416555 4.9312544167041779 5.4972162991762143
leaf_count=17 24 32 24 23 22 20 22 38 20 21 20 34 22 23
internal_value=-0.000122396 -0.00201968 5.60468e-05 0.00414616 -0.0183424 -0.00295215 -0.0018907 -0.00593806 -0.0110094 -0.0174959 -0.0484773 -0.00298146 0.00696664 0.0297843
internal_weight=78.1599 74.1588 68.8827 56.3547 12.5281 8.72692 45.6142 40.2548 33.2213 25.0887 8.00398 17.0847 12.3671 10.7405
internal_count=362 345 321 255 66 44 209 187 155 117 40 77 56 46
is_linear=0
shrinkage=0.05


Tree=29
num_leaves=15
num_cat=0
split_feature=0 0 5 6 3 5 1 1 4 3 1 7 6 2
split_gain=2.68262 1.92621 2.03182 2.05678 1.56921 4.90321 2.21267 5.18769 2.37514 2.4868 2.32169 2.60328 3.28072 3.25062
threshold=36.292441884054703 38.353571179580534 -0.15010390491328215 0.026836030511467608 -53.533513544365867 -0.0699071430072747 26.429427084438689 24.583570189466545 0.017704449802621702 -9.0793097707462156 27.571980037274148 0.0068379301120661713 -0.02170711999836079 -0.013945121675716295
decision_type=2 2 2 2 2 2 2 2 2 2 2 2 2 2
left_child=-1 -2 -3 4 -4 -6 7 8 9 -7 -8 -12 -13 -14
right_child=1 2 3 -5 5 6 10 -9 -10 -11 11 12 13 -15
leaf_value=0.043759363906161232 -0.039628578529375409 0.046598611712902076 0.026650937112938713 -0.02895075541162484 -0.058739881016462152 -0.012553640980130218 -0.043917599848798665 0.055472722320727877 -0.026297220552561618 0.03376044179433934 -0.036123712030975023 -0.024675206913344447 0.049226688448755336 0.0015512707719283728
leaf_weight=3.3334302455186835 3.267031952738761 2.2308607697486869 5.3936092108488074 6.3707544580101958 3.5187686383724133 5.2177036255598104 3.6707001030445126 5.6594437658786765 5.6440323740243903 6.5203621834516614 4.5291985720396069 6.455403700470927 5.3787349462509217 10.663636311888689
leaf_count=14 15 10 23 37 17 24 17 24 27 28 21 32 24 49
internal_value=-0.000124165 -0.00208716 -0.000365845 -0.00188378 0.000868541 -0.00156012 0.00218393 0.0138945 0.000357078 0.0131733 -0.006606 -0.00153848 0.00542414 0.017536
internal_weight=77.8537 74.5202 71.2532 69.0223 62.6516 57.258 53.7392 23.0415 17.3821 11.7381 30.6977 27.027 22.4978 16.0424
internal_count=362 348 333 323 286 263 246 103 79 52 143 126 105 73
is_linear=0
shrinkage=0.05


Tree=30
num_leaves=15
num_cat=0
split_feature=0 0 5 6 4 5 4 3 7 1 5 6 1 6
split_gain=2.42427 1.75577 1.85918 2.55231 1.59271 1.80164 1.87189 5.48996 2.84287 7.15785 4.81008 4.58669 4.43368 1.38474
threshold=36.292441884054703 38.353571179580534 -0.11346044299487736 0.026836030511467608 0.079936600950148123 0.051913898827859739 0.023526287673754299 46.499522315817721 0.0081613327853740907 26.089521839910926 0.0062881862192178889 0.0096842921953172092 25.70920865834432 -0.01706362626943617
decision_type=2 2 2 2 2 2 2 2 2 2 2 2 2 2
left_child=-1 -2 -3 4 5 6 8 -8 9 -4 11 12 -10 -7
right_child=1 2 3 -5 -6 13 7 -9 10 -11 -12 -13 -14 -15
leaf_value=0.041607874288616134 -0.038012263344729708 0.034023336637983619 0.022906007899349282 -0.034545561102839857 -0.027394787309907683 0.0031481215685759487 -0.059686386254071903 0.017459106248119551 -0.050310304898819228 -0.049713730694615821 0.056174383016621102 0.029965279644014589 0.012568043762942955 0.042483513355460981
leaf_weight=3.330570936203002 3.2364417165517798 3.7263007760047904 6.5915264785289747 5.6105743572115889 4.6689660102128974 4.3116182088851929 4.6112572848796827 4.613360121846199 5.5406641662120872 6.9932640790939331 5.3102998435497275 8.6477693319320661 5.674977570772171 4.6507457196712476
leaf_count=14 15 17 29 34 27 20 21 20 26 33 22 38 25 21
internal_value=-0.000123724 -0.00199721 -0.000354389 -0.00225996 0.000679952 0.0029818 -0.000861831 -0.0211048 0.00395606 -0.0144776 0.0139037 0.00260296 -0.0184946 0.02356
internal_weight=77.5183 74.1878 70.9513 67.225 61.6144 56.9455 47.9831 9.22462 38.7585 13.5848 25.1737 19.8634 11.2156 8.96236
internal_count=362 348 333 316 282 255 214 41 173 62 111 89 51 41
is_linear=0
shrinkage=0.05


Tree=31
num_leaves=15
num_cat=0
split_feature=0 0 4 2 2 7 3 6 7 5 1 5 5 6
split_gain=2.19272 1.60043 1.72937 2.57191 3.50745 2.50728 2.13177 2.62135 2.0348 4.22875 2.71309 1.85347 1.31435 2.42694
threshold=36.292441884054703 38.353571179580534 0.048030184405036057 -0.0012859367815384497 -0.035007923760268254 0.01375502780019686 -9.2376872519133624 0.0067469641113326881 0.0098103132861466474 -0.042626768894347952 28.147066920436654 -0.015986168423549187 -0.0030392912437588785 -0.017531946802481126
decision_type=2 2 2 2 2 2 2 2 2 2 2 2 2 2
left_child=-1 -2 5 4 -4 6 8 12 9 -3 -10 -11 -8 -14
right_child=1 2 3 -5 -6 -7 7 -9 10 11 -12 -13 13 -15
leaf_value=0.039591536059701976 -0.036468408202097242 0.029489041425139369 -0.03502381538741086 -0.052453620457637753 0.028901128141953392 0.024360887525764822 0.018477162567958075 0.038095063881676078 -0.066515667134003406 -0.049675980371229028 -0.0070044962179652368 -0.0020657757191069916 0.012484825437996805 -0.030373990823622906
leaf_weight=3.3253098279237738 3.2055785655975333 6.1029530018568048 4.2105685472488394 3.6701375171542159 4.3758463859558097 11.324230715632437 6.1580775827169409 5.6527709364891043 3.4889614433050147 4.0273110792040825 4.245783269405365 4.1513934284448553 6.4423973560333234 6.7784539312124394
leaf_count=14 15 27 24 22 20 49 28 25 20 20 20 20 28 30
internal_value=-0.000125734 -0.0019145 -0.000346224 -0.0174205 -0.00244611 0.0032389 -0.00184506 0.00813648 -0.0131936 -0.00200721 -0.0338486 -0.0255097 -0.000602339 -0.00948929
internal_weight=77.1598 73.8345 70.6289 12.2566 8.58641 58.3723 47.0481 25.0317 22.0164 14.2817 7.73474 8.1787 19.3789 13.2209
internal_count=362 348 333 66 44 267 218 111 107 67 40 40 86 58
is_linear=0
shrinkage=0.05


Tree=32
num_leaves=15
num_cat=0
split_feature=0 6 6 3 0 7 7 6 1 4 4 7 6 2
split_gain=1.98455 1.47297 4.11443 3.88282 2.89457 6.05486 4.16976 3.31433 2.91025 3.79932 2.11046 2.90225 2.27997 0.438867
threshold=36.292441884054703 -0.0072839083402015661 -0.0028855268969553735 1.1071010134935866 53.173582045549061 0.0085107081492588575 0.0083313884742762436 0.021340725839435481 30.72866296211669 -0.056678015301159727 0.048903063718579796 0.0079456140819586032 -0.026130446665834733 0.0014320931191017241
decision_type=2 2 2 2 2 2 2 2 2 2 2 2 2 2
left_child=-1 3 -3 -2 6 -6 -4 13 -8 -10 11 -5 -13 -7
right_child=1 2 4 10 5 7 8 -9 9 -11 -12 12 -14 -15
leaf_value=0.037696707929110743 -0.05428092831817926 0.047057208321641127 -0.026676584889613459 -0.025390926662948489 0.026614318253741106 -0.040959344099751563 0.050467738352166391 -0.0032522972037565428 0.03931206454926979 -0.024283107062957863 -0.028812735655646706 -0.0030366552770154857 0.040517674647727479 -0.063766102193037064
leaf_weight=3.3180156499147406 4.360961019992831 4.8750457912683478 5.3627199232578304 5.1565355211496415 6.0750332102179554 4.0356791168451291 6.3658310472965232 5.5877073854207984 4.5777512937784195 4.8227987736463529 5.8334648460149756 5.8215565383434358 6.2099417895078579 4.4190593361854553
leaf_count=14 21 21 25 24 27 20 29 31 21 22 32 26 27 22
internal_value=-0.000127857 -0.00183528 0.00361846 -0.0110213 -0.00151568 -0.0150901 0.0114088 -0.0331323 0.0243631 0.0066856 -0.00282662 0.00599284 0.0194435 -0.0528798
internal_weight=76.8221 73.5041 46.1216 27.3825 41.2466 20.1175 21.1291 14.0424 15.7664 9.40055 23.0215 17.188 12.0315 8.45474
internal_count=362 348 218 130 197 100 97 73 72 43 109 77 53 42
is_linear=0
shrinkage=0.05


Tree=33
num_leaves=14
num_cat=0
split_feature=1 3 2 1 3 2 7 2 3 1 7 5 0
split_gain=1.92896 2.37146 2.05906 2.1946 3.32241 1.82031 2.63131 2.72555 2.33336 2.17854 1.40021 1.53319 0.782183
threshold=48.674696869443011 -55.434661184639374 0.020304679079274971 33.666163554087994 41.944026117701441 0.0049493915602850996 0.0068379301120661713 -0.0036783836363899337 46.499522315817721 24.583570189466545 0.0090130175451780849 -0.028057749364951669 52.707729392748014
decision_type=2 2 2 2 2 2 2 2 2 2 2 2 2
left_child=1 -1 3 5 -5 6 -3 8 9 -8 -4 -12 -7
right_child=-2 2 10 4 -6 12 7 -9 -10 -11 11 -13 -14
leaf_value=0.028771042456587195 -0.032454350448511388 0.027438549200919801 -0.043072477162136774 0.050215265418596902 -0.0011218321304199677 0.028749847544146386 -0.035240789852321583 -0.04933131606128735 0.020780984373581585 0.0068718932338850819 -0.033099375593022541 0.0056931016943012579 0.00054134961688578063
leaf_weight=7.3333311825990668 4.3523243069648734 4.1495532691478756 3.9405416548252097 5.6381989866495115 7.146049790084362 5.3703697323799116 7.7419501096010226 4.8007671684026745 5.3457323536276808 5.0900925099849701 3.9920967519283286 7.0366132333874694 4.5307241827249527
leaf_count=32 21 19 22 24 34 24 37 22 25 24 22 36 20
internal_value=-0.000128768 0.00182214 -0.00122845 0.00365809 0.0215192 -0.00250842 -0.00920576 -0.0158231 -0.00697359 -0.0185359 -0.0174895 -0.00834873 0.0158417
internal_weight=76.4683 72.116 64.7827 49.8134 12.7842 37.0292 27.1281 22.9785 18.1778 12.832 14.9693 11.0287 9.90109
internal_count=362 341 309 229 58 171 127 108 86 61 80 58 44
is_linear=0
shrinkage=0.05


Tree=34
num_leaves=15
num_cat=0
split_feature=0 0 5 6 0 4 5 7 1 0 0 0 0 2
split_gain=1.83677 1.36461 1.60002 2.31144 1.25985 2.41038 2.30661 2.0583 4.93567 3.04475 2.05886 2.13145 1.98392 0.682684
threshold=36.292441884054703 38.353571179580534 -0.11346044299487736 0.026836030511467608 62.18458648039816 0.048903063718579796 0.040749678379378568 0.0085643001108147033 26.089521839910926 53.173582045549061 48.995270823408852 42.930916462948083 49.853974565981424 -0.035007923760268254
decision_type=2 2 2 2 2 2 2 2 2 2 2 2 2 2
left_child=-1 -2 -3 4 5 6 7 8 -4 10 11 -9 -10 -7
right_child=1 2 3 -5 -6 13 -8 9 12 -11 -12 -13 -14 -15
leaf_value=0.036418081483203156 -0.034151777220518147 0.032017552787938636 0.015456054456498631 -0.033345681143653966 0.024822826400243945 -0.042000397384575443 0.034981595768095376 0.029343333768499159 -0.061902096550796329 -0.024832382401786583 0.038855697958615765 -0.013197869337984487 -0.016673838884159829 -0.013450817336070659
leaf_weight=3.2898254096508017 3.1155627369880667 3.6241814047098151 7.913234397768977 5.4337337315082541 4.9668567925691596 3.7268973216414452 5.0236862003803244 5.1641094535589271 4.5305866897106153 5.3609389066696158 7.2307191193103781 6.8500489145517349 5.2161139398813248 4.7788912206888181
leaf_count=14 15 17 35 34 23 22 21 23 23 25 31 31 23 25
internal_value=-0.000127154 -0.00177556 -0.000330844 -0.0021019 0.00069212 -0.00145598 0.00295149 -0.000855591 -0.0138799 0.00849213 0.0177752 0.00508784 -0.0376974 -0.0259601
internal_weight=76.2254 72.9356 69.82 66.1958 60.7621 55.7952 47.2894 42.2658 17.6599 24.6058 19.2449 12.0142 9.7467 8.50579
internal_count=362 348 333 316 282 259 212 191 81 110 85 54 46 47
is_linear=0
shrinkage=0.05


Tree=35
num_leaves=15
num_cat=0
split_feature=1 0 0 6 6 6 4 4 7 5 3 0 7 1
split_gain=1.77128 2.23507 2.02238 2.66191 4.05515 2.05025 2.17104 1.74505 2.30774 3.3997 3.86914 1.5695 1.43677 1.03321
threshold=48.674696869443011 36.910612286634276 40.182381510502019 -0.039528456558344562 -0.028593746335605567 -0.024047358359023014 -0.048557541611383037 -0.012276132784227373 0.013152731390932149 0.051913898827859739 37.997095061189611 52.30553713635576 0.0082895791313488173 29.213905956490862
decision_type=2 2 2 2 2 2 2 2 2 2 2 2 2 2
left_child=1 -1 -3 -4 -5 -6 13 -8 9 10 11 -9 -13 -7
right_child=-2 2 3 4 5 6 7 8 -10 -11 -12 12 -14 -15
leaf_value=0.039632681394546586 -0.031312891897201892 -0.034062556154991118 0.049612037826301608 -0.058827104670135959 0.040008454114618029 0.0037706872384764382 -0.020225660875898815 0.037106558675622667 -0.025694184735626797 0.044027178628464059 -0.030015863921094 0.020714575955689124 -0.019434200317189253 0.037332899884932623
leaf_weight=3.6917900890111914 4.2952266931533805 4.1669456660747519 2.7941412329673758 2.8222022354602805 3.4362450838088909 4.1660589873790652 12.48801375180482 5.0170299410820283 6.2202011793851844 5.2870222479104987 7.3900226801633826 4.8275544792413694 4.1387216225266457 5.1007114499807358
leaf_count=16 21 20 14 14 16 20 63 22 34 24 34 21 20 23
internal_value=-0.000126816 0.00174541 -0.000315932 0.00189203 -0.000297629 0.00254683 0.000190708 -0.00431386 0.00172943 0.00812771 -0.000752583 0.0147127 0.0021824 0.0222443
internal_weight=75.8419 71.5467 67.8549 63.6879 60.8938 58.0716 54.6353 45.3686 32.8806 26.6604 21.3733 13.9833 8.96628 9.26677
internal_count=362 341 325 305 291 277 261 218 155 121 97 63 41 43
is_linear=0
shrinkage=0.05


Tree=36
num_leaves=14
num_cat=0
split_feature=1 3 2 1 3 2 7 2 5 1 4 5 0
split_gain=1.6055 2.02602 1.70131 1.98814 2.74884 1.69502 2.48096 2.75431 2.85463 1.4227 1.31021 1.18359 0.666539
threshold=48.674696869443011 -55.434661184639374 0.020304679079274971 33.424626472659021 41.944026117701441 0.0049493915602850996 0.0068379301120661713 -0.019854818004301323 0.0062881862192178889 29.213905956490862 -0.0021382937567137467 -0.018604053642698393 52.707729392748014
decision_type=2 2 2 2 2 2 2 2 2 2 2 2 2
left_child=1 -1 3 5 -5 6 -3 8 -8 11 -9 -4 -7
right_child=-2 2 9 4 -6 12 7 10 -10 -11 -12 -13 -14
leaf_value=0.026719822331366383 -0.029882837083108123 0.026208148235327244 -0.026352910916931677 0.044542975781827449 -0.0012620986748950243 0.026890705221663952 -0.033059181599496799 -0.018519341420196379 0.016158567323469063 -0.035741951968475065 -0.056084043760248996 0.010803029010625805 0.00079064169221129135
leaf_weight=7.2454872429370871 4.2762304544448844 4.1258956938982037 3.5252405554056159 6.0866410434246045 7.0915457382798195 5.3284953534603101 4.5363906323909733 4.7760034650564194 8.403806805610655 5.6710830703377715 4.5162452012300527 5.4674820229411116 4.5221075117588043
leaf_count=32 21 19 20 26 34 24 23 22 39 32 22 28 20
internal_value=-0.000125318 0.00165948 -0.00117536 0.00326497 0.019894 -0.00278713 -0.0094005 -0.0160087 -0.00109549 -0.0161302 -0.0367766 -0.00376248 0.014909
internal_weight=75.5727 71.2964 64.0509 49.3871 13.1782 36.2089 26.3583 22.2324 12.9402 14.6638 9.29225 8.99272 9.8506
internal_count=362 341 309 229 60 169 125 106 62 80 44 48 44
is_linear=0
shrinkage=0.05


Tree=37
num_leaves=15
num_cat=0
split_feature=0 6 6 3 0 7 7 6 1 5 4 7 6 2
split_gain=1.53724 1.34109 3.58468 3.4497 2.2255 5.25811 3.54923 3.00272 2.2909 2.77106 1.72502 2.61486 1.97511 0.488156
threshold=36.292441884054703 -0.0072839083402015661 -0.0028855268969553735 1.1071010134935866 53.173582045549061 0.0085107081492588575 0.0085643001108147033 0.021340725839435481 30.72866296211669 -0.06740984888586464 0.048903063718579796 0.0079456140819586032 -0.026130446665834733 0.0009152562632913781
decision_type=2 2 2 2 2 2 2 2 2 2 2 2 2 2
left_child=-1 3 -3 -2 6 -6 -4 13 -8 -10 11 -5 -13 -7
right_child=1 2 4 10 5 7 8 -9 9 -11 -12 12 -14 -15
leaf_value=0.033482473252702531 -0.052001776039416837 0.044283235095777813 -0.021481156128307241 -0.024746217894093397 0.025377117387382686 -0.036621502199341953 0.04852441557956233 -0.0020092763599205022 0.035496740822420207 -0.020406433663979383 -0.026643082977769829 -0.00308823228146822 0.037710606909072783 -0.061281305191779878
leaf_weight=3.2557466179132453 4.2186466082930592 4.8388442546129218 6.2099651992321041 5.0959047079086366 6.0596921145916012 3.6990497261285764 5.6625871285796157 5.4603729471564284 4.4766474068164825 4.3910887688398343 5.6665829047560683 5.7208601385355058 6.1612299084663311 4.386963278055191
leaf_count=14 21 21 30 24 27 19 26 31 21 20 32 26 27 23
internal_value=-0.000123649 -0.00164225 0.00361753 -0.0104894 -0.00125962 -0.0133376 0.0101578 -0.0306558 0.0236797 0.00781484 -0.00275577 0.00521687 0.0180672 -0.0500004
internal_weight=75.3042 72.0484 45.1852 26.8632 40.3464 19.6061 20.7403 13.5464 14.5303 8.86774 22.6446 16.978 11.8821 8.08601
internal_count=362 348 218 130 197 100 97 73 67 41 109 77 53 42
is_linear=0
shrinkage=0.05


Tree=38
num_leaves=15
num_cat=0
split_feature=1 5 4 4 6 2 2 1 1 4 3 5 0 6
split_gain=1.48568 2.00138 2.22898 2.81919 1.69499 2.82776 2.61895 2.229 3.41119 2.78406 2.23962 2.35597 2.17033 1.75914
threshold=48.674696869443011 -0.11346044299487736 -0.065699463960577867 -0.05373069292528667 -0.039528456558344562 -0.047039586242168821 -0.030862197950945146 29.338748218150993 31.52643107747318 0.045190987062865749 -9.2376872519133624 -0.018604053642698393 50.701290629601523 -0.0072839083402015661
decision_type=2 2 2 2 2 2 2 2 2 2 2 2 2 2
left_child=1 -1 -3 -4 -5 -6 -7 9 -9 10 11 -8 -10 -12
right_child=-2 2 3 4 5 6 7 8 12 -11 13 -13 -14 -15
leaf_value=0.037031877377656307 -0.028926580902612894 -0.0403617199041355 0.040431888079696852 0.03259527403974187 -0.042093570550110926 0.028732344034011877 -0.023894629337353059 -0.054148964939800752 -0.025136787861553517 -0.032150507844481348 0.0012031835139678683 0.021787653283198198 0.017959487165835536 0.040885761103005104
leaf_weight=3.772209718823432 4.2247492149472228 3.3165696114301673 4.3715372383594504 3.496287338435649 4.3310847058892241 6.8606672137975613 6.7086184024810755 4.8703401461243656 6.0568927377462369 4.4433803111314765 4.4394303262233734 4.8721250295639056 5.6432046219706535 7.5295822322368746
leaf_count=18 21 15 20 17 24 30 35 26 30 25 20 22 27 32
internal_value=-0.000123972 0.00159687 -0.000399979 0.00168316 -0.00117569 -0.00329339 -2.55358e-05 -0.00445288 -0.0189872 0.00415064 0.011 -0.00467567 -0.00435054 0.0261671
internal_weight=74.9367 70.7119 66.9397 63.6232 59.2516 55.7553 51.4242 44.5636 16.5704 27.9931 23.5498 11.5807 11.7001 11.969
internal_count=362 341 323 308 288 271 247 217 83 134 109 57 57 52
is_linear=0
shrinkage=0.05


Tree=39
num_leaves=15
num_cat=0
split_feature=1 0 0 6 6 6 4 4 7 5 3 2 5 1
split_gain=1.34666 1.88806 1.83623 1.38094 2.15747 1.79969 1.72347 1.3733 1.86015 3.24078 2.96731 1.38936 0.855945 0.824333
threshold=48.674696869443011 36.910612286634276 40.182381510502019 -0.035898800658852419 -0.027251241038705378 -0.022850536498061902 -0.048557541611383037 -0.012276132784227373 0.013152731390932149 0.051913898827859739 37.997095061189611 0.0083443912979024471 -0.042626768894347952 29.213905956490862
decision_type=2 2 2 2 2 2 2 2 2 2 2 2 2 2
left_child=1 -1 -3 -4 -5 -6 13 12 9 10 11 -9 -8 -7
right_child=-2 2 3 4 5 6 7 8 -10 -11 -12 -13 -14 -15
leaf_value=0.036612767415245821 -0.027607750393919134 -0.032988199202606747 0.03402929066828702 -0.037472893710286233 0.037216778720424136 0.0032913579391627631 -0.0036649593768399305 0.027183893956058094 -0.023454929195768137 0.044599470453994622 -0.027467826853613032 -0.0050976182970578938 -0.030403972326041941 0.033500755123937943
leaf_weight=3.6345699429512015 4.2057326138019553 4.0579938888549796 3.1409394741058341 3.606055110692977 3.4860566407442013 4.1134143471717746 5.4500233009457588 7.3693603575229947 6.0316232144832602 4.7635478600859633 7.0465792268514624 6.0854804366827011 6.6385091319680125 5.0068268030881882
leaf_count=16 21 20 16 18 16 20 27 32 34 22 33 29 35 23
internal_value=-0.000123504 0.0015177 -0.000391919 0.00171645 1.34765e-05 0.00242774 0.000117944 -0.00403545 0.00149322 0.00744921 -0.00118274 0.0125833 -0.0183489 0.0198757
internal_weight=74.6367 70.431 66.7964 62.7384 59.5975 55.9914 52.5054 43.3851 31.2966 25.265 20.5014 13.4548 12.0885 9.12024
internal_count=362 341 325 305 289 271 255 212 150 116 94 61 62 43
is_linear=0
shrinkage=0.05


Tree=40
num_leaves=15
num_cat=0
split_feature=1 5 4 4 6 6 6 7 5 2 2 1 1 5
split_gain=1.22078 1.73541 2.10679 2.42892 1.39885 3.52552 2.23604 1.64003 2.52491 2.75601 2.48184 1.26806 2.34806 0.838941
threshold=48.674696869443011 -0.11346044299487736 -0.065699463960577867 -0.05373069292528667 -0.039528456558344562 -0.028593746335605567 -0.021281267859091665 0.015645001018752509 0.051913898827859739 -0.010336955814459021 0.0083443912979024471 23.744002352177709 29.559246422567885 -0.0023539476443384375
decision_type=2 2 2 2 2 2 2 2 2 2 2 2 2 2
left_child=1 -1 -3 -4 -5 -6 -7 8 9 13 -11 -12 -13 -8
right_child=-2 2 3 4 5 6 7 -9 -10 10 11 12 -14 -15
leaf_value=0.034529718181589029 -0.026349128990692718 -0.039392273402802214 0.037570987897983382 0.029514581484084958 -0.055772375516225284 0.029072167895003942 -0.01205729584837978 -0.034884816585048904 0.032124367019806581 0.02282122159815448 -0.031083891365398915 0.018671717607488508 -0.022512460055327574 -0.042499719937103414
leaf_weight=3.7513797581195822 4.1867897808551779 3.2965111881494513 4.370502606034278 3.5162399858236304 2.9944685995578757 5.8756840601563374 4.0365369692444801 3.8574531674385062 5.1119173765182486 9.7446842193603675 4.6089184433221844 7.3141701593995077 6.5693648010492325 5.1513184756040484
leaf_count=18 21 15 20 17 16 27 20 24 24 42 23 35 35 25
internal_value=-0.000120954 0.00144334 -0.00042459 0.00160953 -0.0010643 -0.0030099 1.27828e-05 -0.00366749 -0.000836548 -0.00533871 0.00240102 -0.00835949 -0.000815674 -0.0291253
internal_weight=74.3859 70.1991 66.4478 63.1513 58.7808 55.2645 52.27 46.3944 42.5369 37.425 28.2371 18.4925 13.8835 9.18786
internal_count=362 341 323 308 288 271 255 228 204 180 135 93 70 45
is_linear=0
shrinkage=0.05


Tree=41
num_leaves=13
num_cat=0
split_feature=3 6 1 1 6 7 4 5 6 3 5 5
split_gain=1.14285 2.03463 2.02691 2.83753 1.81745 2.68218 1.79979 2.5342 1.53772 3.14666 3.15456 1.66504
threshold=-63.599450056252827 0.026836030511467608 41.713876305186005 36.650017149548709 -0.0072839083402015661 0.0086301162642816662 -0.0097268487968874533 0.039478625884875947 0.0021167444439239096 16.384615744649128 -0.011914458318102249 -0.042626768894347952
decision_type=2 2 2 2 2 2 2 2 2 2 2 2
left_child=-1 2 3 4 5 -2 -7 -8 -6 10 11 -10
right_child=1 -3 -4 -5 8 6 7 -9 9 -11 -12 -13
leaf_value=0.023441213121359477 -0.039662747246602542 -0.031112177921069753 -0.027478847737014724 0.032140632023100406 0.024849491095859488 -0.022112808618894281 0.040469792962587306 -0.012292154968291995 0.011617052166752838 -0.034046912477801804 0.038045143515263669 -0.03136171729131159
leaf_weight=4.8124201297760001 6.1637274101376525 5.4392874464392653 5.7854138016700736 7.5525328740477553 8.7763216346502357 5.8489796072244671 4.4406303167343086 4.6683811172842979 4.98879426717758 5.1376585364341727 6.3870190531015423 4.1100673526525497
leaf_count=22 30 35 29 35 39 30 19 24 24 27 27 21
internal_value=-0.000120308 -0.00175653 0.000743866 0.00355545 -0.000717787 -0.0119063 -0.000468675 0.0134292 0.00732034 -0.000139163 0.0111102 -0.00779698
internal_weight=74.1112 69.2988 63.8595 58.0741 50.5216 21.1217 14.958 9.10901 29.3999 20.6235 15.4859 9.09886
internal_count=362 340 305 276 241 103 73 43 138 99 72 45
is_linear=0
shrinkage=0.05


Tree=42
num_leaves=13
num_cat=0
split_feature=1 1 5 7 4 0 1 1 5 2 0 3
split_gain=1.12141 3.21014 3.36002 1.61777 1.58415 2.43294 1.4775 3.03157 2.38057 2.24757 2.1452 2.17674
threshold=24.583570189466545 25.927393489876597 -0.074151355520254272 0.0071170367123107271 -0.011321543425268138 57.345832580597246 31.52643107747318 41.713876305186005 -0.018604053642698393 0.0049493915602850996 52.384300962299925 36.156767236298371
decision_type=2 2 2 2 2 2 2 2 2 2 2 2
left_child=3 -2 -3 -1 -5 -6 8 10 -4 -10 11 -8
right_child=1 2 6 4 5 -7 7 -9 9 -11 -12 -13
leaf_value=0.023806230127852115 0.043423395944746042 0.029960203456493108 -0.043168075619580859 -0.033613342970372627 0.011864319385150944 -0.035846139647219381 0.020156934636678444 -0.029750264390727688 -0.026128184154100821 0.018241378994555871 0.038936173064258395 -0.024862465939638281
leaf_weight=3.1389630138874081 4.6802259236574164 7.7952404096722594 5.7613623514771488 7.1232939660549226 8.0942697972059197 3.9888219311833373 6.1707680597901398 5.4275325238704673 5.6576096862554532 5.760079026222229 5.4659028053283683 4.7532547861337662
leaf_count=15 21 36 31 37 36 22 30 28 29 28 26 23
internal_value=-0.000119006 0.0039415 -7.57136e-06 -0.00947229 -0.0149111 -0.00388567 -0.00599801 0.00263811 -0.0169659 -0.0037443 0.0133635 0.000568118
internal_weight=73.8173 51.472 46.7917 22.3453 19.2064 12.0831 38.9965 21.8175 17.1791 11.4177 16.3899 10.924
internal_count=362 252 231 110 95 58 195 107 88 57 79 53
is_linear=0
shrinkage=0.05


Tree=43
num_leaves=13
num_cat=0
split_feature=1 3 3 4 2 4 4 4 4 8 1 1
split_gain=1.07408 1.50574 1.42772 1.20804 2.44766 1.44981 1.45342 1.1004 2.2946 2.16633 1.55856 1.94047
threshold=48.674696869443011 -55.434661184639374 -46.365255962292117 0.048030184405036057 -0.017266875214852782 0.033686401796212607 0.023526287673754299 -0.012276132784227373 -0.022379535730292936 1.0000000180025095e-35 28.623197632810186 24.583570189466545
decision_type=2 2 2 2 2 2 2 2 2 2 2 2
left_child=1 -1 -3 5 -5 6 7 8 9 -4 11 -9
right_child=-2 2 3 4 -6 -7 -8 10 -10 -11 -12 -13
leaf_value=0.023309056705743694 -0.024975666080991249 -0.024806835791189957 -0.012100158986986086 0.0070554153362567653 -0.043507328520320451 0.027417835985557568 -0.025106000649143107 0.0086120758829385715 -0.033957242294252919 0.03183669195621585 -0.0076728493709000622 0.048754307381983775
leaf_weight=7.0181165337562552 4.1031222417950621 5.7723673731088629 6.3909376114606875 5.5621072128415108 4.2014402374625188 6.0751941353082648 4.640562191605567 8.8990153074264615 4.8234834522008816 5.0006503537297249 6.4702673330903044 4.5497138053178778
leaf_count=32 21 29 32 30 27 27 21 39 27 25 32 20
internal_value=-0.000118112 0.00135145 -0.00111868 0.0012966 -0.0147027 0.00463086 0.00123573 0.0046187 -0.00505205 0.00718713 0.0124912 0.0221922
internal_weight=73.507 69.4039 62.3857 56.6134 9.76355 46.8498 40.7746 36.1341 16.2151 11.3916 19.919 13.4487
internal_count=362 341 309 280 57 223 196 175 84 57 91 59
is_linear=0
shrinkage=0.05


Tree=44
num_leaves=15
num_cat=0
split_feature=7 1 1 5 0 1 4 1 1 6 2 6 7 7
split_gain=1.01928 1.35282 2.97186 2.68008 2.424 2.36066 2.05046 4.41827 1.97802 2.2313 1.64638 2.49429 1.59515 1.08608
threshold=0.0059688650905321524 28.019623557077598 29.338748218150993 -0.081963219533062195 58.72260999557507 30.855146379322068 -0.037783036203184121 41.713876305186005 22.985287446961447 -0.021281267859091665 0.02544529955270591 -0.02170711999836079 0.010028707900555989 0.0085643001108147033
decision_type=2 2 2 2 2 2 2 2 2 2 2 2 2 2
left_child=-1 3 -3 -2 8 -4 7 -7 12 -10 11 -8 -5 -13
right_child=1 2 5 4 -6 6 10 -9 9 -11 -12 13 -14 -15
leaf_value=0.026091343197977242 -0.047830377579550061 0.043968994858292136 -0.036883514004070736 0.00034597038411935267 -0.033316873231934836 0.062171975297926667 -0.024158527738077872 -0.0068560175369895317 0.025406441152718007 -0.020092965897118342 -0.033402430814833635 -0.00053838860497811252 0.041812156882183607 0.032639461274902297
leaf_weight=3.5313688516616812 3.8843243122100821 4.3435208499431601 3.8394389227032653 4.5717294961214119 5.5438435897231093 4.1981010511517507 5.4924232363700858 5.1766377687454224 3.6314791068434742 10.443979077041144 3.912867307662963 4.4632039666175896 4.7073970884084702 5.5140213966369629
leaf_count=17 20 20 21 21 31 20 29 24 17 52 23 20 22 25
internal_value=-0.000115605 -0.00144295 0.00511813 -0.0088361 -0.00359476 -5.87567e-05 0.00485779 0.0240554 0.00346059 -0.00835408 -0.00442752 0.00290135 0.0213822 0.0177977
internal_weight=73.2543 69.723 36.9402 32.7828 28.8984 32.5967 28.7573 9.37474 23.3546 14.0755 19.3825 15.4696 9.27913 9.97723
internal_count=362 345 182 163 143 162 141 44 112 69 97 74 43 45
is_linear=0
shrinkage=0.05


Tree=45
num_leaves=15
num_cat=0
split_feature=4 6 6 5 6 2 3 4 0 0 5 3 5 8
split_gain=1.0103 1.47973 1.97081 2.14862 1.98225 2.79068 2.02179 1.84398 1.12857 2.85416 2.38343 2.80427 2.15529 3.96774
threshold=0.079936600950148123 -0.04118762306075139 -0.028593746335605567 0.051913898827859739 -0.024047358359023014 -0.010336955814459021 37.997095061189611 -0.0089002107261751309 51.800000596976354 49.710464047375424 -0.058071192270911641 -20.954762864781308 -0.011914458318102249 1.0000000180025095e-35
decision_type=2 2 2 2 2 2 2 2 2 2 2 2 2 2
left_child=1 -1 -3 4 -4 6 7 -6 9 10 -7 -12 13 -10
right_child=-2 2 3 -5 5 8 -8 -9 12 -11 11 -13 -14 -15
leaf_value=0.036550013993239365 -0.023421177091068387 -0.033735470587362391 0.039583633861766387 0.028632497587738906 -0.035432993494163754 0.020792892067261148 -0.053064238644935403 0.011142976246533334 0.010364883471644392 0.046956596761272035 -0.043375855065882894 0.011852838065190699 0.010150380304428301 -0.059439927341374148
leaf_weight=2.8644284904003134 4.3709964379668227 4.0984766259789458 2.8243829905986777 6.7764452323317519 3.9150224924087516 8.5086427181959134 4.0396457314491263 4.6479750126600186 4.0011013597250003 4.3426008224487296 4.6246601715683902 4.5693836361169975 9.2161776199936849 4.1441926136612892
leaf_count=13 30 21 13 33 21 40 20 21 20 20 24 21 42 23
internal_value=-0.000114112 0.00137153 -0.000162 0.0020714 -0.00121107 -0.00342643 -0.0239068 -0.0101517 0.00312339 0.0106324 0.00172182 -0.0159275 -0.00641143 -0.0251507
internal_weight=72.9441 68.5731 65.7087 61.6102 54.8338 52.0094 12.6026 8.563 39.4068 22.0453 17.7027 9.19404 17.3615 8.14529
internal_count=362 332 319 298 265 252 62 42 190 105 85 45 85 43
is_linear=0
shrinkage=0.05


Tree=46
num_leaves=14
num_cat=0
split_feature=6 4 6 6 3 3 5 4 3 6 3 0 0
split_gain=0.982675 1.37639 1.29871 3.26883 2.01352 3.21061 2.56512 3.15961 1.86025 1.62907 1.75075 1.65382 1.96205
threshold=0.026836030511467608 -0.023770214600298271 -0.0072839083402015661 -0.0028855268969553735 14.366425868733085 44.023503180570053 -0.015451992703477557 -0.056678015301159727 -33.932164268366826 -0.017531946802481126 41.240608195878167 48.995270823408852 44.936684532021324
decision_type=2 2 2 2 2 2 2 2 2 2 2 2 2
left_child=2 -2 9 -4 6 -6 7 -5 -9 11 -11 12 -1
right_child=1 -3 3 4 5 -7 -8 8 -10 10 -12 -13 -14
leaf_value=0.0092547615521510421 0.00017425864977775092 -0.046041069245732313 0.043889068780841617 0.029840330511865854 -0.046350432371706746 0.012662218638848694 0.032943481019651867 -0.035948225284644544 0.0074232904170601841 -0.0053188988344413154 -0.047323380287472128 0.024464342571063034 -0.031914280589280107
leaf_weight=6.9251762256026321 4.0201508328318596 2.6884176805615416 5.3791907578706732 5.1239002048969242 4.7883787974715215 4.4437767565250397 7.8356040269136455 6.0607562065124476 4.1756399422884023 6.1712618321180326 4.1481514573097229 5.8799826577305785 4.9718111306428909
leaf_count=34 21 21 24 24 24 23 35 30 20 29 22 29 26
internal_value=-0.000115272 -0.0183463 0.00174053 0.00779128 0.00180335 -0.0179455 0.00966354 -0.00221204 -0.0182561 -0.00640153 -0.0222037 0.00277151 -0.00794999
internal_weight=72.6122 6.70857 65.9036 37.8072 32.4281 9.23216 23.1959 15.3603 10.2364 28.0964 10.3194 17.777 11.897
internal_count=362 42 320 180 156 47 109 74 50 140 51 89 60
is_linear=0
shrinkage=0.05


Tree=47
num_leaves=14
num_cat=0
split_feature=1 3 2 5 5 0 0 7 7 6 8 7 5
split_gain=0.996107 1.34624 1.31936 1.71671 1.5979 1.65631 2.05599 3.83076 2.97202 4.19711 1.78701 1.27552 1.67935
threshold=48.674696869443011 -55.434661184639374 0.020304679079274971 -0.081963219533062195 -0.055191421733445052 46.656248997930213 55.643095013355072 0.0085107081492588575 0.011252341319445521 -0.0072839083402015661 1.0000000180025095e-35 0.0090130175451780849 -0.028057749364951669
decision_type=2 2 2 2 2 2 2 2 2 2 2 2 2
left_child=1 -1 3 -3 -5 10 8 -8 9 -7 -6 -4 -13
right_child=-2 2 11 4 5 6 7 -9 -10 -11 -12 12 -14
leaf_value=0.022316141214580032 -0.024134311892357718 -0.031228069226404493 -0.040278958635875856 0.040128536950062403 -0.034361107747039953 -0.015480349651488097 0.024619692190479023 -0.035936649508676241 0.052717773139694238 0.042469535821176026 0.0040246694104519838 -0.032009287801798084 0.0097843156570716003
leaf_weight=6.8656883090734473 4.07332008332014 3.4129878580570212 3.5831178054213515 3.1106407791376105 5.2752912342548353 7.944084838032718 4.8476286530494672 5.6618118807673454 4.9724759757518759 5.15017993748189 7.1298619955778122 3.8113757818937293 6.5073973685502997
leaf_count=32 21 17 22 14 26 39 21 30 24 23 35 22 36
internal_value=-0.000114761 0.00131831 -0.00102939 0.00293531 0.00557977 0.00295738 0.00958025 -0.00800418 0.0198091 0.00731225 -0.0122989 -0.0145774 -0.00565271
internal_weight=72.3459 68.2725 61.4069 47.505 44.092 40.9813 28.5762 10.5094 18.0667 13.0943 12.4052 13.9019 10.3188
internal_count=362 341 309 229 212 198 137 51 86 62 61 80 58
is_linear=0
shrinkage=0.05


Tree=48
num_leaves=14
num_cat=0
split_feature=1 1 5 7 1 2 2 5 0 7 2 2 8
split_gain=0.965074 2.60138 2.67205 1.46425 2.23056 1.47818 1.4177 3.04657 1.95057 3.68145 1.34773 3.00188 2.3148
threshold=24.583570189466545 25.927393489876597 -0.074151355520254272 0.0086948005041862907 23.153671821272145 0.0061851945902343022 -0.0325647289164109 0.064612067119540942 59.60783679992106 0.0081613327853740907 -0.0067281414613941581 0.017032519505464281 1.0000000180025095e-35
decision_type=2 2 2 2 2 2 2 2 2 2 2 2 2
left_child=3 -2 -3 -1 5 -5 7 -4 9 -8 -11 -12 -13
right_child=1 2 6 4 -6 -7 8 -9 -10 10 11 12 -14
leaf_value=0.0084591624707651743 0.039748825543248073 0.027102095172989345 0.034116599153756415 -0.022772537158898088 -0.050959564105101565 0.015773591934997593 -0.045376071251851113 -0.024615181807889634 0.019108616020230285 -0.027935227880553439 0.039894911332158917 0.015103609311807226 -0.037769909963320268
leaf_weight=7.8071523606777218 4.5512258112430564 7.6358621641993514 5.7621593177318555 5.8122111782431585 3.8521897643804541 4.3476184010505676 7.5699880644679132 3.5797863304615021 4.5779258608818045 4.1541509032249495 4.1126223206520054 3.9863466918468458 4.3061061650514603
leaf_count=36 21 36 26 31 20 23 39 22 24 20 19 21 24
internal_value=-0.000113096 0.00370044 0.000109228 -0.00889333 -0.0185617 -0.00627779 -0.00530782 0.0116109 -0.0108135 -0.0164905 -0.00328563 0.00496891 -0.0123526
internal_weight=72.0553 50.2362 45.6849 21.8192 14.012 10.1598 38.0491 9.34195 28.7071 24.1292 16.5592 12.4051 8.29245
internal_count=362 252 231 110 74 54 195 48 147 123 84 64 45
is_linear=0
shrinkage=0.05


Tree=49
num_leaves=14
num_cat=0
split_feature=6 3 1 1 3 7 1 7 6 6 5 1 7
split_gain=0.93866 1.08999 1.57685 2.18749 4.02092 1.3416 2.05036 2.18836 2.46843 2.37632 1.85505 1.46586 1.06685
threshold=0.026836030511467608 -56.455472326640063 41.713876305186005 33.666163554087994 42.39224084039683 0.0160724368530882 29.338748218150993 0.0066733402858285568 0.0096842921953172092 0.0021167444439239096 -0.018604053642698393 24.427953180811176 0.014223931366603833
decision_type=2 2 2 2 2 2 2 2 2 2 2 2 2
left_child=1 -1 3 5 -5 6 7 -3 9 10 -9 -12 -2
right_child=12 2 -4 4 -6 -7 -8 8 -10 -11 11 -13 -14
leaf_value=0.023387217136693058 -0.037679111330673351 0.03600462173472143 -0.026814506945029418 0.054206558742468894 -0.0057569893638919163 -0.029799737363717101 -0.02399719912480645 -0.026241421433335035 0.022710125584043783 -0.044402015464007863 0.029359179592644908 -0.0090173922460313714 0.002568220147292842
leaf_weight=5.3237010538578025 3.3835465759038916 4.9573160260915747 5.0994658023118964 5.1900714859366399 6.0599994212388992 4.1692466363310805 7.2413400486111632 4.8634538650512651 8.2327878326177579 3.9836014062166205 5.3199037015438169 4.6748788878321648 3.2072539627552032
leaf_count=25 24 23 27 24 30 24 38 26 39 20 23 21 18
internal_value=-0.000112516 0.00170748 -0.000222815 0.00225656 0.0219064 -0.00283205 3.08345e-05 0.00546276 -0.000129399 -0.0101089 -0.000914722 0.0114092 -0.0180937
internal_weight=71.7066 65.1158 59.7921 54.6926 11.2501 43.4425 39.2733 32.0319 27.0746 18.8418 14.8582 9.99478 6.5908
internal_count=362 320 295 268 54 214 190 152 129 90 70 44 42
is_linear=0
shrinkage=0.05


Tree=50
num_leaves=14
num_cat=0
split_feature=1 1 5 1 7 1 2 6 5 2 7 1 7
split_gain=0.891802 1.22201 2.24789 4.1029 2.17608 1.93067 2.64758 3.6136 1.69212 2.42086 1.18914 2.06385 1.41663
threshold=48.674696869443011 24.583570189466545 -0.075281212498205199 25.927393489876597 0.0068379301120661713 31.52643107747318 0.017032519505464281 -0.026130446665834733 -0.018604053642698393 0.0049493915602850996 0.0086948005041862907 23.153671821272145 0.013465367381221815
decision_type=2 2 2 2 2 2 2 2 2 2 2 2 2
left_child=1 10 -3 -4 -5 8 7 -7 -6 -10 -1 12 -12
right_child=-2 2 3 4 5 6 -8 -9 9 -11 11 -13 -14
leaf_value=0.0070256416254611889 -0.023040548625554248 0.034705413516420154 0.050346475677911076 -0.035916293626074992 -0.036440140411153933 -0.016538825350759789 -0.019785245836947477 0.04231448222955201 -0.025319252645239449 0.025147594516500251 -0.020091833962173639 -0.04899737649321189 0.018638166944369983
leaf_weight=7.838831931352618 4.002739153802394 5.8937600851058951 3.8976346701383582 4.5653857514262191 4.8659739419817916 3.7387515231966963 4.6370196342468253 8.6252161562442797 4.7713846266269702 4.7338916510343552 6.2918083444237691 3.7534726634621611 3.7791725993156433
leaf_count=36 21 28 18 23 28 20 26 39 25 24 33 20 21
internal_value=-0.000110937 0.00125096 0.00588509 0.00162103 -0.00366351 0.00103001 0.0124341 0.0245178 -0.0124609 -0.000185361 -0.00853124 -0.0173524 -0.00555826
internal_weight=71.395 67.3923 45.729 39.8353 35.9376 31.3722 17.001 12.364 14.3713 9.50528 21.6633 13.8245 10.071
internal_count=362 341 231 203 185 162 85 59 77 49 110 74 54
is_linear=0
shrinkage=0.05


Tree=51
num_leaves=14
num_cat=0
split_feature=0 7 1 4 4 7 5 1 3 3 4 4 7
split_gain=0.858364 1.1016 1.56182 1.99977 3.24229 1.47771 2.43825 1.97651 1.35026 3.76626 1.27384 2.77632 1.87338
threshold=36.609313208055731 0.0066733402858285568 24.278223297771813 -0.011321543425268138 0.014294940655469332 0.010331902326375436 0.076098090412187902 41.289153873423423 -37.041432044352469 -2.9924349996228101 -0.0051199315658196796 -0.037783036203184121 0.0083613359616747981
decision_type=2 2 2 2 2 2 2 2 2 2 2 2 2
left_child=-1 -2 3 -3 -5 10 7 8 -7 -10 11 -4 -12
right_child=1 2 5 4 -6 6 -8 -9 9 -11 12 -13 -14
leaf_value=0.02367382686515826 0.016652449007993796 -0.039613989093741399 0.0079040720500455196 0.018609380077713306 -0.035961962187657237 0.054433268994177025 -0.016069532067728046 -0.0098909082457634395 -0.018500391087723361 0.048677520864199381 0.025068448425929847 -0.048423912369855306 -0.016348294937233644
leaf_weight=3.6015663146972647 7.5249631181359282 6.0125702619552639 4.0304825603961945 6.6030793786048871 4.6306235194206238 3.9379008039832142 6.389468625187873 4.0751138404011717 3.7385809496045121 4.7211229056119928 5.0901806503534299 4.784250773489477 5.8892864659428596
leaf_count=17 37 34 19 29 27 20 39 20 20 21 22 28 29
internal_value=-0.000108843 -0.00137917 -0.00364429 -0.0163414 -0.00388537 0.00148925 0.0101485 0.0203181 0.0302478 0.0189897 -0.00851218 -0.0226683 0.00285288
internal_weight=71.0292 67.4276 59.9027 17.2463 11.2337 42.6564 22.8622 16.4727 12.3976 8.4597 19.7942 8.81473 10.9795
internal_count=362 345 308 90 56 218 120 81 61 41 98 47 51
is_linear=0
shrinkage=0.05


Tree=52
num_leaves=13
num_cat=0
split_feature=6 0 1 1 7 1 4 1 4 3 0 6
split_gain=0.86327 1.05059 1.49725 2.46085 1.39666 3.01683 1.85258 2.41238 2.07284 1.8819 3.38037 0.777786
threshold=0.026836030511467608 62.18458648039816 41.713876305186005 37.890376117700335 0.0082352491733305618 26.089521839910926 0.048030184405036057 24.583570189466545 -0.011321543425268138 -37.041432044352469 48.995270823408852 0.038814514485349026
decision_type=2 2 2 2 2 2 2 2 2 2 2 2
left_child=1 2 3 4 5 -1 7 8 -6 -9 -11 -2
right_child=11 -3 -4 -5 6 -7 -8 9 -10 10 -12 -13
leaf_value=0.0085854017214481784 -0.03412652925463066 0.024179976876370971 -0.022343576406481585 0.0357468085680505 -0.032541678309014423 -0.03840625472291323 -0.024205756849277477 0.048913366679817695 0.0096348499129143717 -0.013932107857452565 0.037880409663045539 0.0005530047030082296
leaf_weight=6.9969563037157041 3.3731235265731803 4.7871553823351851 6.7478342056274405 5.0813220217823973 4.982477605342865 6.672596275806427 4.800322897732257 4.5492463111877415 7.0142326056957263 6.4399526417255437 6.158335767686367 3.1051202714443207
leaf_count=33 24 23 35 24 29 34 30 21 30 32 29 18
internal_value=-0.000108126 0.00164642 -0.000168276 0.00267135 -0.000858426 -0.0143529 0.00457583 0.00931642 -0.00788192 0.0213487 0.0113951 -0.0175041
internal_weight=70.7087 64.2304 59.4433 52.6954 47.6141 13.6696 33.9446 29.1442 11.9967 17.1475 12.5983 6.47824
internal_count=362 320 297 262 238 67 171 141 59 82 61 42
is_linear=0
shrinkage=0.05


Tree=53
num_leaves=15
num_cat=0
split_feature=6 2 2 5 2 4 3 4 2 1 1 5 2 6
split_gain=0.83521 2.82769 1.19229 2.41342 1.92453 1.32357 0.996961 2.12531 1.76793 1.54945 1.69141 1.0356 0.764995 0.68121
threshold=-0.039528456558344562 -0.047039586242168821 -0.019854818004301323 0.035736821471604424 -0.012269655277960626 0.048030184405036057 -63.599450056252827 -0.065699463960577867 0.0083443912979024471 29.559246422567885 26.898250825435863 -0.03142779318119953 0.020847611457876749 -0.019177156925490751
decision_type=2 2 2 2 2 2 2 2 2 2 2 2 2 2
left_child=-1 -2 3 13 -4 6 -6 -8 11 10 12 -9 -10 -3
right_child=1 2 4 -5 5 -7 7 8 9 -11 -12 -13 -14 -15
leaf_value=0.02209073819556703 -0.038476301636874793 0.011559741484213144 -0.034732418043355619 0.036504879724043475 0.030716245759174799 -0.02769491611482849 -0.031892389743037236 0.04016555442410423 -0.021627309966996203 -0.023039195166293241 0.032810798943025736 0.0096135798243404541 0.0077937693814395291 -0.017729972196411588
leaf_weight=3.9973163083195677 4.7830801382660857 3.6324622109532347 4.2003451958298674 6.5312704145908347 3.0868916511535565 3.7382853105664244 4.2971065938472668 4.3603520840406418 4.1188317239284533 6.7547023072838774 4.1522948443889609 7.6221452504396598 4.7660592868924141 4.3773693293333045
leaf_count=20 29 18 24 29 15 25 21 20 19 39 21 34 26 22
internal_value=-0.000106222 -0.00144206 0.00143177 0.0139469 -0.00243224 0.000730518 0.00344417 0.00111031 0.00557353 -0.00360332 0.00646661 0.0207312 -0.00584517 -0.00444707
internal_weight=70.4185 66.4212 61.6381 14.5411 47.097 42.8967 39.1584 36.0715 31.7744 19.7919 13.0372 11.9825 8.88489 8.00983
internal_count=362 342 313 69 244 220 195 180 159 105 66 54 45 40
is_linear=0
shrinkage=0.05


Tree=54
num_leaves=14
num_cat=0
split_feature=7 1 1 5 0 1 1 0 6 0 4 7 2
split_gain=0.831126 1.00971 2.33037 2.29209 2.1205 1.85648 1.66234 1.63993 1.32545 1.21357 1.62363 2.00051 1.1096
threshold=0.0059688650905321524 28.019623557077598 29.338748218150993 -0.081963219533062195 58.72260999557507 31.03414203080758 22.176521047120932 41.017848643649323 -0.021281267859091665 53.594073070272223 -0.056678015301159727 0.0098103132861466474 0.0043018220244609344
decision_type=2 2 2 2 2 2 2 2 2 2 2 2 2
left_child=-1 3 -3 -2 6 -4 -5 -7 -8 10 -9 -12 -10
right_child=1 2 5 4 -6 7 8 9 12 -11 11 -13 -14
leaf_value=0.024129175794260025 -0.045603280658671634 0.039334874098243461 -0.031513723154918842 0.025651198737529135 -0.031545126893145418 0.038145582874275337 0.0194695740830844 0.017635034418803121 -0.03315250551873819 0.016976099212918712 0.0031086385215958069 -0.037933148371491837 -0.0017265827257105062
leaf_weight=3.3682599142193785 3.5634513571858433 4.2211601585149756 4.1210078895092037 6.2205552309751573 5.2807905972003928 3.1959712803363827 4.2119280993938544 4.6214839667081913 4.3955111205577762 7.2986897453665724 5.9725240841507876 5.9043544679880142 7.7814217656850815
leaf_count=17 20 20 24 29 31 15 20 23 24 38 30 32 39
internal_value=-0.00010436 -0.00132649 0.00447377 -0.00784254 -0.00301796 -0.000255741 0.00364502 0.0045164 -0.00470765 -4.30966e-08 -0.0075101 -0.0172945 -0.0130704
internal_weight=70.1571 66.7888 35.3352 31.4537 27.8902 31.114 22.6094 26.993 16.3889 23.7971 16.4984 11.8769 12.1769
internal_count=362 345 182 163 143 162 112 138 83 123 85 62 63
is_linear=0
shrinkage=0.05


Tree=55
num_leaves=14
num_cat=0
split_feature=1 3 3 4 6 4 4 7 3 1 0 8 3
split_gain=0.832318 0.973949 1.37712 0.88008 2.13276 1.2889 1.1557 1.00527 3.61068 2.60645 1.37875 1.7468 1.07549
threshold=48.674696869443011 -55.434661184639374 -46.365255962292117 0.048030184405036057 0.00031910217762357441 0.033686401796212607 0.023526287673754299 0.010131554941540589 -4.4279419862070108 27.352570369693332 49.853974565981424 1.0000000180025095e-35 -21.894225586004271
decision_type=2 2 2 2 2 2 2 2 2 2 2 2 2
left_child=1 -1 -3 5 -5 6 7 10 9 -9 11 -4 -12
right_child=-2 2 3 4 -6 -7 -8 8 -10 -11 12 -13 -14
leaf_value=0.019447413907772441 -0.022398036646533965 -0.024788983022230246 -0.036787331713640799 0.003467392913089912 -0.048814036527833525 0.026419541893441659 -0.022713210293727651 -0.035534860692029629 0.046937453560194173 0.01978676686959261 0.031280794451816481 0.0035772321331739481 -0.0026787557780832607
leaf_weight=6.6036675572395316 3.9496557191014281 5.4325544983148566 4.9682665467262286 6.4066096097230893 2.8046378865838051 5.8416737914085379 4.4612613692879668 3.9080830067396146 5.3495921790599814 4.6772893369197845 3.8975023850798607 5.820219874382019 5.8022607341408712
leaf_count=32 21 29 27 36 21 27 21 23 24 24 20 29 28
internal_value=-0.000102939 0.00123181 -0.0007943 0.00162244 -0.0124512 0.00452088 0.00123101 0.00433419 0.0146948 -0.00539578 -0.00271252 -0.0150113 0.0109667
internal_weight=69.9233 65.9736 59.37 53.9374 9.21125 44.7261 38.8845 34.4232 13.935 8.58537 20.4882 10.7885 9.69976
internal_count=362 341 309 280 57 223 196 175 71 47 104 56 48
is_linear=0
shrinkage=0.05


Tree=56
num_leaves=15
num_cat=0
split_feature=5 6 7 5 3 2 2 6 5 3 1 5 3 3
split_gain=0.809814 1.48687 1.27353 1.60021 1.97011 1.77082 2.31236 1.76632 1.64572 3.34472 1.14165 1.3002 1.05734 0.891225
threshold=-0.11346044299487736 0.026836030511467608 0.016578882214393555 0.051913898827859739 55.37642070194007 -0.010336955814459021 -0.019854818004301323 -0.017531946802481126 -0.064185451868521898 -46.365255962292117 26.089521839910926 -0.015451992703477557 -20.204164664207863 33.338856046035012
decision_type=2 2 2 2 2 2 2 2 2 2 2 2 2 2
left_child=-1 2 3 5 -5 6 7 13 -7 -10 12 -12 -11 -2
right_child=1 -3 -4 4 -6 8 -8 -9 9 10 11 -13 -14 -15
leaf_value=0.019434987457642182 -0.0085726775705580634 -0.028575528422538233 -0.025917219843001566 0.04854064798361097 0.0016707619070537773 0.03160051745788002 -0.04902030816236988 -0.029072118576365016 -0.045545452633461915 0.039068253629408814 -0.025980193266480624 0.0096283183008041284 0.0055706454846829699 0.023567627407268456
leaf_weight=4.9289839789271346 3.9495007321238518 4.7311347275972357 4.2283786386251441 3.9061466157436353 5.2626938670873642 5.2455665767192832 3.6978086382150606 4.695326156914235 3.3653855323791495 4.3642654120922089 3.8849723935127267 7.5369049608707401 5.1187171936035281 4.7520706057548523
leaf_count=25 21 34 28 20 27 26 21 24 17 20 20 35 23 21
internal_value=-0.000101667 -0.00158912 0.000538547 0.00254404 0.0216385 -0.00121206 -0.014018 -0.00435667 0.00620477 0.000715945 0.00816337 -0.00248336 0.0209869 0.00897967
internal_weight=69.6679 64.7389 60.0077 55.7794 9.16884 46.6105 17.0947 13.3969 29.5158 24.2702 20.9049 11.4219 9.48298 8.70157
internal_count=362 337 303 275 47 228 87 66 141 115 98 55 43 42
is_linear=0
shrinkage=0.05


Tree=57
num_leaves=14
num_cat=0
split_feature=7 1 1 1 3 0 0 7 6 8 1 1 7
split_gain=0.818063 0.93279 2.07212 1.67155 1.61034 1.86662 1.50024 1.24814 1.20935 1.11349 2.39553 2.3409 0.850884
threshold=0.0059688650905321524 28.019623557077598 29.338748218150993 31.03414203080758 -4.4279419862070108 58.11617654828337 41.017848643649323 0.0099581868241962693 0.010298768997969462 1.0000000180025095e-35 37.890376117700335 38.541100971647772 0.0096890189661996851
decision_type=2 2 2 2 2 2 2 2 2 2 2 2 2
left_child=-1 4 -3 -4 8 7 -5 -6 12 11 -11 -8 -2
right_child=1 2 3 6 5 -7 9 -9 -10 10 -12 -13 -14
leaf_value=0.024022677349969726 -0.01574423934159978 0.037276845846069911 -0.030248617424758224 0.036683031628542292 -0.0073793908578307478 -0.027487106925548063 0.030260922105165941 0.024390894422662728 -0.0038574477015171603 -0.04159141574877373 0.0069384530390064871 -0.012409769495135366 -0.048761797551659193
leaf_weight=3.3448901027441016 3.6922965347766894 4.1880172640085211 4.0254589542746571 3.1565586179494884 5.0839056372642535 3.9059485122561446 6.7290815487504005 7.8880452737212181 6.3718853965401649 4.1625762283802032 6.5350433960556984 6.1531941071152687 4.1382378563284874
leaf_count=17 18 20 24 15 25 23 34 39 34 22 34 33 24
internal_value=-0.000100921 -0.00132295 0.0042812 -0.000210919 -0.00762484 0.00281535 0.00431158 0.0119396 -0.0200318 -2.18769e-05 -0.0119451 0.00987935 -0.0331932
internal_weight=69.3751 66.0302 34.9499 30.7619 31.0803 16.8779 26.7365 12.972 14.2024 23.5799 10.6976 12.8823 7.83053
internal_count=362 345 182 162 163 87 138 64 76 123 56 67 42
is_linear=0
shrinkage=0.05


Tree=58
num_leaves=13
num_cat=0
split_feature=0 0 1 1 2 7 1 5 1 5 7 5
split_gain=0.805386 1.57799 1.40173 2.34754 1.80991 1.11144 3.63006 1.39968 3.31612 1.97522 1.45361 0.847344
threshold=62.18458648039816 57.623544125281875 41.713876305186005 37.890376117700335 0.016290573205760325 0.0082352491733305618 26.089521839910926 -0.019748675683798324 25.48091582650839 -0.0047127983643665125 0.012435065533900258 0.033837648700822141
decision_type=2 2 2 2 2 2 2 2 2 2 2 2
left_child=1 2 3 5 -4 6 -1 8 -7 -9 11 -11
right_child=-2 -3 4 -5 -6 7 -8 9 -10 10 -12 -13
leaf_value=0.014653618454349258 0.018116881895820534 -0.026039722345748223 -0.042213134105628915 0.035976420941513196 0.0052921374928545564 -0.035782192216277306 -0.040075916144950624 0.047085811829552834 0.014533427218651088 0.0036405615413363599 -0.011415575208224808 0.03508224338127363
leaf_weight=6.0793106555938703 5.5779219567775717 6.0268475189805022 4.0233803242444974 5.1414863318204871 3.9966839551925659 5.7776721790432841 6.0399080738425255 3.6223424375057176 7.5588159933686256 4.2059800624847536 6.7070566415786734 4.3684253841638565
leaf_count=29 30 36 21 26 21 34 32 17 39 20 36 21
internal_value=-9.96734e-05 -0.00169863 0.000851738 0.00399348 -0.0185396 0.000286502 -0.0126222 0.00513891 -0.00726445 0.0138894 0.00602046 0.0196592
internal_weight=69.1258 63.5479 57.5211 49.501 8.02006 44.3595 12.1192 32.2403 13.3365 18.9038 15.2815 8.57441
internal_count=362 332 296 254 42 228 61 167 73 94 77 41
is_linear=0
shrinkage=0.05


Tree=59
num_leaves=15
num_cat=0
split_feature=2 6 0 0 5 4 7 1 1 3 5 1 1 7
split_gain=0.7913 0.863375 0.983275 1.15568 1.0592 2.18543 1.12761 2.77214 1.59256 1.58221 2.55033 1.81865 1.52658 0.942719
